{"learner":{"attributes":{"scikit_learn":"{\"_estimator_type\": \"classifier\"}"},"feature_names":[],"feature_types":[],"gradient_booster":{"model":{"cats":{"enc":[],"feature_segments":[],"sorted_idx":[]},"gbtree_model_param":{"num_parallel_tree":"1","num_trees":"100"},"iteration_indptr":[0,1,2,3,4,5,6,7,8,9,10,11,12,13,14,15,16,17,18,19,20,21,22,23,24,25,26,27,28,29,30,31,32,33,34,35,36,37,38,39,40,41,42,43,44,45,46,47,48,49,50,51,52,53,54,55,56,57,58,59,60,61,62,63,64,65,66,67,68,69,70,71,72,73,74,75,76,77,78,79,80,81,82,83,84,85,86,87,88,89,90,91,92,93,94,95,96,97,98,99,100],"tree_info":[0,0,0,0,0,0,0,0,0,0,0,0,0,0,0,0,0,0,0,0,0,0,0,0,0,0,0,0,0,0,0,0,0,0,0,0,0,0,0,0,0,0,0,0,0,0,0,0,0,0,0,0,0,0,0,0,0,0,0,0,0,0,0,0,0,0,0,0,0,0,0,0,0,0,0,0,0,0,0,0,0,0,0,0,0,0,0,0,0,0,0,0,0,0,0,0,0,0,0,0],"trees":[{"base_weights":[-7.7258596E-7,-3.539939E-1,8.211954E-1,9.329143E-3,9.116539E-2],"categories":[],"categories_nodes":[],"categories_segments":[],"categories_sizes":[],"default_left":[0,0,0,0,0],"id":0,"left_children":[1,-1,3,-1,-1],"loss_changes":[3.385658E1,0E0,5.374236E-1,0E0,0E0],"parents":[2147483647,0,0,2,2],"right_children":[2,-1,4,-1,-1],"split_conditions":[6.549179E-1,-3.539939E-1,7.410388E-1,9.329143E-3,9.116539E-2],"split_indices":[7,0,7,0,0],"split_type":[0,0,0,0,0],"sum_hessian":[9.646635E0,1.1930468E0,8.4535885E0,1.1589597E0,7.2946286E0],"tree_param":{"num_deleted":"0","num_feature":"8","num_nodes":"5","size_leaf_vector":"1"}},{"base_weights":[-1.4200012E-2,-2.7412438E-1,8.0402017E-1,8.8717295E-3,8.992295E-2],"categories":[],"categories_nodes":[],"categories_segments":[],"categories_sizes":[],"default_left":[0,0,0,0,0],"id":1,"left_children":[1,-1,3,-1,-1],"loss_changes":[2.563082E1,0E0,5.2288246E-1,0E0,0E0],"parents":[2147483647,0,0,2,2],"right_children":[2,-1,4,-1,-1],"split_conditions":[6.549179E-1,-2.7412438E-1,7.410388E-1,8.8717295E-3,8.992295E-2],"split_indices":[7,0,7,0,0],"split_type":[0,0,0,0,0],"sum_hessian":[9.499067E0,1.6498927E0,7.849175E0,1.1489539E0,6.700221E0],"tree_param":{"num_deleted":"0","num_feature":"8","num_nodes":"5","size_leaf_vector":"1"}},{"base_weights":[-2.1604307E-2,-2.1752257E0,7.865929E-1,-2.8067762E-1,-4.4906285E-2,8.436344E-3,8.865942E-2],"categories":[],"categories_nodes":[],"categories_segments":[],"categories_sizes":[],"default_left":[0,0,0,0,0,0,0],"id":2,"left_children":[1,3,5,-1,-1,-1,-1],"loss_changes":[1.981562E1,2.1233215E0,5.0790405E-1,0E0,0E0,0E0,0E0],"parents":[2147483647,0,0,1,1,2,2],"right_children":[2,4,6,-1,-1,-1,-1],"split_conditions":[6.549179E-1,-1.6054781E-3,7.410388E-1,-2.8067762E-1,-4.4906285E-2,8.436344E-3,8.865942E-2],"split_indices":[7,4,7,0,0,0,0],"split_type":[0,0,0,0,0,0,0],"sum_hessian":[9.401651E0,2.1038966E0,7.297755E0,1.082004E0,1.0218927E0,1.139509E0,6.158246E0],"tree_param":{"num_deleted":"0","num_feature":"8","num_nodes":"7","size_leaf_vector":"1"}},{"base_weights":[-3.595026E-2,-1.8506916E0,7.6891756E-1,-2.391748E-1,-3.7779E-2,7.15894E-3,8.750949E-2],"categories":[],"categories_nodes":[],"categories_segments":[],"categories_sizes":[],"default_left":[0,0,0,0,0,0,0],"id":3,"left_children":[1,3,5,-1,-1,-1,-1],"loss_changes":[1.6368387E1,1.8357038E0,5.144844E-1,0E0,0E0,0E0,0E0],"parents":[2147483647,0,0,1,1,2,2],"right_children":[2,4,6,-1,-1,-1,-1],"split_conditions":[6.549179E-1,1.5138853E-3,3.5285725E1,-2.391748E-1,-3.7779E-2,7.15894E-3,8.750949E-2],"split_indices":[7,6,1,0,0,0,0],"split_type":[0,0,0,0,0,0,0],"sum_hessian":[9.232153E0,2.437325E0,6.7948275E0,1.3262904E0,1.1110346E0,1.1191255E0,5.675702E0],"tree_param":{"num_deleted":"0","num_feature":"8","num_nodes":"7","size_leaf_vector":"1"}},{"base_weights":[-4.541925E-2,-1.5853233E0,7.5087804E-1,-4.620859E-2,-2.2222789E-1,4.3187663E-3,8.62705E-2],"categories":[],"categories_nodes":[],"categories_segments":[],"categories_sizes":[],"default_left":[0,0,0,0,0,0,0],"id":4,"left_children":[1,3,5,-1,-1,-1,-1],"loss_changes":[1.3576331E1,1.6663046E0,5.433512E-1,0E0,0E0,0E0,0E0],"parents":[2147483647,0,0,1,1,2,2],"right_children":[2,4,6,-1,-1,-1,-1],"split_conditions":[6.549179E-1,6.091323E-1,7.410388E-1,-4.620859E-2,-2.2222789E-1,4.3187663E-3,8.62705E-2],"split_indices":[7,7,7,0,0,0,0],"split_type":[0,0,0,0,0,0,0],"sum_hessian":[9.1009035E0,2.764316E0,6.336588E0,1.624701E0,1.1396149E0,1.0538106E0,5.2827773E0],"tree_param":{"num_deleted":"0","num_feature":"8","num_nodes":"7","size_leaf_vector":"1"}},{"base_weights":[-5.4836288E-2,-1.605665E0,6.357675E-1,-2.2695684E-1,-2.7391542E-2,-3.770307E-2,8.736724E-2],"categories":[],"categories_nodes":[],"categories_segments":[],"categories_sizes":[],"default_left":[0,0,0,0,0,0,0],"id":5,"left_children":[1,3,5,-1,-1,-1,-1],"loss_changes":[1.16969E1,2.344613E0,2.1638236E0,0E0,0E0,0E0,0E0],"parents":[2147483647,0,0,1,1,2,2],"right_children":[2,4,6,-1,-1,-1,-1],"split_conditions":[6.305531E-1,1.0504131E-2,3.5285725E1,-2.2695684E-1,-2.7391542E-2,-3.770307E-2,8.736724E-2],"split_indices":[7,0,1,0,0,0,0],"split_type":[0,0,0,0,0,0,0],"sum_hessian":[8.968245E0,2.3549418E0,6.613303E0,1.1015811E0,1.2533607E0,1.1467236E0,5.4665794E0],"tree_param":{"num_deleted":"0","num_feature":"8","num_nodes":"7","size_leaf_vector":"1"}},{"base_weights":[-6.652531E-2,-1.2581197E0,7.1565866E-1,-1.7184607E0,8.354775E-3,2.000994E-3,8.392106E-2,-2.2411072E-1,-3.735662E-2],"categories":[],"categories_nodes":[],"categories_segments":[],"categories_sizes":[],"default_left":[0,0,0,0,0,0,0,0,0],"id":6,"left_children":[1,3,5,7,-1,-1,-1,-1,-1],"loss_changes":[1.0050049E1,2.7702336E0,5.4736733E-1,1.421071E0,0E0,0E0,0E0,0E0,0E0],"parents":[2147483647,0,0,1,1,2,2,3,3],"right_children":[2,4,6,8,-1,-1,-1,-1,-1],"split_conditions":[6.549179E-1,3.0336992E-3,-1.0379502E-2,1.0908347E-2,8.354775E-3,2.000994E-3,8.392106E-2,-2.2411072E-1,-3.735662E-2],"split_indices":[7,5,3,0,0,0,0,0,0],"split_type":[0,0,0,0,0,0,0,0,0],"sum_hessian":[8.816753E0,3.252841E0,5.5639124E0,2.212774E0,1.040067E0,1.0143958E0,4.549516E0,1.1136221E0,1.0991521E0],"tree_param":{"num_deleted":"0","num_feature":"8","num_nodes":"9","size_leaf_vector":"1"}},{"base_weights":[-7.400578E-2,-1.1261837E0,6.968813E-1,-1.5106984E0,7.956531E-3,1.9022002E-3,8.252332E-2,-1.9292521E-1,-3.4814008E-2],"categories":[],"categories_nodes":[],"categories_segments":[],"categories_sizes":[],"default_left":[0,0,0,0,0,0,0,0,0],"id":7,"left_children":[1,3,5,7,-1,-1,-1,-1,-1],"loss_changes":[8.64599E0,2.1974778E0,5.2472067E-1,1.0057187E0,0E0,0E0,0E0,0E0,0E0],"parents":[2147483647,0,0,1,1,2,2,3,3],"right_children":[2,4,6,8,-1,-1,-1,-1,-1],"split_conditions":[6.549179E-1,3.0336992E-3,-1.0379502E-2,1.0908347E-2,7.956531E-3,1.9022002E-3,8.252332E-2,-1.9292521E-1,-3.4814008E-2],"split_indices":[7,5,3,0,0,0,0,0,0],"split_type":[0,0,0,0,0,0,0,0,0],"sum_hessian":[8.691865E0,3.4804847E0,5.2113805E0,2.4471676E0,1.0333169E0,1.0124699E0,4.1989107E0,1.3144429E0,1.1327249E0],"tree_param":{"num_deleted":"0","num_feature":"8","num_nodes":"9","size_leaf_vector":"1"}},{"base_weights":[-7.816749E-2,-1.1741065E0,5.7979226E-1,-1.6776764E-1,9.007829E-3,-4.14075E-2,8.4883824E-2],"categories":[],"categories_nodes":[],"categories_segments":[],"categories_sizes":[],"default_left":[0,0,0,0,0,0,0],"id":8,"left_children":[1,3,5,-1,-1,-1,-1],"loss_changes":[7.590987E0,2.6501832E0,2.1316812E0,0E0,0E0,0E0,0E0],"parents":[2147483647,0,0,1,1,2,2],"right_children":[2,4,6,-1,-1,-1,-1],"split_conditions":[6.305531E-1,1.0908347E-2,3.5285725E1,-1.6776764E-1,9.007829E-3,-4.14075E-2,8.4883824E-2],"split_indices":[7,0,1,0,0,0,0],"split_type":[0,0,0,0,0,0,0],"sum_hessian":[8.583143E0,2.9256055E0,5.6575375E0,1.8582977E0,1.0673078E0,1.090422E0,4.567116E0],"tree_param":{"num_deleted":"0","num_feature":"8","num_nodes":"7","size_leaf_vector":"1"}},{"base_weights":[-7.959426E-2,-8.115319E-1,8.063613E-2,-1.1977409E0,2.2844864E-2,-1.8070339E-1,-2.8682295E-2],"categories":[],"categories_nodes":[],"categories_segments":[],"categories_sizes":[],"default_left":[0,0,0,0,0,0,0],"id":9,"left_children":[1,3,-1,5,-1,-1,-1],"loss_changes":[6.8073597E0,2.5607383E0,0E0,1.8751974E0,0E0,0E0,0E0],"parents":[2147483647,0,0,1,1,3,3],"right_children":[2,4,-1,6,-1,-1,-1],"split_conditions":[7.410388E-1,3.0336992E-3,8.063613E-2,3.5606323E1,2.2844864E-2,-1.8070339E-1,-2.8682295E-2],"split_indices":[7,5,0,1,0,0,0],"split_type":[0,0,0,0,0,0,0],"sum_hessian":[8.48853E0,4.694305E0,3.7942252E0,3.3124807E0,1.3818241E0,1.3953867E0,1.9170941E0],"tree_param":{"num_deleted":"0","num_feature":"8","num_nodes":"7","size_leaf_vector":"1"}},{"base_weights":[-8.0583E-2,-7.3516595E-1,7.918482E-2,5.654495E-2,-1.1189796E0,-1.5765254E-1,-7.586756E-3],"categories":[],"categories_nodes":[],"categories_segments":[],"categories_sizes":[],"default_left":[0,0,0,0,0,0,0],"id":10,"left_children":[1,3,-1,-1,5,-1,-1],"loss_changes":[5.94952E0,3.572138E0,0E0,0E0,2.210575E0,0E0,0E0],"parents":[2147483647,0,0,1,1,4,4],"right_children":[2,4,-1,-1,6,-1,-1],"split_conditions":[7.410388E-1,9.396096E-3,7.918482E-2,5.654495E-2,1.7467163E-3,-1.5765254E-1,-7.586756E-3],"split_indices":[7,0,0,0,3,0,0],"split_type":[0,0,0,0,0,0,0],"sum_hessian":[8.398672E0,4.8883166E0,3.5103555E0,1.0060184E0,3.8822982E0,2.343145E0,1.5391533E0],"tree_param":{"num_deleted":"0","num_feature":"8","num_nodes":"7","size_leaf_vector":"1"}},{"base_weights":[-7.224669E-2,-6.494791E-1,7.7710465E-2,2.6617954E-2,-9.732171E-1,-1.3207918E-1,1.0839557E-2],"categories":[],"categories_nodes":[],"categories_segments":[],"categories_sizes":[],"default_left":[0,0,0,0,0,0,0],"id":11,"left_children":[1,3,-1,-1,5,-1,-1],"loss_changes":[5.104585E0,2.0763934E0,0E0,0E0,1.9266639E0,0E0,0E0],"parents":[2147483647,0,0,1,1,4,4],"right_children":[2,4,-1,-1,6,-1,-1],"split_conditions":[7.410388E-1,9.780094E-3,7.7710465E-2,2.6617954E-2,3.0336992E-3,-1.3207918E-1,1.0839557E-2],"split_indices":[7,0,0,0,5,0,0],"split_type":[0,0,0,0,0,0,0],"sum_hessian":[8.382265E0,5.130691E0,3.2515743E0,1.386609E0,3.7440822E0,2.6661777E0,1.0779045E0],"tree_param":{"num_deleted":"0","num_feature":"8","num_nodes":"7","size_leaf_vector":"1"}},{"base_weights":[-6.413493E-2,-5.765929E-1,7.621575E-2,-1.1241616E0,-5.1845316E-2,1.3851133E-2,-1.8337457E-1,-7.303401E-2,6.748472E-2],"categories":[],"categories_nodes":[],"categories_segments":[],"categories_sizes":[],"default_left":[0,0,0,0,0,0,0,0,0],"id":12,"left_children":[1,3,-1,5,7,-1,-1,-1,-1],"loss_changes":[4.405078E0,1.7661958E0,0E0,2.9946926E0,2.6084476E0,0E0,0E0,0E0,0E0],"parents":[2147483647,0,0,1,1,3,3,4,4],"right_children":[2,4,-1,6,8,-1,-1,-1,-1],"split_conditions":[7.410388E-1,3.5606323E1,7.621575E-2,-1.1055555E-2,1.0499445E-2,1.3851133E-2,-1.8337457E-1,-7.303401E-2,6.748472E-2],"split_indices":[7,1,0,4,0,0,0,0,0],"split_type":[0,0,0,0,0,0,0,0,0],"sum_hessian":[8.365251E0,5.3496475E0,3.015603E0,2.058908E0,3.2907393E0,1.0303125E0,1.0285956E0,1.6992097E0,1.5915296E0],"tree_param":{"num_deleted":"0","num_feature":"8","num_nodes":"9","size_leaf_vector":"1"}},{"base_weights":[-6.6280775E-2,-5.3430486E-1,7.470363E-2,2.8687844E-2,-8.246478E-1,-1.1151587E-1,1.2613811E-2],"categories":[],"categories_nodes":[],"categories_segments":[],"categories_sizes":[],"default_left":[0,0,0,0,0,0,0],"id":13,"left_children":[1,3,-1,-1,5,-1,-1],"loss_changes":[3.9250498E0,1.7773874E0,0E0,0E0,1.5307086E0,0E0,0E0],"parents":[2147483647,0,0,1,1,4,4],"right_children":[2,4,-1,-1,6,-1,-1],"split_conditions":[7.410388E-1,9.780094E-3,7.470363E-2,2.8687844E-2,5.723854E-3,-1.1151587E-1,1.2613811E-2],"split_indices":[7,0,0,0,2,0,0],"split_type":[0,0,0,0,0,0,0],"sum_hessian":[8.262804E0,5.4624734E0,2.800331E0,1.429975E0,4.032498E0,2.9563193E0,1.0761789E0],"tree_param":{"num_deleted":"0","num_feature":"8","num_nodes":"7","size_leaf_vector":"1"}},{"base_weights":[-5.7036743E-2,-5.791E-1,5.8555543E-1,-1.2630409E-1,-4.3553747E-2,7.400753E-2,1.4033703E-3,4.6973076E-2,-8.042251E-2],"categories":[],"categories_nodes":[],"categories_segments":[],"categories_sizes":[],"default_left":[0,0,0,0,0,0,0,0,0],"id":14,"left_children":[1,3,5,-1,7,-1,-1,-1,-1],"loss_changes":[3.4429617E0,1.9989585E0,3.9978302E-1,0E0,2.0100882E0,0E0,0E0,0E0,0E0],"parents":[2147483647,0,0,1,1,2,2,4,4],"right_children":[2,4,6,-1,8,-1,-1,-1,-1],"split_conditions":[6.549179E-1,-5.139671E-3,1.2645083E-2,-1.2630409E-1,6.867262E1,7.400753E-2,1.4033703E-3,4.6973076E-2,-8.042251E-2],"split_indices":[7,5,0,0,1,0,0,0,0],"split_type":[0,0,0,0,0,0,0,0,0],"sum_hessian":[8.25219E0,4.6076155E0,3.644574E0,1.4269084E0,3.180707E0,2.6367629E0,1.007811E0,2.1275568E0,1.0531503E0],"tree_param":{"num_deleted":"0","num_feature":"8","num_nodes":"9","size_leaf_vector":"1"}},{"base_weights":[-5.948768E-2,-4.5863706E-1,7.212398E-2,2.8855994E-2,-7.151598E-1,-9.660417E-2,1.2241154E-2],"categories":[],"categories_nodes":[],"categories_segments":[],"categories_sizes":[],"default_left":[0,0,0,0,0,0,0],"id":15,"left_children":[1,3,-1,-1,5,-1,-1],"loss_changes":[3.1770961E0,1.4819657E0,0E0,0E0,1.2197049E0,0E0,0E0],"parents":[2147483647,0,0,1,1,4,4],"right_children":[2,4,-1,-1,6,-1,-1],"split_conditions":[7.410388E-1,9.780094E-3,7.212398E-2,2.8855994E-2,3.0336992E-3,-9.660417E-2,1.2241154E-2],"split_indices":[7,0,0,0,5,0,0],"split_type":[0,0,0,0,0,0,0],"sum_hessian":[8.133707E0,5.6550813E0,2.4786263E0,1.4133621E0,4.241719E0,3.145998E0,1.0957209E0],"tree_param":{"num_deleted":"0","num_feature":"8","num_nodes":"7","size_leaf_vector":"1"}},{"base_weights":[-5.012019E-2,-4.1052756E-1,7.058263E-2,-8.648837E-1,2.1761984E-2,2.271275E-2,-1.57077E-1,-6.0885705E-2,6.873506E-2],"categories":[],"categories_nodes":[],"categories_segments":[],"categories_sizes":[],"default_left":[0,0,0,0,0,0,0,0,0],"id":16,"left_children":[1,3,-1,5,7,-1,-1,-1,-1],"loss_changes":[2.7727787E0,1.3551533E0,0E0,2.9326777E0,2.2913272E0,0E0,0E0,0E0,0E0],"parents":[2147483647,0,0,1,1,3,3,4,4],"right_children":[2,4,-1,6,8,-1,-1,-1,-1],"split_conditions":[7.410388E-1,3.5606323E1,7.058263E-2,-4.9627325E-3,1.0499445E-2,2.271275E-2,-1.57077E-1,-6.0885705E-2,6.873506E-2],"split_indices":[7,1,0,4,0,0,0,0,0],"split_type":[0,0,0,0,0,0,0,0,0],"sum_hessian":[8.113708E0,5.8036685E0,2.3100388E0,2.3417141E0,3.461954E0,1.1856863E0,1.1560278E0,1.8214434E0,1.6405107E0],"tree_param":{"num_deleted":"0","num_feature":"8","num_nodes":"9","size_leaf_vector":"1"}},{"base_weights":[-4.989518E-2,-5.505166E-1,4.5285684E-1,8.817523E-2,-1.3277659E-1,7.827447E-2,-4.3463394E-2,-7.120281E-2,7.246464E-2],"categories":[],"categories_nodes":[],"categories_segments":[],"categories_sizes":[],"default_left":[0,0,0,0,0,0,0,0,0],"id":17,"left_children":[1,3,5,7,-1,-1,-1,-1,-1],"loss_changes":[2.5165832E0,2.581832E0,1.8167279E0,2.381645E0,0E0,0E0,0E0,0E0,0E0],"parents":[2147483647,0,0,1,1,2,2,3,3],"right_children":[2,4,6,8,-1,-1,-1,-1,-1],"split_conditions":[6.305531E-1,6.091323E-1,1.312645E-2,5.4171276E-1,-1.3277659E-1,7.827447E-2,-4.3463394E-2,-7.120281E-2,7.246464E-2],"split_indices":[7,7,0,7,0,0,0,0,0],"split_type":[0,0,0,0,0,0,0,0,0],"sum_hessian":[8.008273E0,3.965035E0,4.0432377E0,2.6631718E0,1.3018632E0,3.033635E0,1.0096028E0,1.1272388E0,1.535933E0],"tree_param":{"num_deleted":"0","num_feature":"8","num_nodes":"9","size_leaf_vector":"1"}},{"base_weights":[-5.4557662E-2,-3.7827498E-1,6.8080954E-2,-6.533601E-1,1.8637156E-2,-9.290107E-2,-3.7956256E-3],"categories":[],"categories_nodes":[],"categories_segments":[],"categories_sizes":[],"default_left":[0,0,0,0,0,0,0],"id":18,"left_children":[1,3,-1,5,-1,-1,-1],"loss_changes":[2.36761E0,1.1775886E0,0E0,7.777443E-1,0E0,0E0,0E0],"parents":[2147483647,0,0,1,1,3,3],"right_children":[2,4,-1,6,-1,-1,-1],"split_conditions":[7.410388E-1,1.7467163E-3,6.8080954E-2,1.8665189E-3,1.8637156E-2,-9.290107E-2,-3.7956256E-3],"split_indices":[7,3,0,6,0,0,0],"split_type":[0,0,0,0,0,0,0],"sum_hessian":[7.8639665E0,5.7974553E0,2.0665112E0,3.7926395E0,2.0048158E0,2.2674239E0,1.5252155E0],"tree_param":{"num_deleted":"0","num_feature":"8","num_nodes":"7","size_leaf_vector":"1"}},{"base_weights":[-4.9224984E-2,-3.458975E-1,6.653785E-2,-7.66499E-1,5.2546233E-2,2.138116E-2,-1.3636702E-1,-5.170803E-2,6.747671E-2],"categories":[],"categories_nodes":[],"categories_segments":[],"categories_sizes":[],"default_left":[0,0,0,0,0,0,0,0,0],"id":19,"left_children":[1,3,-1,5,7,-1,-1,-1,-1],"loss_changes":[2.1026003E0,1.1964667E0,0E0,2.2939014E0,1.9363126E0,0E0,0E0,0E0,0E0],"parents":[2147483647,0,0,1,1,3,3,4,4],"right_children":[2,4,-1,6,8,-1,-1,-1,-1],"split_conditions":[7.410388E-1,3.5606323E1,6.653785E-2,6.0201764E-1,1.0499445E-2,2.138116E-2,-1.3636702E-1,-5.170803E-2,6.747671E-2],"split_indices":[7,1,0,7,0,0,0,0,0],"split_type":[0,0,0,0,0,0,0,0,0],"sum_hessian":[7.8321676E0,5.899082E0,1.9330856E0,2.4203756E0,3.4787066E0,1.1592768E0,1.2610986E0,1.9043245E0,1.5743821E0],"tree_param":{"num_deleted":"0","num_feature":"8","num_nodes":"9","size_leaf_vector":"1"}},{"base_weights":[-4.7083423E-2,-4.7503436E-1,4.1894543E-1,9.142801E-2,-1.1362312E-1,7.618921E-2,-4.2402085E-2,-6.524125E-2,7.0516706E-2],"categories":[],"categories_nodes":[],"categories_segments":[],"categories_sizes":[],"default_left":[0,0,0,0,0,0,0,0,0],"id":20,"left_children":[1,3,5,7,-1,-1,-1,-1,-1],"loss_changes":[1.9400376E0,1.9838583E0,1.6847682E0,2.116731E0,0E0,0E0,0E0,0E0,0E0],"parents":[2147483647,0,0,1,1,2,2,3,3],"right_children":[2,4,6,8,-1,-1,-1,-1,-1],"split_conditions":[6.305531E-1,6.091323E-1,1.3058419E-2,5.4171276E-1,-1.1362312E-1,7.618921E-2,-4.2402085E-2,-6.524125E-2,7.0516706E-2],"split_indices":[7,7,0,7,0,0,0,0,0],"split_type":[0,0,0,0,0,0,0,0,0],"sum_hessian":[7.729673E0,4.019381E0,3.7102923E0,2.6288817E0,1.3904991E0,2.7057006E0,1.0045916E0,1.1599865E0,1.4688952E0],"tree_param":{"num_deleted":"0","num_feature":"8","num_nodes":"9","size_leaf_vector":"1"}},{"base_weights":[-5.0160006E-2,-3.1996766E-1,6.410719E-2,3.1260926E-2,-5.374132E-1,-7.459854E-2,1.6136026E-2],"categories":[],"categories_nodes":[],"categories_segments":[],"categories_sizes":[],"default_left":[0,0,0,0,0,0,0],"id":21,"left_children":[1,3,-1,-1,5,-1,-1],"loss_changes":[1.8064187E0,1.1092095E0,0E0,0E0,9.1613305E-1,0E0,0E0],"parents":[2147483647,0,0,1,1,4,4],"right_children":[2,4,-1,-1,6,-1,-1],"split_conditions":[7.410388E-1,9.780094E-3,6.410719E-2,3.1260926E-2,5.723854E-3,-7.459854E-2,1.6136026E-2],"split_indices":[7,0,0,0,2,0,0],"split_type":[0,0,0,0,0,0,0],"sum_hessian":[7.5860558E0,5.842619E0,1.7434367E0,1.382655E0,4.4599643E0,3.3827162E0,1.077248E0],"tree_param":{"num_deleted":"0","num_feature":"8","num_nodes":"7","size_leaf_vector":"1"}},{"base_weights":[-3.990889E-2,-2.8744194E-1,6.258836E-2,-6.7941564E-1,7.993916E-2,2.228917E-2,-1.2153218E-1,-4.6477176E-2,6.731895E-2],"categories":[],"categories_nodes":[],"categories_segments":[],"categories_sizes":[],"default_left":[0,0,0,0,0,0,0,0,0],"id":22,"left_children":[1,3,-1,5,7,-1,-1,-1,-1],"loss_changes":[1.5920125E0,1.0524564E0,0E0,1.9433573E0,1.7582186E0,0E0,0E0,0E0,0E0],"parents":[2147483647,0,0,1,1,3,3,4,4],"right_children":[2,4,-1,6,8,-1,-1,-1,-1],"split_conditions":[7.410388E-1,3.5606323E1,6.258836E-2,-4.9627325E-3,1.0499445E-2,2.228917E-2,-1.2153218E-1,-4.6477176E-2,6.731895E-2],"split_indices":[7,1,0,4,0,0,0,0,0],"split_type":[0,0,0,0,0,0,0,0,0],"sum_hessian":[7.56832E0,5.9313803E0,1.6369399E0,2.458722E0,3.472658E0,1.1338085E0,1.3249136E0,1.9232941E0,1.5493639E0],"tree_param":{"num_deleted":"0","num_feature":"8","num_nodes":"9","size_leaf_vector":"1"}},{"base_weights":[-3.7034802E-2,-3.9855018E-1,3.8680488E-1,1.09850645E-1,-9.904706E-2,7.368488E-2,-4.0001165E-2,-5.7273008E-2,6.883794E-2],"categories":[],"categories_nodes":[],"categories_segments":[],"categories_sizes":[],"default_left":[0,0,0,0,0,0,0,0,0],"id":23,"left_children":[1,3,5,7,-1,-1,-1,-1,-1],"loss_changes":[1.4514391E0,1.6320422E0,1.5079172E0,1.8250027E0,0E0,0E0,0E0,0E0,0E0],"parents":[2147483647,0,0,1,1,2,2,3,3],"right_children":[2,4,6,8,-1,-1,-1,-1,-1],"split_conditions":[6.305531E-1,6.091323E-1,1.2979094E-2,5.4171276E-1,-9.904706E-2,7.368488E-2,-4.0001165E-2,-5.7273008E-2,6.883794E-2],"split_indices":[7,7,0,7,0,0,0,0,0],"split_type":[0,0,0,0,0,0,0,0,0],"sum_hessian":[7.4665136E0,4.0617223E0,3.4047914E0,2.6231303E0,1.438592E0,2.4003947E0,1.0043964E0,1.2079484E0,1.415182E0],"tree_param":{"num_deleted":"0","num_feature":"8","num_nodes":"9","size_leaf_vector":"1"}},{"base_weights":[-3.905351E-2,-2.6700613E-1,6.027791E-2,-6.36438E-1,8.269643E-2,1.997646E-2,-1.103899E-1,-4.327125E-2,6.590946E-2],"categories":[],"categories_nodes":[],"categories_segments":[],"categories_sizes":[],"default_left":[0,0,0,0,0,0,0,0,0],"id":24,"left_children":[1,3,-1,5,7,-1,-1,-1,-1],"loss_changes":[1.3789634E0,9.3581545E-1,0E0,1.5649328E0,1.5914352E0,0E0,0E0,0E0,0E0],"parents":[2147483647,0,0,1,1,3,3,4,4],"right_children":[2,4,-1,6,8,-1,-1,-1,-1],"split_conditions":[7.410388E-1,3.5606323E1,6.027791E-2,-4.9627325E-3,1.0499445E-2,1.997646E-2,-1.103899E-1,-4.327125E-2,6.590946E-2],"split_indices":[7,1,0,4,0,0,0,0,0],"split_type":[0,0,0,0,0,0,0,0,0],"sum_hessian":[7.325057E0,5.836253E0,1.4888036E0,2.4393454E0,3.3969078E0,1.0800295E0,1.3593159E0,1.9249344E0,1.4719734E0],"tree_param":{"num_deleted":"0","num_feature":"8","num_nodes":"9","size_leaf_vector":"1"}},{"base_weights":[-3.5502337E-2,-2.4995077E-1,5.880558E-2,3.2543495E-2,-4.503717E-1,-6.7958504E-2,9.618782E-3],"categories":[],"categories_nodes":[],"categories_segments":[],"categories_sizes":[],"default_left":[0,0,0,0,0,0,0],"id":25,"left_children":[1,3,-1,-1,5,-1,-1],"loss_changes":[1.2467873E0,9.33233E-1,0E0,0E0,7.5174713E-1,0E0,0E0],"parents":[2147483647,0,0,1,1,4,4],"right_children":[2,4,-1,-1,6,-1,-1],"split_conditions":[7.410388E-1,9.780094E-3,5.880558E-2,3.2543495E-2,1.7467163E-3,-6.7958504E-2,9.618782E-3],"split_indices":[7,0,0,0,3,0,0],"split_type":[0,0,0,0,0,0,0],"sum_hessian":[7.224601E0,5.8216324E0,1.4029685E0,1.3428128E0,4.4788194E0,2.9840128E0,1.4948066E0],"tree_param":{"num_deleted":"0","num_feature":"8","num_nodes":"7","size_leaf_vector":"1"}},{"base_weights":[-2.7264154E-2,-4.3781948E-1,2.6874986E-1,2.5915755E-2,-8.6833194E-2,-2.4744163E-1,7.0846915E-2,1.8237244E-2,-5.6597747E-2],"categories":[],"categories_nodes":[],"categories_segments":[],"categories_sizes":[],"default_left":[0,0,0,0,0,0,0,0,0],"id":26,"left_children":[1,3,5,-1,-1,7,-1,-1,-1],"loss_changes":[1.1149294E0,1.3707097E0,1.3982067E0,0E0,0E0,5.4400426E-1,0E0,0E0,0E0],"parents":[2147483647,0,0,1,1,2,2,5,5],"right_children":[2,4,6,-1,-1,8,-1,-1,-1],"split_conditions":[3.5606323E1,-4.9627325E-3,6.305531E-1,2.5915755E-2,-8.6833194E-2,6.737106E1,7.0846915E-2,1.8237244E-2,-5.6597747E-2],"split_indices":[1,4,7,0,0,1,0,0,0],"split_type":[0,0,0,0,0,0,0,0,0],"sum_hessian":[7.205911E0,2.8181882E0,4.3877234E0,1.2280556E0,1.5901325E0,2.2195003E0,2.1682231E0,1.1266838E0,1.0928165E0],"tree_param":{"num_deleted":"0","num_feature":"8","num_nodes":"9","size_leaf_vector":"1"}},{"base_weights":[-2.7461177E-2,-2.1984208E-1,5.6301694E-2,-4.4543245E-1,2.4560519E-2,-6.510979E-2,1.5171397E-3],"categories":[],"categories_nodes":[],"categories_segments":[],"categories_sizes":[],"default_left":[0,0,0,0,0,0,0],"id":27,"left_children":[1,3,-1,5,-1,-1,-1],"loss_changes":[1.042849E0,8.256757E-1,0E0,4.788043E-1,0E0,0E0,0E0],"parents":[2147483647,0,0,1,1,3,3],"right_children":[2,4,-1,6,-1,-1,-1],"split_conditions":[7.410388E-1,1.7467163E-3,5.6301694E-2,1.8665189E-3,2.4560519E-2,-6.510979E-2,1.5171397E-3],"split_indices":[7,3,0,6,0,0,0],"split_type":[0,0,0,0,0,0,0],"sum_hessian":[7.0906744E0,5.821641E0,1.2690334E0,3.9501202E0,1.8715209E0,2.4448771E0,1.505243E0],"tree_param":{"num_deleted":"0","num_feature":"8","num_nodes":"7","size_leaf_vector":"1"}},{"base_weights":[-2.212153E-2,5.7550162E-2,-2.0312631E-1,-5.510655E-1,1.8134768E-1,-7.6676704E-2,-2.7567602E-3,-4.2274203E-2,6.664875E-2],"categories":[],"categories_nodes":[],"categories_segments":[],"categories_sizes":[],"default_left":[0,0,0,0,0,0,0,0,0],"id":28,"left_children":[1,-1,3,5,7,-1,-1,-1,-1],"loss_changes":[9.88813E-1,0E0,1.0264158E0,4.173516E-1,1.4664887E0,0E0,0E0,0E0,0E0],"parents":[2147483647,0,0,2,2,3,3,4,4],"right_children":[2,-1,4,6,8,-1,-1,-1,-1],"split_conditions":[9.440791E-3,5.7550162E-2,1.0908347E-2,6.199656E-4,3.5606323E1,-7.6676704E-2,-2.7567602E-3,-4.2274203E-2,6.664875E-2],"split_indices":[0,0,0,3,1,0,0,0,0],"split_type":[0,0,0,0,0,0,0,0,0],"sum_hessian":[7.060388E0,1.1346463E0,5.925742E0,2.8832116E0,3.0425305E0,1.7127802E0,1.1704314E0,1.4124209E0,1.6301097E0],"tree_param":{"num_deleted":"0","num_feature":"8","num_nodes":"9","size_leaf_vector":"1"}},{"base_weights":[-1.895301E-2,-1.9611056E-1,5.438426E-2,-3.966428E-1,3.169693E-2,1.8866083E-2,-5.8149714E-2],"categories":[],"categories_nodes":[],"categories_segments":[],"categories_sizes":[],"default_left":[0,0,0,0,0,0,0],"id":29,"left_children":[1,3,-1,5,-1,-1,-1],"loss_changes":[9.0246105E-1,8.2596034E-1,0E0,6.8719476E-1,0E0,0E0,0E0],"parents":[2147483647,0,0,1,1,3,3],"right_children":[2,4,-1,6,-1,-1,-1],"split_conditions":[7.410388E-1,3.0336992E-3,5.438426E-2,-4.9627325E-3,3.169693E-2,1.8866083E-2,-5.8149714E-2],"split_indices":[7,5,0,4,0,0,0],"split_type":[0,0,0,0,0,0,0],"sum_hessian":[6.981744E0,5.8057456E0,1.1759981E0,4.337438E0,1.4683077E0,1.0361351E0,3.301303E0],"tree_param":{"num_deleted":"0","num_feature":"8","num_nodes":"7","size_leaf_vector":"1"}},{"base_weights":[-1.0706153E-2,5.5995E-2,-1.8166532E-1,-5.095992E-1,1.8336287E-1,-7.106707E-2,-1.9504576E-3,-3.8386445E-2,6.535491E-2],"categories":[],"categories_nodes":[],"categories_segments":[],"categories_sizes":[],"default_left":[0,0,0,0,0,0,0,0,0],"id":30,"left_children":[1,-1,3,5,7,-1,-1,-1,-1],"loss_changes":[8.769069E-1,0E0,9.157142E-1,3.6878908E-1,1.3139813E0,0E0,0E0,0E0,0E0],"parents":[2147483647,0,0,2,2,3,3,4,4],"right_children":[2,-1,4,6,8,-1,-1,-1,-1],"split_conditions":[9.440791E-3,5.5995E-2,1.0908347E-2,6.199656E-4,3.5606323E1,-7.106707E-2,-1.9504576E-3,-3.8386445E-2,6.535491E-2],"split_indices":[0,0,0,3,1,0,0,0,0],"split_type":[0,0,0,0,0,0,0,0,0],"sum_hessian":[6.9457994E0,1.0766461E0,5.8691535E0,2.8830373E0,2.986116E0,1.7251784E0,1.1578588E0,1.436604E0,1.549512E0],"tree_param":{"num_deleted":"0","num_feature":"8","num_nodes":"9","size_leaf_vector":"1"}},{"base_weights":[-7.724566E-3,5.4491412E-2,-1.7024724E-1,-4.052676E-1,2.7332311E-2,-8.574719E-2,4.103555E-3],"categories":[],"categories_nodes":[],"categories_segments":[],"categories_sizes":[],"default_left":[0,0,0,0,0,0,0],"id":31,"left_children":[1,-1,3,5,-1,-1,-1],"loss_changes":[7.993871E-1,0E0,8.239738E-1,1.0190144E0,0E0,0E0,0E0],"parents":[2147483647,0,0,2,2,3,3],"right_children":[2,-1,4,6,-1,-1,-1],"split_conditions":[9.440791E-3,5.4491412E-2,1.7467163E-3,1.0499445E-2,2.7332311E-2,-8.574719E-2,4.103555E-3],"split_indices":[0,0,3,0,0,0,0],"split_type":[0,0,0,0,0,0,0],"sum_hessian":[6.8673563E0,1.0259359E0,5.84142E0,3.874771E0,1.9666492E0,1.4670482E0,2.4077227E0],"tree_param":{"num_deleted":"0","num_feature":"8","num_nodes":"7","size_leaf_vector":"1"}},{"base_weights":[-6.6962917E-3,-2.1350911E-1,4.207172E-2,-5.401547E-1,1.6225043E-1,-8.346404E-3,-7.5480625E-2,6.4887136E-2,-5.3186364E-2],"categories":[],"categories_nodes":[],"categories_segments":[],"categories_sizes":[],"default_left":[0,0,0,0,0,0,0,0,0],"id":32,"left_children":[1,3,-1,5,7,-1,-1,-1,-1],"loss_changes":[7.788235E-1,8.13797E-1,0E0,2.699021E-1,1.5341556E0,0E0,0E0,0E0,0E0],"parents":[2147483647,0,0,1,1,3,3,4,4],"right_children":[2,4,-1,6,8,-1,-1,-1,-1],"split_conditions":[3.0336992E-3,3.5606323E1,4.207172E-2,-4.744749E-3,7.013157E1,-8.346404E-3,-7.5480625E-2,6.4887136E-2,-5.3186364E-2],"split_indices":[5,1,0,4,1,0,0,0,0],"split_type":[0,0,0,0,0,0,0,0,0],"sum_hessian":[6.7945566E0,4.9162097E0,1.878347E0,2.3959355E0,2.520274E0,1.2101233E0,1.1858124E0,1.5199009E0,1.0003729E0],"tree_param":{"num_deleted":"0","num_feature":"8","num_nodes":"9","size_leaf_vector":"1"}},{"base_weights":[-9.392496E-3,-2.2610822E-1,3.8735014E-1,1.7433017E-1,-6.105942E-1,5.3620566E-2,4.2343177E-3,-4.279855E-2,6.643918E-2,-8.936521E-2,-2.9869047E-3],"categories":[],"categories_nodes":[],"categories_segments":[],"categories_sizes":[],"default_left":[0,0,0,0,0,0,0,0,0,0,0],"id":33,"left_children":[1,3,5,7,9,-1,-1,-1,-1,-1,-1],"loss_changes":[7.4818355E-1,9.686923E-1,1.356161E-1,1.3237004E0,4.7946012E-1,0E0,0E0,0E0,0E0,0E0,0E0],"parents":[2147483647,0,0,1,1,2,2,3,3,4,4],"right_children":[2,4,6,8,10,-1,-1,-1,-1,-1,-1],"split_conditions":[6.549179E-1,6.091323E-1,6.199656E-4,5.4171276E-1,-4.4309566E-4,5.3620566E-2,4.2343177E-3,-4.279855E-2,6.643918E-2,-8.936521E-2,-2.9869047E-3],"split_indices":[7,7,6,7,4,0,0,0,0,0,0],"split_type":[0,0,0,0,0,0,0,0,0,0,0],"sum_hessian":[6.6831546E0,4.600356E0,2.0827987E0,2.5211706E0,2.0791855E0,1.067871E0,1.0149277E0,1.1878728E0,1.3332978E0,1.0355709E0,1.0436146E0],"tree_param":{"num_deleted":"0","num_feature":"8","num_nodes":"11","size_leaf_vector":"1"}},{"base_weights":[-9.488371E-3,-2.449258E-1,3.4046194E-1,2.5687012E-1,-6.9526784E-2,-1.7800232E-2,6.364135E-2,-1.7883053E-2,5.679896E-2],"categories":[],"categories_nodes":[],"categories_segments":[],"categories_sizes":[],"default_left":[0,0,0,0,0,0,0,0,0],"id":34,"left_children":[1,3,5,7,-1,-1,-1,-1,-1],"loss_changes":[7.078816E-1,1.3339729E0,6.452362E-1,5.283616E-1,0E0,0E0,0E0,0E0,0E0],"parents":[2147483647,0,0,1,1,2,2,3,3],"right_children":[2,4,6,8,-1,-1,-1,-1,-1],"split_conditions":[1.8665189E-3,-2.9693E-3,-6.8757418E-3,1.0273717E-2,-6.9526784E-2,-1.7800232E-2,6.364135E-2,-1.7883053E-2,5.679896E-2],"split_indices":[6,6,3,0,0,0,0,0,0],"split_type":[0,0,0,0,0,0,0,0,0],"sum_hessian":[6.5795984E0,4.1127563E0,2.4668422E0,2.148448E0,1.9643081E0,1.0412554E0,1.4255868E0,1.0721631E0,1.0762849E0],"tree_param":{"num_deleted":"0","num_feature":"8","num_nodes":"9","size_leaf_vector":"1"}},{"base_weights":[-5.934886E-3,-1.6292098E-1,5.047002E-2,3.725782E-2,-6.104629E-2,-2.615211E-2,6.0612418E-2],"categories":[],"categories_nodes":[],"categories_segments":[],"categories_sizes":[],"default_left":[0,0,0,0,0,0,0],"id":35,"left_children":[1,3,-1,5,-1,-1,-1],"loss_changes":[6.833432E-1,6.0430044E-1,0E0,1.0810376E0,0E0,0E0,0E0],"parents":[2147483647,0,0,1,1,3,3],"right_children":[2,4,-1,6,-1,-1,-1],"split_conditions":[7.410388E-1,1.2073478E-2,5.047002E-2,1.0908347E-2,-6.104629E-2,-2.615211E-2,6.0612418E-2],"split_indices":[7,0,0,0,0,0,0],"split_type":[0,0,0,0,0,0,0],"sum_hessian":[6.4987197E0,5.49142E0,1.0072997E0,4.427718E0,1.063702E0,3.2572355E0,1.1704824E0],"tree_param":{"num_deleted":"0","num_feature":"8","num_nodes":"7","size_leaf_vector":"1"}},{"base_weights":[-1.6370929E-3,-3.1467596E-1,2.4633002E-1,2.4844406E-2,-6.619922E-2,-1.780305E-1,6.584936E-2,-4.7824662E-2,2.0829309E-2],"categories":[],"categories_nodes":[],"categories_segments":[],"categories_sizes":[],"default_left":[0,0,0,0,0,0,0,0,0],"id":36,"left_children":[1,3,5,-1,-1,7,-1,-1,-1],"loss_changes":[6.554628E-1,8.9399457E-1,9.420007E-1,0E0,0E0,4.6037877E-1,0E0,0E0,0E0],"parents":[2147483647,0,0,1,1,2,2,5,5],"right_children":[2,4,6,-1,-1,8,-1,-1,-1],"split_conditions":[3.5606323E1,-4.9627325E-3,1.0499445E-2,2.4844406E-2,-6.619922E-2,-1.7800268E-3,6.584936E-2,-4.7824662E-2,2.0829309E-2],"split_indices":[1,4,0,0,0,3,0,0,0],"split_type":[0,0,0,0,0,0,0,0,0],"sum_hessian":[6.445552E0,2.7300532E0,3.715499E0,1.1500684E0,1.5799847E0,2.1105504E0,1.6049485E0,1.0537372E0,1.0568131E0],"tree_param":{"num_deleted":"0","num_feature":"8","num_nodes":"9","size_leaf_vector":"1"}},{"base_weights":[-1.2589301E-3,-2.4398322E-1,3.1205168E-1,1.6211651E-1,-7.2931424E-2,6.514285E-2,-2.865988E-2,-3.9371245E-2,6.2986255E-2],"categories":[],"categories_nodes":[],"categories_segments":[],"categories_sizes":[],"default_left":[0,0,0,0,0,0,0,0,0],"id":37,"left_children":[1,3,5,7,-1,-1,-1,-1,-1],"loss_changes":[6.353216E-1,1.045449E0,9.2797786E-1,1.1265937E0,0E0,0E0,0E0,0E0,0E0],"parents":[2147483647,0,0,1,1,2,2,3,3],"right_children":[2,4,6,8,-1,-1,-1,-1,-1],"split_conditions":[6.305531E-1,6.091323E-1,1.2068918E-2,5.4171276E-1,-7.2931424E-2,6.514285E-2,-2.865988E-2,-3.9371245E-2,6.2986255E-2],"split_indices":[7,7,0,7,0,0,0,0,0],"split_type":[0,0,0,0,0,0,0,0,0],"sum_hessian":[6.3530602E0,3.7044592E0,2.648601E0,2.379437E0,1.3250221E0,1.6340765E0,1.0145245E0,1.1596668E0,1.2197702E0],"tree_param":{"num_deleted":"0","num_feature":"8","num_nodes":"9","size_leaf_vector":"1"}},{"base_weights":[-2.227456E-3,-1.8849626E-1,3.8343478E-2,-4.7278666E-1,1.512348E-1,-4.303579E-3,-6.454492E-2,5.970175E-2,-4.1929E-2],"categories":[],"categories_nodes":[],"categories_segments":[],"categories_sizes":[],"default_left":[0,0,0,0,0,0,0,0,0],"id":38,"left_children":[1,3,-1,5,7,-1,-1,-1,-1],"loss_changes":[5.9111947E-1,6.066339E-1,0E0,2.1403372E-1,1.084999E0,0E0,0E0,0E0,0E0],"parents":[2147483647,0,0,1,1,3,3,4,4],"right_children":[2,4,-1,6,8,-1,-1,-1,-1],"split_conditions":[3.0336992E-3,3.5606323E1,3.8343478E-2,-2.7870592E-3,6.934992E1,-4.303579E-3,-6.454492E-2,5.970175E-2,-4.1929E-2],"split_indices":[5,1,0,6,1,0,0,0,0],"split_type":[0,0,0,0,0,0,0,0,0],"sum_hessian":[6.222526E0,4.540686E0,1.68184E0,2.258827E0,2.2818592E0,1.0054777E0,1.2533493E0,1.2549003E0,1.0269588E0],"tree_param":{"num_deleted":"0","num_feature":"8","num_nodes":"9","size_leaf_vector":"1"}},{"base_weights":[-3.3225613E-3,-2.1899684E-1,3.1895417E-1,2.249641E-2,-6.030037E-2,-1.5890421E-2,6.0097523E-2],"categories":[],"categories_nodes":[],"categories_segments":[],"categories_sizes":[],"default_left":[0,0,0,0,0,0,0],"id":39,"left_children":[1,3,5,-1,-1,-1,-1],"loss_changes":[5.658696E-1,9.655909E-1,5.3593415E-1,0E0,0E0,0E0,0E0],"parents":[2147483647,0,0,1,1,2,2],"right_children":[2,4,6,-1,-1,-1,-1],"split_conditions":[1.8665189E-3,-2.9693E-3,-6.8757418E-3,2.249641E-2,-6.030037E-2,-1.5890421E-2,6.0097523E-2],"split_indices":[6,6,3,0,0,0,0],"split_type":[0,0,0,0,0,0,0],"sum_hessian":[6.136276E0,3.8681195E0,2.2681563E0,1.9861003E0,1.882019E0,1.0038232E0,1.2643331E0],"tree_param":{"num_deleted":"0","num_feature":"8","num_nodes":"7","size_leaf_vector":"1"}},{"base_weights":[-1.7182811E-3,-2.3731819E-1,3.0245462E-1,1.4398147E-1,-6.78271E-2,6.294126E-2,-2.5352363E-2,-3.8303103E-2,6.0194474E-2],"categories":[],"categories_nodes":[],"categories_segments":[],"categories_sizes":[],"default_left":[0,0,0,0,0,0,0,0,0],"id":40,"left_children":[1,3,5,7,-1,-1,-1,-1,-1],"loss_changes":[5.782317E-1,8.6146563E-1,8.0022883E-1,1.0176351E0,0E0,0E0,0E0,0E0,0E0],"parents":[2147483647,0,0,1,1,2,2,3,3],"right_children":[2,4,6,8,-1,-1,-1,-1,-1],"split_conditions":[6.305531E-1,6.091323E-1,1.2068918E-2,5.4171276E-1,-6.78271E-2,6.294126E-2,-2.5352363E-2,-3.8303103E-2,6.0194474E-2],"split_indices":[7,7,0,7,0,0,0,0,0],"split_type":[0,0,0,0,0,0,0,0,0],"sum_hessian":[6.0671463E0,3.5428169E0,2.5243294E0,2.2610893E0,1.2817276E0,1.5063804E0,1.0179489E0,1.1273658E0,1.1337235E0],"tree_param":{"num_deleted":"0","num_feature":"8","num_nodes":"9","size_leaf_vector":"1"}},{"base_weights":[-2.160751E-3,-2.2602609E-1,2.8938854E-1,-5.0186294E-1,2.999625E-2,6.183043E-2,-2.5801813E-2,1.8333126E-3,-8.2899995E-2],"categories":[],"categories_nodes":[],"categories_segments":[],"categories_sizes":[],"default_left":[0,0,0,0,0,0,0,0,0],"id":41,"left_children":[1,3,5,7,-1,-1,-1,-1,-1],"loss_changes":[5.1867586E-1,8.01954E-1,7.815918E-1,5.8007294E-1,0E0,0E0,0E0,0E0,0E0],"parents":[2147483647,0,0,1,1,2,2,3,3],"right_children":[2,4,6,8,-1,-1,-1,-1,-1],"split_conditions":[6.305531E-1,1.0908347E-2,1.2237293E-2,6.0201764E-1,2.999625E-2,6.183043E-2,-2.5801813E-2,1.8333126E-3,-8.2899995E-2],"split_indices":[7,0,0,7,0,0,0,0,0],"split_type":[0,0,0,0,0,0,0,0,0],"sum_hessian":[5.9447203E0,3.489816E0,2.4549043E0,2.3193688E0,1.170447E0,1.4525856E0,1.0023187E0,1.2599003E0,1.0594685E0],"tree_param":{"num_deleted":"0","num_feature":"8","num_nodes":"9","size_leaf_vector":"1"}},{"base_weights":[-3.8944362E-3,-1.9256306E-1,3.3419404E-2,-4.2880452E-1,2.3659084E-2,-6.49466E-2,-4.557613E-5],"categories":[],"categories_nodes":[],"categories_segments":[],"categories_sizes":[],"default_left":[0,0,0,0,0,0,0],"id":42,"left_children":[1,3,-1,5,-1,-1,-1],"loss_changes":[5.0011957E-1,6.103147E-1,0E0,3.392893E-1,0E0,0E0,0E0],"parents":[2147483647,0,0,1,1,3,3],"right_children":[2,4,-1,6,-1,-1,-1],"split_conditions":[1.7467163E-3,6.305531E-1,3.3419404E-2,-8.5561204E-4,2.3659084E-2,-6.49466E-2,-4.557613E-5],"split_indices":[3,7,0,2,0,0,0],"split_type":[0,0,0,0,0,0,0],"sum_hessian":[5.831616E0,4.0191727E0,1.8124436E0,2.5927336E0,1.4264389E0,1.3705131E0,1.2222204E0],"tree_param":{"num_deleted":"0","num_feature":"8","num_nodes":"7","size_leaf_vector":"1"}},{"base_weights":[-4.5968886E-3,-2.1148711E-1,3.0578998E-1,2.0114517E-2,-5.5949766E-2,-1.2044755E-2,5.6484908E-2],"categories":[],"categories_nodes":[],"categories_segments":[],"categories_sizes":[],"default_left":[0,0,0,0,0,0,0],"id":43,"left_children":[1,3,5,-1,-1,-1,-1],"loss_changes":[4.989173E-1,7.801083E-1,4.118284E-1,0E0,0E0,0E0,0E0],"parents":[2147483647,0,0,1,1,2,2],"right_children":[2,4,6,-1,-1,-1,-1],"split_conditions":[1.8665189E-3,-2.9693E-3,-5.682687E-3,2.0114517E-2,-5.5949766E-2,-1.2044755E-2,5.6484908E-2],"split_indices":[6,6,3,0,0,0,0],"split_type":[0,0,0,0,0,0,0],"sum_hessian":[5.76228E0,3.6487906E0,2.1134894E0,1.8624811E0,1.7863094E0,1.0012164E0,1.112273E0],"tree_param":{"num_deleted":"0","num_feature":"8","num_nodes":"7","size_leaf_vector":"1"}},{"base_weights":[-2.5779381E-3,3.8679007E-2,-1.5667158E-1,-4.533618E-2,1.4570613E-1,-3.0406127E-2,5.673012E-2],"categories":[],"categories_nodes":[],"categories_segments":[],"categories_sizes":[],"default_left":[0,0,0,0,0,0,0],"id":44,"left_children":[1,-1,3,-1,5,-1,-1],"loss_changes":[4.6273234E-1,0E0,5.607012E-1,0E0,8.3378017E-1,0E0,0E0],"parents":[2147483647,0,0,2,2,4,4],"right_children":[2,-1,4,-1,6,-1,-1],"split_conditions":[1.0009279E-2,3.8679007E-2,1.0908347E-2,-4.533618E-2,3.5606323E1,-3.0406127E-2,5.673012E-2],"split_indices":[0,0,0,0,1,0,0],"split_type":[0,0,0,0,0,0,0],"sum_hessian":[5.702319E0,1.1886666E0,4.5136523E0,2.0262208E0,2.4874318E0,1.3383899E0,1.1490418E0],"tree_param":{"num_deleted":"0","num_feature":"8","num_nodes":"7","size_leaf_vector":"1"}},{"base_weights":[1.0296933E-3,-1.713982E-1,3.51902E-2,-3.6767268E-1,2.3235263E-2,2.263057E-2,-6.572582E-2],"categories":[],"categories_nodes":[],"categories_segments":[],"categories_sizes":[],"default_left":[0,0,0,0,0,0,0],"id":45,"left_children":[1,3,-1,5,-1,-1,-1],"loss_changes":[4.6223938E-1,4.9171034E-1,0E0,8.0873895E-1,0E0,0E0,0E0],"parents":[2147483647,0,0,1,1,3,3],"right_children":[2,4,-1,6,-1,-1,-1],"split_conditions":[3.0336992E-3,5.4088067E-3,3.51902E-2,-4.9627325E-3,2.3235263E-2,2.263057E-2,-6.572582E-2],"split_indices":[5,4,0,4,0,0,0],"split_type":[0,0,0,0,0,0,0],"sum_hessian":[5.6433535E0,4.126829E0,1.5165243E0,2.8370285E0,1.2898008E0,1.0014466E0,1.8355818E0],"tree_param":{"num_deleted":"0","num_feature":"8","num_nodes":"7","size_leaf_vector":"1"}},{"base_weights":[3.4872023E-3,-1.8965231E-1,2.9499223E-2,1.933298E-2,-5.113834E-2],"categories":[],"categories_nodes":[],"categories_segments":[],"categories_sizes":[],"default_left":[0,0,0,0,0],"id":46,"left_children":[1,3,-1,-1,-1],"loss_changes":[4.272023E-1,6.62575E-1,0E0,0E0,0E0],"parents":[2147483647,0,0,1,1],"right_children":[2,4,-1,-1,-1],"split_conditions":[1.8665189E-3,-2.9693E-3,2.9499223E-2,1.933298E-2,-5.113834E-2],"split_indices":[6,6,0,0,0],"split_type":[0,0,0,0,0],"sum_hessian":[5.594118E0,3.5749218E0,2.0191965E0,1.8143051E0,1.7606167E0],"tree_param":{"num_deleted":"0","num_feature":"8","num_nodes":"5","size_leaf_vector":"1"}},{"base_weights":[2.9560125E-3,-2.0896794E-1,2.768386E-1,-4.6830237E-1,2.9098758E-2,5.844277E-2,-2.092675E-2,-2.9962775E-3,-6.9422804E-2],"categories":[],"categories_nodes":[],"categories_segments":[],"categories_sizes":[],"default_left":[0,0,0,0,0,0,0,0,0],"id":47,"left_children":[1,3,5,7,-1,-1,-1,-1,-1],"loss_changes":[4.3780062E-1,6.886471E-1,6.135912E-1,2.949593E-1,0E0,0E0,0E0,0E0,0E0],"parents":[2147483647,0,0,1,1,2,2,3,3],"right_children":[2,4,6,8,-1,-1,-1,-1,-1],"split_conditions":[6.305531E-1,1.0908347E-2,1.2068918E-2,5.931088E-1,2.9098758E-2,5.844277E-2,-2.092675E-2,-2.9962775E-3,-6.9422804E-2],"split_indices":[7,0,0,7,0,0,0,0,0],"split_type":[0,0,0,0,0,0,0,0,0],"sum_hessian":[5.546094E0,3.2603374E0,2.2857566E0,2.1884615E0,1.0718759E0,1.2760546E0,1.009702E0,1.1295458E0,1.0589156E0],"tree_param":{"num_deleted":"0","num_feature":"8","num_nodes":"9","size_leaf_vector":"1"}},{"base_weights":[2.0580436E-3,-1.7340335E-1,3.2394603E-2,-3.959675E-1,2.2680841E-2,-6.05232E-2,1.6688177E-3],"categories":[],"categories_nodes":[],"categories_segments":[],"categories_sizes":[],"default_left":[0,0,0,0,0,0,0],"id":48,"left_children":[1,3,-1,5,-1,-1,-1],"loss_changes":[4.2069396E-1,5.198954E-1,0E0,3.094985E-1,0E0,0E0,0E0],"parents":[2147483647,0,0,1,1,3,3],"right_children":[2,4,-1,6,-1,-1,-1],"split_conditions":[1.7467163E-3,6.305531E-1,3.2394603E-2,1.0499445E-2,2.2680841E-2,-6.05232E-2,1.6688177E-3],"split_indices":[3,7,0,0,0,0,0],"split_type":[0,0,0,0,0,0,0],"sum_hessian":[5.454101E0,3.828484E0,1.6256168E0,2.467097E0,1.3613871E0,1.3273172E0,1.1397798E0],"tree_param":{"num_deleted":"0","num_feature":"8","num_nodes":"7","size_leaf_vector":"1"}},{"base_weights":[1.3732123E-3,-1.6180108E-1,3.3366147E-2,-3.488504E-1,2.3302129E-2,3.1699375E-3,-5.369925E-2],"categories":[],"categories_nodes":[],"categories_segments":[],"categories_sizes":[],"default_left":[0,0,0,0,0,0,0],"id":49,"left_children":[1,3,-1,5,-1,-1,-1],"loss_changes":[4.0053326E-1,4.4758412E-1,0E0,2.866546E-1,0E0,0E0,0E0],"parents":[2147483647,0,0,1,1,3,3],"right_children":[2,4,-1,6,-1,-1,-1],"split_conditions":[3.0336992E-3,5.4088067E-3,3.3366147E-2,-4.744749E-3,2.3302129E-2,3.1699375E-3,-5.369925E-2],"split_indices":[5,4,0,4,0,0,0],"split_type":[0,0,0,0,0,0,0],"sum_hessian":[5.3913817E0,3.9598956E0,1.4314861E0,2.7659488E0,1.1939468E0,1.1901596E0,1.5757892E0],"tree_param":{"num_deleted":"0","num_feature":"8","num_nodes":"7","size_leaf_vector":"1"}},{"base_weights":[2.3810617E-3,-1.652994E-1,3.127032E-2,-3.7842256E-1,2.1992931E-2,-5.7984807E-2,1.2644782E-3],"categories":[],"categories_nodes":[],"categories_segments":[],"categories_sizes":[],"default_left":[0,0,0,0,0,0,0],"id":50,"left_children":[1,3,-1,5,-1,-1,-1],"loss_changes":[3.8251588E-1,4.7580844E-1,0E0,2.7878362E-1,0E0,0E0,0E0],"parents":[2147483647,0,0,1,1,3,3],"right_children":[2,4,-1,6,-1,-1,-1],"split_conditions":[1.7467163E-3,6.305531E-1,3.127032E-2,-8.5561204E-4,2.1992931E-2,-5.7984807E-2,1.2644782E-3],"split_indices":[3,7,0,2,0,0,0],"split_type":[0,0,0,0,0,0,0],"sum_hessian":[5.3577685E0,3.7816887E0,1.57608E0,2.4460876E0,1.335601E0,1.2958878E0,1.1501998E0],"tree_param":{"num_deleted":"0","num_feature":"8","num_nodes":"7","size_leaf_vector":"1"}},{"base_weights":[1.6910287E-3,3.6369957E-2,-1.4130068E-1,-4.1170403E-2,1.3698164E-1,-2.6628325E-2,5.309215E-2],"categories":[],"categories_nodes":[],"categories_segments":[],"categories_sizes":[],"default_left":[0,0,0,0,0,0,0],"id":51,"left_children":[1,-1,3,-1,5,-1,-1],"loss_changes":[3.7735E-1,0E0,4.5026043E-1,0E0,6.7036384E-1,0E0,0E0],"parents":[2147483647,0,0,2,2,4,4],"right_children":[2,-1,4,-1,6,-1,-1],"split_conditions":[1.0009279E-2,3.6369957E-2,1.0908347E-2,-4.1170403E-2,3.5606323E1,-2.6628325E-2,5.309215E-2],"split_indices":[0,0,0,0,1,0,0],"split_type":[0,0,0,0,0,0,0],"sum_hessian":[5.296995E0,1.0628085E0,4.2341866E0,1.9043281E0,2.3298585E0,1.3114331E0,1.0184256E0],"tree_param":{"num_deleted":"0","num_feature":"8","num_nodes":"7","size_leaf_vector":"1"}},{"base_weights":[5.3323996E-3,-1.8010989E-1,2.8414829E-2,1.877099E-2,-4.8637062E-2],"categories":[],"categories_nodes":[],"categories_segments":[],"categories_sizes":[],"default_left":[0,0,0,0,0],"id":52,"left_children":[1,3,-1,-1,-1],"loss_changes":[3.7398174E-1,5.826166E-1,0E0,0E0,0E0],"parents":[2147483647,0,0,1,1],"right_children":[2,4,-1,-1,-1],"split_conditions":[1.8665189E-3,-2.9693E-3,2.8414829E-2,1.877099E-2,-4.8637062E-2],"split_indices":[6,6,0,0,0],"split_type":[0,0,0,0,0],"sum_hessian":[5.2432747E0,3.3615224E0,1.8817524E0,1.7031394E0,1.658383E0],"tree_param":{"num_deleted":"0","num_feature":"8","num_nodes":"5","size_leaf_vector":"1"}},{"base_weights":[4.7205435E-3,-1.4986251E-1,3.183707E-2,-3.2354486E-1,2.2422181E-2,4.2005526E-3,-5.0535526E-2],"categories":[],"categories_nodes":[],"categories_segments":[],"categories_sizes":[],"default_left":[0,0,0,0,0,0,0],"id":53,"left_children":[1,3,-1,5,-1,-1,-1],"loss_changes":[3.4831053E-1,3.865516E-1,0E0,2.6779002E-1,0E0,0E0,0E0],"parents":[2147483647,0,0,1,1,3,3],"right_children":[2,4,-1,6,-1,-1,-1],"split_conditions":[3.0336992E-3,5.4088067E-3,3.183707E-2,-4.744749E-3,2.2422181E-2,4.2005526E-3,-5.0535526E-2],"split_indices":[5,4,0,4,0,0,0],"split_type":[0,0,0,0,0,0,0],"sum_hessian":[5.1998296E0,3.832951E0,1.3668786E0,2.709888E0,1.1230631E0,1.1555278E0,1.5543602E0],"tree_param":{"num_deleted":"0","num_feature":"8","num_nodes":"7","size_leaf_vector":"1"}},{"base_weights":[5.703915E-3,-1.5924451E-1,2.9702395E-2,1.4197688E-2,-4.4351164E-2],"categories":[],"categories_nodes":[],"categories_segments":[],"categories_sizes":[],"default_left":[0,0,0,0,0],"id":54,"left_children":[1,3,-1,-1,-1],"loss_changes":[3.4370026E-1,4.5593825E-1,0E0,0E0,0E0],"parents":[2147483647,0,0,1,1],"right_children":[2,4,-1,-1,-1],"split_conditions":[6.549179E-1,6.091323E-1,2.9702395E-2,1.4197688E-2,-4.4351164E-2],"split_indices":[7,7,0,0,0],"split_type":[0,0,0,0,0],"sum_hessian":[5.168235E0,3.5893035E0,1.5789316E0,1.9857115E0,1.603592E0],"tree_param":{"num_deleted":"0","num_feature":"8","num_nodes":"5","size_leaf_vector":"1"}},{"base_weights":[5.206456E-3,-1.5575422E-1,3.0712634E-2,-3.54881E-1,2.0671684E-2,-5.5126905E-2,2.6098567E-3],"categories":[],"categories_nodes":[],"categories_segments":[],"categories_sizes":[],"default_left":[0,0,0,0,0,0,0],"id":55,"left_children":[1,3,-1,5,-1,-1,-1],"loss_changes":[3.4500813E-1,4.091376E-1,0E0,2.6658115E-1,0E0,0E0,0E0],"parents":[2147483647,0,0,1,1,3,3],"right_children":[2,4,-1,6,-1,-1,-1],"split_conditions":[1.7467163E-3,6.305531E-1,3.0712634E-2,1.0499445E-2,2.0671684E-2,-5.5126905E-2,2.6098567E-3],"split_indices":[3,7,0,0,0,0,0],"split_type":[0,0,0,0,0,0,0],"sum_hessian":[5.1149974E0,3.6520977E0,1.4628994E0,2.3706818E0,1.2814159E0,1.2693678E0,1.101314E0],"tree_param":{"num_deleted":"0","num_feature":"8","num_nodes":"7","size_leaf_vector":"1"}},{"base_weights":[4.6069645E-3,3.5436157E-2,-1.3501832E-1,-3.8457435E-2,1.2660703E-1,3.4436397E-2,-1.776987E-2],"categories":[],"categories_nodes":[],"categories_segments":[],"categories_sizes":[],"default_left":[0,0,0,0,0,0,0],"id":56,"left_children":[1,-1,3,-1,5,-1,-1],"loss_changes":[3.4374103E-1,0E0,3.7869954E-1,0E0,2.7455923E-1,0E0,0E0],"parents":[2147483647,0,0,2,2,4,4],"right_children":[2,-1,4,-1,6,-1,-1],"split_conditions":[1.0009279E-2,3.5436157E-2,1.0908347E-2,-3.8457435E-2,1.2979094E-2,3.4436397E-2,-1.776987E-2],"split_indices":[0,0,0,0,0,0,0],"split_type":[0,0,0,0,0,0,0],"sum_hessian":[5.059143E0,1.0046346E0,4.054508E0,1.8345997E0,2.2199085E0,1.2172344E0,1.0026741E0],"tree_param":{"num_deleted":"0","num_feature":"8","num_nodes":"7","size_leaf_vector":"1"}},{"base_weights":[6.6083204E-3,-1.7115812E-1,2.7382178E-2,1.7971398E-2,-4.5766387E-2],"categories":[],"categories_nodes":[],"categories_segments":[],"categories_sizes":[],"default_left":[0,0,0,0,0],"id":57,"left_children":[1,3,-1,-1,-1],"loss_changes":[3.330099E-1,5.077516E-1,0E0,0E0,0E0],"parents":[2147483647,0,0,1,1],"right_children":[2,4,-1,-1,-1],"split_conditions":[1.8665189E-3,-2.9693E-3,2.7382178E-2,1.7971398E-2,-4.5766387E-2],"split_indices":[6,6,0,0,0],"split_type":[0,0,0,0,0],"sum_hessian":[5.0238633E0,3.2327285E0,1.7911346E0,1.6206825E0,1.6120461E0],"tree_param":{"num_deleted":"0","num_feature":"8","num_nodes":"5","size_leaf_vector":"1"}},{"base_weights":[6.024715E-3,-1.4915745E-1,2.9822309E-2,-3.4043562E-1,1.9915516E-2,-5.265171E-2,1.8881046E-3],"categories":[],"categories_nodes":[],"categories_segments":[],"categories_sizes":[],"default_left":[0,0,0,0,0,0,0],"id":58,"left_children":[1,3,-1,5,-1,-1,-1],"loss_changes":[3.15864E-1,3.7264457E-1,0E0,2.3210207E-1,0E0,0E0,0E0],"parents":[2147483647,0,0,1,1,3,3],"right_children":[2,4,-1,6,-1,-1,-1],"split_conditions":[1.7467163E-3,6.305531E-1,2.9822309E-2,-8.5561204E-4,1.9915516E-2,-5.265171E-2,1.8881046E-3],"split_indices":[3,7,0,2,0,0,0],"split_type":[0,0,0,0,0,0,0],"sum_hessian":[4.984958E0,3.5755634E0,1.4093946E0,2.322669E0,1.2528944E0,1.2236441E0,1.0990249E0],"tree_param":{"num_deleted":"0","num_feature":"8","num_nodes":"7","size_leaf_vector":"1"}},{"base_weights":[5.351002E-3,-1.4480114E-1,3.0831892E-2,-3.1811225E-1,2.3237234E-2,3.4912073E-3,-4.876216E-2],"categories":[],"categories_nodes":[],"categories_segments":[],"categories_sizes":[],"default_left":[0,0,0,0,0,0,0],"id":59,"left_children":[1,3,-1,5,-1,-1,-1],"loss_changes":[3.1448078E-1,3.7765166E-1,0E0,2.3279336E-1,0E0,0E0,0E0],"parents":[2147483647,0,0,1,1,3,3],"right_children":[2,4,-1,6,-1,-1,-1],"split_conditions":[3.0336992E-3,5.4088067E-3,3.0831892E-2,-4.744749E-3,2.3237234E-2,3.4912073E-3,-4.876216E-2],"split_indices":[5,4,0,4,0,0,0],"split_type":[0,0,0,0,0,0,0],"sum_hessian":[4.931596E0,3.6464553E0,1.2851405E0,2.6057177E0,1.0407377E0,1.1028776E0,1.5028399E0],"tree_param":{"num_deleted":"0","num_feature":"8","num_nodes":"7","size_leaf_vector":"1"}},{"base_weights":[6.462931E-3,-1.6189809E-1,2.6079303E-2,1.6760992E-2,-4.2734187E-2],"categories":[],"categories_nodes":[],"categories_segments":[],"categories_sizes":[],"default_left":[0,0,0,0,0],"id":60,"left_children":[1,3,-1,-1,-1],"loss_changes":[2.9493272E-1,4.3618897E-1,0E0,0E0,0E0],"parents":[2147483647,0,0,1,1],"right_children":[2,4,-1,-1,-1],"split_conditions":[1.8665189E-3,-2.9693E-3,2.6079303E-2,1.6760992E-2,-4.2734187E-2],"split_indices":[6,6,0,0,0],"split_type":[0,0,0,0,0],"sum_hessian":[4.901801E0,3.1680524E0,1.7337487E0,1.5778987E0,1.5901536E0],"tree_param":{"num_deleted":"0","num_feature":"8","num_nodes":"5","size_leaf_vector":"1"}},{"base_weights":[5.9632156E-3,-1.4421819E-1,2.915662E-2,-3.3466953E-1,1.9940412E-2,-5.1346768E-2,2.0616897E-3],"categories":[],"categories_nodes":[],"categories_segments":[],"categories_sizes":[],"default_left":[0,0,0,0,0,0,0],"id":61,"left_children":[1,3,-1,5,-1,-1,-1],"loss_changes":[2.936753E-1,3.6213315E-1,0E0,2.1879059E-1,0E0,0E0,0E0],"parents":[2147483647,0,0,1,1,3,3],"right_children":[2,4,-1,6,-1,-1,-1],"split_conditions":[1.7467163E-3,6.305531E-1,2.915662E-2,1.0499445E-2,1.9940412E-2,-5.1346768E-2,2.0616897E-3],"split_indices":[3,7,0,0,0,0,0],"split_type":[0,0,0,0,0,0,0],"sum_hessian":[4.86647E0,3.513809E0,1.3526609E0,2.2775435E0,1.2362654E0,1.2189063E0,1.0586371E0],"tree_param":{"num_deleted":"0","num_feature":"8","num_nodes":"7","size_leaf_vector":"1"}},{"base_weights":[5.4329443E-3,-2.078446E-1,1.9349344E-1,5.271681E-3,-3.8502213E-2,-1.7765068E-2,5.4747857E-2],"categories":[],"categories_nodes":[],"categories_segments":[],"categories_sizes":[],"default_left":[0,0,0,0,0,0,0],"id":62,"left_children":[1,3,5,-1,-1,-1,-1],"loss_changes":[2.734846E-1,1.6836548E-1,5.713443E-1,0E0,0E0,0E0,0E0],"parents":[2147483647,0,0,1,1,2,2],"right_children":[2,4,6,-1,-1,-1,-1],"split_conditions":[3.5606323E1,1.12165585E-2,1.0499445E-2,5.271681E-3,-3.8502213E-2,-1.7765068E-2,5.4747857E-2],"split_indices":[1,0,0,0,0,0,0],"split_type":[0,0,0,0,0,0,0],"sum_hessian":[4.8158402E0,2.2073293E0,2.608511E0,1.1777564E0,1.029573E0,1.516569E0,1.0919421E0],"tree_param":{"num_deleted":"0","num_feature":"8","num_nodes":"7","size_leaf_vector":"1"}},{"base_weights":[5.8649583E-3,-1.3503243E-1,2.9073639E-2,-3.4077965E-2,1.3907722E-2],"categories":[],"categories_nodes":[],"categories_segments":[],"categories_sizes":[],"default_left":[0,0,0,0,0],"id":63,"left_children":[1,3,-1,-1,-1],"loss_changes":[2.7106786E-1,3.0383298E-1,0E0,0E0,0E0],"parents":[2147483647,0,0,1,1],"right_children":[2,4,-1,-1,-1],"split_conditions":[3.0336992E-3,3.5606323E1,2.9073639E-2,-3.4077965E-2,1.3907722E-2],"split_indices":[5,1,0,0,0],"split_type":[0,0,0,0,0],"sum_hessian":[4.7753525E0,3.5469964E0,1.2283562E0,1.887221E0,1.6597754E0],"tree_param":{"num_deleted":"0","num_feature":"8","num_nodes":"5","size_leaf_vector":"1"}},{"base_weights":[6.94972E-3,-1.6608533E-1,2.3169668E-2,1.2234284E-2,-4.8179034E-2],"categories":[],"categories_nodes":[],"categories_segments":[],"categories_sizes":[],"default_left":[0,0,0,0,0],"id":64,"left_children":[1,3,-1,-1,-1],"loss_changes":[2.6208758E-1,4.0779972E-1,0E0,0E0,0E0],"parents":[2147483647,0,0,1,1],"right_children":[2,4,-1,-1,-1],"split_conditions":[6.305531E-1,6.0231143E-1,2.3169668E-2,1.2234284E-2,-4.8179034E-2],"split_indices":[7,7,0,0,0],"split_type":[0,0,0,0,0],"sum_hessian":[4.7498407E0,2.8311331E0,1.9187074E0,1.7995454E0,1.0315877E0],"tree_param":{"num_deleted":"0","num_feature":"8","num_nodes":"5","size_leaf_vector":"1"}},{"base_weights":[4.0957564E-3,-1.3713573E-1,2.7508086E-2,-3.129973E-1,1.8444275E-2,-4.828584E-2,2.47786E-3],"categories":[],"categories_nodes":[],"categories_segments":[],"categories_sizes":[],"default_left":[0,0,0,0,0,0,0],"id":65,"left_children":[1,3,-1,5,-1,-1,-1],"loss_changes":[2.5587517E-1,3.0738336E-1,0E0,1.9697571E-1,0E0,0E0,0E0],"parents":[2147483647,0,0,1,1,3,3],"right_children":[2,4,-1,6,-1,-1,-1],"split_conditions":[1.7467163E-3,6.305531E-1,2.7508086E-2,1.0499445E-2,1.8444275E-2,-4.828584E-2,2.47786E-3],"split_indices":[3,7,0,0,0,0,0],"split_type":[0,0,0,0,0,0,0],"sum_hessian":[4.7000914E0,3.4144773E0,1.2856143E0,2.2245967E0,1.1898805E0,1.194422E0,1.0301747E0],"tree_param":{"num_deleted":"0","num_feature":"8","num_nodes":"7","size_leaf_vector":"1"}},{"base_weights":[3.782366E-3,-1.3322711E-1,2.8290216E-2,-3.2684583E-2,1.3121116E-2],"categories":[],"categories_nodes":[],"categories_segments":[],"categories_sizes":[],"default_left":[0,0,0,0,0],"id":66,"left_children":[1,3,-1,-1,-1],"loss_changes":[2.5393343E-1,2.718876E-1,0E0,0E0,0E0],"parents":[2147483647,0,0,1,1],"right_children":[2,4,-1,-1,-1],"split_conditions":[3.0336992E-3,3.5606323E1,2.8290216E-2,-3.2684583E-2,1.3121116E-2],"split_indices":[5,1,0,0,0],"split_type":[0,0,0,0,0],"sum_hessian":[4.654591E0,3.4726737E0,1.1819175E0,1.8685455E0,1.6041281E0],"tree_param":{"num_deleted":"0","num_feature":"8","num_nodes":"5","size_leaf_vector":"1"}},{"base_weights":[5.0583114E-3,-1.525917E-1,2.4320284E-2,1.5876366E-2,-4.0330898E-2],"categories":[],"categories_nodes":[],"categories_segments":[],"categories_sizes":[],"default_left":[0,0,0,0,0],"id":67,"left_children":[1,3,-1,-1,-1],"loss_changes":[2.4854523E-1,3.7651378E-1,0E0,0E0,0E0],"parents":[2147483647,0,0,1,1],"right_children":[2,4,-1,-1,-1],"split_conditions":[1.8665189E-3,-2.9693E-3,2.4320284E-2,1.5876366E-2,-4.0330898E-2],"split_indices":[6,6,0,0,0],"split_type":[0,0,0,0,0],"sum_hessian":[4.631722E0,3.0030026E0,1.6287194E0,1.5031122E0,1.4998904E0],"tree_param":{"num_deleted":"0","num_feature":"8","num_nodes":"5","size_leaf_vector":"1"}},{"base_weights":[4.6293293E-3,-1.2535846E-1,2.8839076E-2,-2.8594598E-1,2.1597689E-2,4.899858E-3,-4.518279E-2],"categories":[],"categories_nodes":[],"categories_segments":[],"categories_sizes":[],"default_left":[0,0,0,0,0,0,0],"id":68,"left_children":[1,3,-1,5,-1,-1,-1],"loss_changes":[2.4273826E-1,3.105137E-1,0E0,2.1752024E-1,0E0,0E0,0E0],"parents":[2147483647,0,0,1,1,3,3],"right_children":[2,4,-1,6,-1,-1,-1],"split_conditions":[5.4088067E-3,3.0336992E-3,2.8839076E-2,-4.744749E-3,2.1597689E-2,4.899858E-3,-4.518279E-2],"split_indices":[4,5,0,4,0,0,0],"split_type":[0,0,0,0,0,0,0],"sum_hessian":[4.600735E0,3.5381677E0,1.0625675E0,2.5165043E0,1.0216634E0,1.0668881E0,1.4496161E0],"tree_param":{"num_deleted":"0","num_feature":"8","num_nodes":"7","size_leaf_vector":"1"}},{"base_weights":[6.102229E-3,-1.3134162E-1,2.7216662E-2,-3.080837E-1,1.8771801E-2,-4.6874195E-2,1.9901427E-3],"categories":[],"categories_nodes":[],"categories_segments":[],"categories_sizes":[],"default_left":[0,0,0,0,0,0,0],"id":69,"left_children":[1,3,-1,5,-1,-1,-1],"loss_changes":[2.3963617E-1,3.031828E-1,0E0,1.7681429E-1,0E0,0E0,0E0],"parents":[2147483647,0,0,1,1,3,3],"right_children":[2,4,-1,6,-1,-1,-1],"split_conditions":[1.7467163E-3,6.305531E-1,2.7216662E-2,1.0499445E-2,1.8771801E-2,-4.6874195E-2,1.9901427E-3],"split_indices":[3,7,0,0,0,0,0],"split_type":[0,0,0,0,0,0,0],"sum_hessian":[4.575483E0,3.3508506E0,1.2246324E0,2.1784859E0,1.1723647E0,1.1741778E0,1.0043082E0],"tree_param":{"num_deleted":"0","num_feature":"8","num_nodes":"7","size_leaf_vector":"1"}},{"base_weights":[5.7748193E-3,-1.4390396E-1,2.3235047E-2,1.5472389E-2,-3.824907E-2],"categories":[],"categories_nodes":[],"categories_segments":[],"categories_sizes":[],"default_left":[0,0,0,0,0],"id":70,"left_children":[1,3,-1,-1,-1],"loss_changes":[2.210417E-1,3.405242E-1,0E0,0E0,0E0],"parents":[2147483647,0,0,1,1],"right_children":[2,4,-1,-1,-1],"split_conditions":[1.8665189E-3,-2.9693E-3,2.3235047E-2,1.5472389E-2,-3.824907E-2],"split_indices":[6,6,0,0,0],"split_type":[0,0,0,0,0],"sum_hessian":[4.5318723E0,2.948759E0,1.5831134E0,1.4657042E0,1.4830548E0],"tree_param":{"num_deleted":"0","num_feature":"8","num_nodes":"5","size_leaf_vector":"1"}},{"base_weights":[5.3758286E-3,-1.208825E-1,2.8299589E-2,1.3207795E-2,-2.8663045E-1,-4.3785274E-2,4.4533174E-4],"categories":[],"categories_nodes":[],"categories_segments":[],"categories_sizes":[],"default_left":[0,0,0,0,0,0,0],"id":71,"left_children":[1,3,-1,-1,5,-1,-1],"loss_changes":[2.2710888E-1,2.2584283E-1,0E0,0E0,1.3506845E-1,0E0,0E0],"parents":[2147483647,0,0,1,1,4,4],"right_children":[2,4,-1,-1,6,-1,-1],"split_conditions":[5.4088067E-3,3.5010227E1,2.8299589E-2,1.3207795E-2,4.8212185E1,-4.3785274E-2,4.4533174E-4],"split_indices":[4,1,0,0,1,0,0],"split_type":[0,0,0,0,0,0,0],"sum_hessian":[4.5032663E0,3.48356E0,1.0197064E0,1.4593998E0,2.0241604E0,1.0002831E0,1.0238771E0],"tree_param":{"num_deleted":"0","num_feature":"8","num_nodes":"7","size_leaf_vector":"1"}},{"base_weights":[4.596645E-3,-1.5793613E-1,2.1642363E-2,1.06964335E-2,-4.3170076E-2],"categories":[],"categories_nodes":[],"categories_segments":[],"categories_sizes":[],"default_left":[0,0,0,0,0],"id":72,"left_children":[1,3,-1,-1,-1],"loss_changes":[2.2313878E-1,3.1331533E-1,0E0,0E0,0E0],"parents":[2147483647,0,0,1,1],"right_children":[2,4,-1,-1,-1],"split_conditions":[6.305531E-1,6.0201764E-1,2.1642363E-2,1.06964335E-2,-4.3170076E-2],"split_indices":[7,7,0,0,0],"split_type":[0,0,0,0,0],"sum_hessian":[4.488356E0,2.6836371E0,1.8047187E0,1.6735543E0,1.010083E0],"tree_param":{"num_deleted":"0","num_feature":"8","num_nodes":"5","size_leaf_vector":"1"}},{"base_weights":[2.2065658E-3,-1.2707113E-1,2.5470922E-2,-2.9367584E-1,1.7689502E-2,-4.46389E-2,1.3047158E-3],"categories":[],"categories_nodes":[],"categories_segments":[],"categories_sizes":[],"default_left":[0,0,0,0,0,0,0],"id":73,"left_children":[1,3,-1,5,-1,-1,-1],"loss_changes":[2.101981E-1,2.6820362E-1,0E0,1.5263572E-1,0E0,0E0,0E0],"parents":[2147483647,0,0,1,1,3,3],"right_children":[2,4,-1,6,-1,-1,-1],"split_conditions":[1.7467163E-3,6.305531E-1,2.5470922E-2,-8.5561204E-4,1.7689502E-2,-4.46389E-2,1.3047158E-3],"split_indices":[3,7,0,2,0,0,0],"split_type":[0,0,0,0,0,0,0],"sum_hessian":[4.4477873E0,3.2702303E0,1.1775571E0,2.1342793E0,1.135951E0,1.1208663E0,1.013413E0],"tree_param":{"num_deleted":"0","num_feature":"8","num_nodes":"7","size_leaf_vector":"1"}},{"base_weights":[1.9962813E-3,1.2969182E-1,-2.5240142E-2,-7.9597175E-2,3.6016803E-2,1.8429479E-2,-3.1038085E-2],"categories":[],"categories_nodes":[],"categories_segments":[],"categories_sizes":[],"default_left":[0,0,0,0,0,0,0],"id":74,"left_children":[1,3,-1,5,-1,-1,-1],"loss_changes":[2.0840171E-1,2.3419935E-1,0E0,2.4308105E-1,0E0,0E0,0E0],"parents":[2147483647,0,0,1,1,3,3],"right_children":[2,4,-1,6,-1,-1,-1],"split_conditions":[1.2073478E-2,-1.6054781E-3,-2.5240142E-2,3.9510426E1,3.6016803E-2,1.8429479E-2,-3.1038085E-2],"split_indices":[0,4,0,1,0,0,0],"split_type":[0,0,0,0,0,0,0],"sum_hessian":[4.407568E0,3.2609344E0,1.1466335E0,2.0521104E0,1.2088239E0,1.0513607E0,1.0007497E0],"tree_param":{"num_deleted":"0","num_feature":"8","num_nodes":"7","size_leaf_vector":"1"}},{"base_weights":[1.5920755E-3,-1.2527607E-1,2.6268242E-2,-3.0154636E-2,1.197186E-2],"categories":[],"categories_nodes":[],"categories_segments":[],"categories_sizes":[],"default_left":[0,0,0,0,0],"id":75,"left_children":[1,3,-1,-1,-1],"loss_changes":[2.1126601E-1,2.218326E-1,0E0,0E0,0E0],"parents":[2147483647,0,0,1,1],"right_children":[2,4,-1,-1,-1],"split_conditions":[3.0336992E-3,3.5606323E1,2.6268242E-2,-3.0154636E-2,1.197186E-2],"split_indices":[5,1,0,0,0],"split_type":[0,0,0,0,0],"sum_hessian":[4.3845534E0,3.3008142E0,1.0837395E0,1.7854087E0,1.5154054E0],"tree_param":{"num_deleted":"0","num_feature":"8","num_nodes":"5","size_leaf_vector":"1"}},{"base_weights":[3.0165804E-3,-1.282192E-1,2.3407359E-2,1.3710207E-2,-3.834638E-2],"categories":[],"categories_nodes":[],"categories_segments":[],"categories_sizes":[],"default_left":[0,0,0,0,0],"id":76,"left_children":[1,3,-1,-1,-1],"loss_changes":[1.9269192E-1,3.2804015E-1,0E0,0E0,0E0],"parents":[2147483647,0,0,1,1],"right_children":[2,4,-1,-1,-1],"split_conditions":[6.549179E-1,6.091323E-1,2.3407359E-2,1.3710207E-2,-3.834638E-2],"split_indices":[7,7,0,0,0],"split_type":[0,0,0,0,0],"sum_hessian":[4.3648877E0,3.0676174E0,1.2972702E0,1.7310687E0,1.3365487E0],"tree_param":{"num_deleted":"0","num_feature":"8","num_nodes":"5","size_leaf_vector":"1"}},{"base_weights":[2.548216E-3,-1.2246335E-1,2.4765445E-2,1.748087E-2,-2.7858117E-1,-4.1158684E-3,-3.8758945E-2],"categories":[],"categories_nodes":[],"categories_segments":[],"categories_sizes":[],"default_left":[0,0,0,0,0,0,0],"id":77,"left_children":[1,3,-1,-1,5,-1,-1],"loss_changes":[1.9353625E-1,2.4345522E-1,0E0,0E0,6.523742E-2,0E0,0E0],"parents":[2147483647,0,0,1,1,4,4],"right_children":[2,4,-1,-1,6,-1,-1],"split_conditions":[1.7467163E-3,3.5010227E1,2.4765445E-2,1.748087E-2,3.027172E-3,-4.1158684E-3,-3.8758945E-2],"split_indices":[3,1,0,0,2,0,0],"split_type":[0,0,0,0,0,0,0],"sum_hessian":[4.326427E0,3.1964881E0,1.1299391E0,1.0594367E0,2.1370513E0,1.1059158E0,1.0311356E0],"tree_param":{"num_deleted":"0","num_feature":"8","num_nodes":"7","size_leaf_vector":"1"}},{"base_weights":[2.2567564E-3,-1.3862741E-1,2.158457E-2,1.4303415E-2,-3.5780422E-2],"categories":[],"categories_nodes":[],"categories_segments":[],"categories_sizes":[],"default_left":[0,0,0,0,0],"id":78,"left_children":[1,3,-1,-1,-1],"loss_changes":[1.8976575E-1,2.8636235E-1,0E0,0E0,0E0],"parents":[2147483647,0,0,1,1],"right_children":[2,4,-1,-1,-1],"split_conditions":[1.8665189E-3,-2.9693E-3,2.158457E-2,1.4303415E-2,-3.5780422E-2],"split_indices":[6,6,0,0,0],"split_type":[0,0,0,0,0],"sum_hessian":[4.3119555E0,2.8096564E0,1.5022993E0,1.3815918E0,1.4280646E0],"tree_param":{"num_deleted":"0","num_feature":"8","num_nodes":"5","size_leaf_vector":"1"}},{"base_weights":[2.1147E-3,-1.4878467E-1,2.0018168E-2,-3.2861542E-2,1.2266935E-2],"categories":[],"categories_nodes":[],"categories_segments":[],"categories_sizes":[],"default_left":[0,0,0,0,0],"id":79,"left_children":[1,3,-1,-1,-1],"loss_changes":[1.8780577E-1,2.1480325E-1,0E0,0E0,0E0],"parents":[2147483647,0,0,1,1],"right_children":[2,4,-1,-1,-1],"split_conditions":[6.305531E-1,1.0504131E-2,2.0018168E-2,-3.2861542E-2,1.2266935E-2],"split_indices":[7,0,0,0,0],"split_type":[0,0,0,0,0],"sum_hessian":[4.287101E0,2.5745044E0,1.7125963E0,1.4219363E0,1.1525681E0],"tree_param":{"num_deleted":"0","num_feature":"8","num_nodes":"5","size_leaf_vector":"1"}},{"base_weights":[1.8457095E-3,-1.1883695E-1,2.5029225E-2,-2.909002E-2,1.1953016E-2],"categories":[],"categories_nodes":[],"categories_segments":[],"categories_sizes":[],"default_left":[0,0,0,0,0],"id":80,"left_children":[1,3,-1,-1,-1],"loss_changes":[1.8735147E-1,2.076884E-1,0E0,0E0,0E0],"parents":[2147483647,0,0,1,1],"right_children":[2,4,-1,-1,-1],"split_conditions":[3.0336992E-3,3.5606323E1,2.5029225E-2,-2.909002E-2,1.1953016E-2],"split_indices":[5,1,0,0,0],"split_type":[0,0,0,0,0],"sum_hessian":[4.25653E0,3.2160275E0,1.0405022E0,1.7397887E0,1.4762388E0],"tree_param":{"num_deleted":"0","num_feature":"8","num_nodes":"5","size_leaf_vector":"1"}},{"base_weights":[3.2372866E-3,1.23334244E-1,-2.3321753E-2,-7.858264E-3,3.492503E-2],"categories":[],"categories_nodes":[],"categories_segments":[],"categories_sizes":[],"default_left":[0,0,0,0,0],"id":81,"left_children":[1,3,-1,-1,-1],"loss_changes":[1.7751752E-1,2.1574715E-1,0E0,0E0,0E0],"parents":[2147483647,0,0,1,1],"right_children":[2,4,-1,-1,-1],"split_conditions":[1.2073478E-2,-1.6054781E-3,-2.3321753E-2,-7.858264E-3,3.492503E-2],"split_indices":[0,4,0,0,0],"split_type":[0,0,0,0,0],"sum_hessian":[4.2382703E0,3.127961E0,1.1103094E0,1.9960827E0,1.1318781E0],"tree_param":{"num_deleted":"0","num_feature":"8","num_nodes":"5","size_leaf_vector":"1"}},{"base_weights":[3.7340007E-3,-1.1624882E-1,2.409961E-2,-2.7295378E-1,1.6924515E-2,-2.7427224E-3,-3.8743705E-2],"categories":[],"categories_nodes":[],"categories_segments":[],"categories_sizes":[],"default_left":[0,0,0,0,0,0,0],"id":82,"left_children":[1,3,-1,5,-1,-1,-1],"loss_changes":[1.7678359E-1,2.3165242E-1,0E0,7.536025E-2,0E0,0E0,0E0],"parents":[2147483647,0,0,1,1,3,3],"right_children":[2,4,-1,6,-1,-1,-1],"split_conditions":[1.7467163E-3,6.305531E-1,2.409961E-2,4.7770523E1,1.6924515E-2,-2.7427224E-3,-3.8743705E-2],"split_indices":[3,7,0,1,0,0,0],"split_type":[0,0,0,0,0,0,0],"sum_hessian":[4.2259145E0,3.1453567E0,1.0805581E0,2.0590744E0,1.0862821E0,1.0489714E0,1.0101031E0],"tree_param":{"num_deleted":"0","num_feature":"8","num_nodes":"7","size_leaf_vector":"1"}},{"base_weights":[3.3317043E-3,-1.13150604E-1,2.4328498E-2,8.190676E-3,-3.1847846E-2],"categories":[],"categories_nodes":[],"categories_segments":[],"categories_sizes":[],"default_left":[0,0,0,0,0],"id":83,"left_children":[1,3,-1,-1,-1],"loss_changes":[1.7274709E-1,1.9350767E-1,0E0,0E0,0E0],"parents":[2147483647,0,0,1,1],"right_children":[2,4,-1,-1,-1],"split_conditions":[3.0336992E-3,-3.027369E-3,2.4328498E-2,8.190676E-3,-3.1847846E-2],"split_indices":[5,5,0,0,0],"split_type":[0,0,0,0,0],"sum_hessian":[4.195622E0,3.1802547E0,1.0153675E0,1.9391724E0,1.2410822E0],"tree_param":{"num_deleted":"0","num_feature":"8","num_nodes":"5","size_leaf_vector":"1"}},{"base_weights":[3.1967913E-3,-1.3241427E-1,2.080069E-2,1.3868845E-2,-3.4217235E-2],"categories":[],"categories_nodes":[],"categories_segments":[],"categories_sizes":[],"default_left":[0,0,0,0,0],"id":84,"left_children":[1,3,-1,-1,-1],"loss_changes":[1.7147687E-1,2.5949994E-1,0E0,0E0,0E0],"parents":[2147483647,0,0,1,1],"right_children":[2,4,-1,-1,-1],"split_conditions":[1.8665189E-3,-2.9693E-3,2.080069E-2,1.3868845E-2,-3.4217235E-2],"split_indices":[6,6,0,0,0],"split_type":[0,0,0,0,0],"sum_hessian":[4.182225E0,2.7288485E0,1.4533765E0,1.3381578E0,1.3906907E0],"tree_param":{"num_deleted":"0","num_feature":"8","num_nodes":"5","size_leaf_vector":"1"}},{"base_weights":[3.025019E-3,-1.466064E-1,1.835735E-2,1.2703927E-2,-3.4629617E-2],"categories":[],"categories_nodes":[],"categories_segments":[],"categories_sizes":[],"default_left":[0,0,0,0,0],"id":85,"left_children":[1,3,-1,-1,-1],"loss_changes":[1.662901E-1,2.2853097E-1,0E0,0E0,0E0],"parents":[2147483647,0,0,1,1],"right_children":[2,4,-1,-1,-1],"split_conditions":[-1.6045083E-3,9.067556E-4,1.835735E-2,1.2703927E-2,-3.4629617E-2],"split_indices":[3,5,0,0,0],"split_type":[0,0,0,0,0],"sum_hessian":[4.159109E0,2.3770764E0,1.7820326E0,1.1563222E0,1.2207541E0],"tree_param":{"num_deleted":"0","num_feature":"8","num_nodes":"5","size_leaf_vector":"1"}},{"base_weights":[2.089317E-3,-1.2308987E-1,2.2301922E-2,1.3580521E-2,-3.6944713E-2],"categories":[],"categories_nodes":[],"categories_segments":[],"categories_sizes":[],"default_left":[0,0,0,0,0],"id":86,"left_children":[1,3,-1,-1,-1],"loss_changes":[1.6975531E-1,3.007594E-1,0E0,0E0,0E0],"parents":[2147483647,0,0,1,1],"right_children":[2,4,-1,-1,-1],"split_conditions":[6.549179E-1,6.091323E-1,2.2301922E-2,1.3580521E-2,-3.6944713E-2],"split_indices":[7,7,0,0,0],"split_type":[0,0,0,0,0],"sum_hessian":[4.14553E0,2.9288788E0,1.2166514E0,1.646905E0,1.2819738E0],"tree_param":{"num_deleted":"0","num_feature":"8","num_nodes":"5","size_leaf_vector":"1"}},{"base_weights":[1.7217547E-3,1.1912369E-1,-2.2454133E-2,-7.898439E-3,3.4260657E-2],"categories":[],"categories_nodes":[],"categories_segments":[],"categories_sizes":[],"default_left":[0,0,0,0,0],"id":87,"left_children":[1,3,-1,-1,-1],"loss_changes":[1.62521E-1,2.0497495E-1,0E0,0E0,0E0],"parents":[2147483647,0,0,1,1],"right_children":[2,4,-1,-1,-1],"split_conditions":[1.2073478E-2,-1.6054781E-3,-2.2454133E-2,-7.898439E-3,3.4260657E-2],"split_indices":[0,4,0,0,0],"split_type":[0,0,0,0,0],"sum_hessian":[4.1112123E0,3.018506E0,1.0927061E0,1.942838E0,1.0756681E0],"tree_param":{"num_deleted":"0","num_feature":"8","num_nodes":"5","size_leaf_vector":"1"}},{"base_weights":[2.4091941E-3,-1.379579E-1,1.8821936E-2,-3.062639E-2,1.1627245E-2],"categories":[],"categories_nodes":[],"categories_segments":[],"categories_sizes":[],"default_left":[0,0,0,0,0],"id":88,"left_children":[1,3,-1,-1,-1],"loss_changes":[1.589657E-1,1.845971E-1,0E0,0E0,0E0],"parents":[2147483647,0,0,1,1],"right_children":[2,4,-1,-1,-1],"split_conditions":[6.305531E-1,1.0504131E-2,1.8821936E-2,-3.062639E-2,1.1627245E-2],"split_indices":[7,0,0,0,0],"split_type":[0,0,0,0,0],"sum_hessian":[4.099349E0,2.481942E0,1.6174072E0,1.3701814E0,1.1117605E0],"tree_param":{"num_deleted":"0","num_feature":"8","num_nodes":"5","size_leaf_vector":"1"}},{"base_weights":[2.1781924E-3,1.1935566E-1,-2.2151371E-2,-6.5929154E-3,3.2806903E-2],"categories":[],"categories_nodes":[],"categories_segments":[],"categories_sizes":[],"default_left":[0,0,0,0,0],"id":89,"left_children":[1,3,-1,-1,-1],"loss_changes":[1.5939163E-1,1.7548265E-1,0E0,0E0,0E0],"parents":[2147483647,0,0,1,1],"right_children":[2,4,-1,-1,-1],"split_conditions":[1.2073478E-2,-1.6054781E-3,-2.2151371E-2,-6.5929154E-3,3.2806903E-2],"split_indices":[0,4,0,0,0],"split_type":[0,0,0,0,0],"sum_hessian":[4.072275E0,2.978476E0,1.0937994E0,1.9401916E0,1.0382844E0],"tree_param":{"num_deleted":"0","num_feature":"8","num_nodes":"5","size_leaf_vector":"1"}},{"base_weights":[2.847101E-3,-1.269021E-1,1.9836059E-2,1.3414308E-2,-3.2725703E-2],"categories":[],"categories_nodes":[],"categories_segments":[],"categories_sizes":[],"default_left":[0,0,0,0,0],"id":90,"left_children":[1,3,-1,-1,-1],"loss_changes":[1.5357572E-1,2.3492566E-1,0E0,0E0,0E0],"parents":[2147483647,0,0,1,1],"right_children":[2,4,-1,-1,-1],"split_conditions":[1.8665189E-3,-2.9693E-3,1.9836059E-2,1.3414308E-2,-3.2725703E-2],"split_indices":[6,6,0,0,0],"split_type":[0,0,0,0,0],"sum_hessian":[4.061682E0,2.6523945E0,1.4092877E0,1.2952578E0,1.3571367E0],"tree_param":{"num_deleted":"0","num_feature":"8","num_nodes":"5","size_leaf_vector":"1"}},{"base_weights":[2.718886E-3,-1.1004181E-1,2.2840045E-2,-2.6193967E-2,1.6588103E-2],"categories":[],"categories_nodes":[],"categories_segments":[],"categories_sizes":[],"default_left":[0,0,0,0,0],"id":91,"left_children":[1,3,-1,-1,-1],"loss_changes":[1.5340084E-1,2.1260364E-1,0E0,0E0,0E0],"parents":[2147483647,0,0,1,1],"right_children":[2,4,-1,-1,-1],"split_conditions":[1.7467163E-3,6.305531E-1,2.2840045E-2,-2.6193967E-2,1.6588103E-2],"split_indices":[3,7,0,0,0],"split_type":[0,0,0,0,0],"sum_hessian":[4.0403633E0,3.0358953E0,1.0044681E0,1.9906845E0,1.045211E0],"tree_param":{"num_deleted":"0","num_feature":"8","num_nodes":"5","size_leaf_vector":"1"}},{"base_weights":[5.1474674E-3,1.16684586E-1,-2.078974E-2,-6.061332E-3,3.183998E-2],"categories":[],"categories_nodes":[],"categories_segments":[],"categories_sizes":[],"default_left":[0,0,0,0,0],"id":92,"left_children":[1,3,-1,-1,-1],"loss_changes":[1.4350197E-1,1.6000296E-1,0E0,0E0,0E0],"parents":[2147483647,0,0,1,1],"right_children":[2,4,-1,-1,-1],"split_conditions":[1.2073478E-2,-1.6054781E-3,-2.078974E-2,-6.061332E-3,3.183998E-2],"split_indices":[0,4,0,0,0],"split_type":[0,0,0,0,0],"sum_hessian":[4.0181584E0,2.934261E0,1.0838971E0,1.9339359E0,1.0003252E0],"tree_param":{"num_deleted":"0","num_feature":"8","num_nodes":"5","size_leaf_vector":"1"}},{"base_weights":[5.710332E-3,-1.2078519E-1,1.9481562E-2,1.3098851E-2,-3.1376474E-2],"categories":[],"categories_nodes":[],"categories_segments":[],"categories_sizes":[],"default_left":[0,0,0,0,0],"id":93,"left_children":[1,3,-1,-1,-1],"loss_changes":[1.4333256E-1,2.1689633E-1,0E0,0E0,0E0],"parents":[2147483647,0,0,1,1],"right_children":[2,4,-1,-1,-1],"split_conditions":[1.8665189E-3,-2.9693E-3,1.9481562E-2,1.3098851E-2,-3.1376474E-2],"split_indices":[6,6,0,0,0],"split_type":[0,0,0,0,0],"sum_hessian":[4.008229E0,2.6181724E0,1.3900564E0,1.2754145E0,1.3427579E0],"tree_param":{"num_deleted":"0","num_feature":"8","num_nodes":"5","size_leaf_vector":"1"}},{"base_weights":[5.440898E-3,-1.3441853E-1,1.7514661E-2,1.190218E-2,-3.154087E-2],"categories":[],"categories_nodes":[],"categories_segments":[],"categories_sizes":[],"default_left":[0,0,0,0,0],"id":94,"left_children":[1,3,-1,-1,-1],"loss_changes":[1.4192958E-1,1.8891966E-1,0E0,0E0,0E0],"parents":[2147483647,0,0,1,1],"right_children":[2,4,-1,-1,-1],"split_conditions":[-1.6045083E-3,9.067556E-4,1.7514661E-2,1.190218E-2,-3.154087E-2],"split_indices":[3,5,0,0,0],"split_type":[0,0,0,0,0],"sum_hessian":[3.9878623E0,2.3001628E0,1.6876997E0,1.1009246E0,1.1992381E0],"tree_param":{"num_deleted":"0","num_feature":"8","num_nodes":"5","size_leaf_vector":"1"}},{"base_weights":[4.5252237E-3,-1.1281239E-1,2.1082005E-2,1.4219142E-2,-3.6187813E-2],"categories":[],"categories_nodes":[],"categories_segments":[],"categories_sizes":[],"default_left":[0,0,0,0,0],"id":95,"left_children":[1,3,-1,-1,-1],"loss_changes":[1.4422002E-1,2.9426247E-1,0E0,0E0,0E0],"parents":[2147483647,0,0,1,1],"right_children":[2,4,-1,-1,-1],"split_conditions":[6.549179E-1,6.091323E-1,2.1082005E-2,1.4219142E-2,-3.6187813E-2],"split_indices":[7,7,0,0,0],"split_type":[0,0,0,0,0],"sum_hessian":[3.9754689E0,2.822959E0,1.1525099E0,1.606875E0,1.216084E0],"tree_param":{"num_deleted":"0","num_feature":"8","num_nodes":"5","size_leaf_vector":"1"}},{"base_weights":[3.948009E-3,-1.2791839E-1,1.7917981E-2,-2.8756438E-2,1.1286816E-2],"categories":[],"categories_nodes":[],"categories_segments":[],"categories_sizes":[],"default_left":[0,0,0,0,0],"id":96,"left_children":[1,3,-1,-1,-1],"loss_changes":[1.3713716E-1,1.6330527E-1,0E0,0E0,0E0],"parents":[2147483647,0,0,1,1],"right_children":[2,4,-1,-1,-1],"split_conditions":[6.305531E-1,1.0504131E-2,1.7917981E-2,-2.8756438E-2,1.1286816E-2],"split_indices":[7,0,0,0,0],"split_type":[0,0,0,0,0],"sum_hessian":[3.9429107E0,2.403911E0,1.5389998E0,1.3286923E0,1.0752187E0],"tree_param":{"num_deleted":"0","num_feature":"8","num_nodes":"5","size_leaf_vector":"1"}},{"base_weights":[3.6904446E-3,-1.5527581E-2,1.5316595E-1,2.6401667E-2,-3.2805924E-3],"categories":[],"categories_nodes":[],"categories_segments":[],"categories_sizes":[],"default_left":[0,0,0,0,0],"id":97,"left_children":[1,-1,3,-1,-1],"loss_changes":[1.406559E-1,0E0,7.129784E-2,0E0,0E0],"parents":[2147483647,0,0,2,2],"right_children":[2,-1,4,-1,-1],"split_conditions":[3.5606323E1,-1.5527581E-2,6.6978775E1,2.6401667E-2,-3.2805924E-3],"split_indices":[1,0,1,0,0],"split_type":[0,0,0,0,0],"sum_hessian":[3.9185715E0,1.8801932E0,2.038378E0,1.0141958E0,1.0241823E0],"tree_param":{"num_deleted":"0","num_feature":"8","num_nodes":"5","size_leaf_vector":"1"}},{"base_weights":[4.931879E-3,1.1477221E-1,-2.0292643E-2,2.59309E-2,-7.895595E-3],"categories":[],"categories_nodes":[],"categories_segments":[],"categories_sizes":[],"default_left":[0,0,0,0,0],"id":98,"left_children":[1,3,-1,-1,-1],"loss_changes":[1.3533972E-1,1.2826827E-1,0E0,0E0,0E0],"parents":[2147483647,0,0,1,1],"right_children":[2,4,-1,-1,-1],"split_conditions":[1.2073478E-2,4.794737E1,-2.0292643E-2,2.59309E-2,-7.895595E-3],"split_indices":[0,1,0,0,0],"split_type":[0,0,0,0,0],"sum_hessian":[3.9077263E0,2.8496802E0,1.0580462E0,1.43817E0,1.4115102E0],"tree_param":{"num_deleted":"0","num_feature":"8","num_nodes":"5","size_leaf_vector":"1"}},{"base_weights":[4.0455004E-3,-1.3344872E-1,1.7124105E-2,1.0430778E-2,-2.9795099E-2],"categories":[],"categories_nodes":[],"categories_segments":[],"categories_sizes":[],"default_left":[0,0,0,0,0],"id":99,"left_children":[1,3,-1,-1,-1],"loss_changes":[1.354469E-1,1.5817894E-1,0E0,0E0,0E0],"parents":[2147483647,0,0,1,1],"right_children":[2,4,-1,-1,-1],"split_conditions":[-1.6045083E-3,9.067556E-4,1.7124105E-2,1.0430778E-2,-2.9795099E-2],"split_indices":[3,5,0,0,0],"split_type":[0,0,0,0,0],"sum_hessian":[3.897901E0,2.2496934E0,1.6482077E0,1.0696453E0,1.1800481E0],"tree_param":{"num_deleted":"0","num_feature":"8","num_nodes":"5","size_leaf_vector":"1"}}]},"name":"gbtree"},"learner_model_param":{"base_score":"[9.6466434E-1]","boost_from_average":"1","num_class":"0","num_feature":"8","num_target":"1"},"objective":{"name":"binary:logistic","reg_loss_param":{"scale_pos_weight":"1"}}},"version":[3,1,2]}