{"learner":{"attributes":{"scikit_learn":"{\"_estimator_type\": \"classifier\"}"},"feature_names":[],"feature_types":[],"gradient_booster":{"model":{"cats":{"enc":[],"feature_segments":[],"sorted_idx":[]},"gbtree_model_param":{"num_parallel_tree":"1","num_trees":"100"},"iteration_indptr":[0,1,2,3,4,5,6,7,8,9,10,11,12,13,14,15,16,17,18,19,20,21,22,23,24,25,26,27,28,29,30,31,32,33,34,35,36,37,38,39,40,41,42,43,44,45,46,47,48,49,50,51,52,53,54,55,56,57,58,59,60,61,62,63,64,65,66,67,68,69,70,71,72,73,74,75,76,77,78,79,80,81,82,83,84,85,86,87,88,89,90,91,92,93,94,95,96,97,98,99,100],"tree_info":[0,0,0,0,0,0,0,0,0,0,0,0,0,0,0,0,0,0,0,0,0,0,0,0,0,0,0,0,0,0,0,0,0,0,0,0,0,0,0,0,0,0,0,0,0,0,0,0,0,0,0,0,0,0,0,0,0,0,0,0,0,0,0,0,0,0,0,0,0,0,0,0,0,0,0,0,0,0,0,0,0,0,0,0,0,0,0,0,0,0,0,0,0,0,0,0,0,0,0,0],"trees":[{"base_weights":[7.191461E-8,-1.1639556E0,8.125098E-1,-1.5997229E0,-5.478552E-1,2.3119813E-1,1.1510224E0,-1.8737239E-1,-5.72132E-2,3.67035E-2,-1.0137685E-1,7.7999495E-2,-3.8773816E-2,4.2938184E-2,1.16715446E-1],"categories":[],"categories_nodes":[],"categories_segments":[],"categories_sizes":[],"default_left":[0,0,0,0,0,0,0,0,0,0,0,0,0,0,0],"id":0,"left_children":[1,3,5,7,9,11,13,-1,-1,-1,-1,-1,-1,-1,-1],"loss_changes":[1.2949564E2,1.4236061E1,1.5601852E1,8.064415E0,1.0960608E1,1.0807583E1,8.918762E-2,0E0,0E0,0E0,0E0,0E0,0E0,0E0,0E0],"parents":[2147483647,0,0,1,1,2,2,3,3,4,4,5,5,6,6],"right_children":[2,4,6,8,10,12,14,-1,-1,-1,-1,-1,-1,-1,-1],"split_conditions":[6.0941E-1,1.378654E-2,6.7321545E-1,5.901271E-1,-6.2280027E-3,6.1412605E1,6.4326734E-3,-1.8737239E-1,-5.72132E-2,3.67035E-2,-1.0137685E-1,7.7999495E-2,-3.8773816E-2,4.2938184E-2,1.16715446E-1],"split_indices":[7,0,7,7,2,1,0,0,0,0,0,0,0,0,0],"split_type":[0,0,0,0,0,0,0,0,0,0,0,0,0,0,0],"sum_hessian":[1.3492732E2,5.5289772E1,7.963756E1,3.1449226E1,2.3840544E1,2.992749E1,4.9710068E1,2.4178707E1,7.27052E0,8.11593E0,1.5724613E1,1.5724613E1,1.4202877E1,1.6908187E0,4.801925E1],"tree_param":{"num_deleted":"0","num_feature":"8","num_nodes":"15","size_leaf_vector":"1"}},{"base_weights":[2.9883015E-3,-9.860294E-1,7.7099234E-1,-1.5434499E0,-5.8943963E-1,2.130732E-1,1.1136315E0,-3.534524E-2,-1.8054114E-1,-9.934292E-2,5.2376103E-4,7.3912375E-2,-3.440314E-2,4.090103E-2,1.1300665E-1],"categories":[],"categories_nodes":[],"categories_segments":[],"categories_sizes":[],"default_left":[0,0,0,0,0,0,0,0,0,0,0,0,0,0,0],"id":1,"left_children":[1,3,5,7,9,11,13,-1,-1,-1,-1,-1,-1,-1,-1],"loss_changes":[1.0394105E2,1.2313534E1,1.4487274E1,6.9207954E0,8.790356E0,9.205307E0,8.765793E-2,0E0,0E0,0E0,0E0,0E0,0E0,0E0,0E0],"parents":[2147483647,0,0,1,1,2,2,3,3,4,4,5,5,6,6],"right_children":[2,4,6,8,10,12,14,-1,-1,-1,-1,-1,-1,-1,-1],"split_conditions":[6.0941E-1,5.4877615E-1,6.7321545E-1,-1.0710595E-2,1.3711387E-2,6.1412605E1,6.4326734E-3,-3.534524E-2,-1.8054114E-1,-9.934292E-2,5.2376103E-4,7.3912375E-2,-3.440314E-2,4.090103E-2,1.1300665E-1],"split_indices":[7,7,7,6,0,1,0,0,0,0,0,0,0,0,0],"split_type":[0,0,0,0,0,0,0,0,0,0,0,0,0,0,0],"sum_hessian":[1.3484117E2,5.881574E1,7.602542E1,2.3248034E1,3.5567707E1,2.9542782E1,4.648264E1,4.618246E0,1.8629787E1,2.0780256E1,1.478745E1,1.5026841E1,1.4515942E1,1.6495047E0,4.4833138E1],"tree_param":{"num_deleted":"0","num_feature":"8","num_nodes":"15","size_leaf_vector":"1"}},{"base_weights":[4.853881E-3,-8.7719744E-1,7.092135E-1,-1.2960657E0,-5.4477775E-1,1.790273E-1,1.0795211E0,-1.5514201E-1,-4.0064562E-2,-9.1887936E-2,-3.4526282E-3,6.9437675E-2,-2.5522409E-2,3.8963325E-2,1.09638035E-1],"categories":[],"categories_nodes":[],"categories_segments":[],"categories_sizes":[],"default_left":[0,0,0,0,0,0,0,0,0,0,0,0,0,0,0],"id":2,"left_children":[1,3,5,7,9,11,13,-1,-1,-1,-1,-1,-1,-1,-1],"loss_changes":[8.462404E1,7.7149773E0,1.4674744E1,5.331234E0,6.7340307E0,7.414763E0,8.9092255E-2,0E0,0E0,0E0,0E0,0E0,0E0,0E0,0E0],"parents":[2147483647,0,0,1,1,2,2,3,3,4,4,5,5,6,6],"right_children":[2,4,6,8,10,12,14,-1,-1,-1,-1,-1,-1,-1,-1],"split_conditions":[6.0442424E-1,5.4877615E-1,6.7321545E-1,1.5768094E-2,1.3215579E-2,5.8827213E1,6.4326734E-3,-1.5514201E-1,-4.0064562E-2,-9.1887936E-2,-3.4526282E-3,6.9437675E-2,-2.5522409E-2,3.8963325E-2,1.09638035E-1],"split_indices":[7,7,7,0,0,1,0,0,0,0,0,0,0,0,0],"split_type":[0,0,0,0,0,0,0,0,0,0,0,0,0,0,0],"sum_hessian":[1.3420753E2,5.9478622E1,7.472892E1,2.5034634E1,3.444399E1,3.1340601E1,4.3388317E1,1.8909452E1,6.125182E0,1.9411327E1,1.503266E1,1.4058091E1,1.728251E1,1.6101784E0,4.177814E1],"tree_param":{"num_deleted":"0","num_feature":"8","num_nodes":"15","size_leaf_vector":"1"}},{"base_weights":[6.0964865E-3,-5.703777E-1,9.217829E-1,-9.9382627E-1,-1.9747737E-1,4.5239782E-1,1.0652336E0,7.42934E-2,-1.0682024E-1,5.1171202E-2,-4.007957E-2,8.467631E-2,-8.431539E-3,5.759741E-2,1.1049551E-1],"categories":[],"categories_nodes":[],"categories_segments":[],"categories_sizes":[],"default_left":[0,0,0,0,0,0,0,0,0,0,0,0,0,0,0],"id":3,"left_children":[1,3,5,7,9,11,13,-1,-1,-1,-1,-1,-1,-1,-1],"loss_changes":[7.135041E1,1.2902456E1,3.0340576E0,5.7791977E0,6.7452474E0,3.0263994E0,1.264801E-1,0E0,0E0,0E0,0E0,0E0,0E0,0E0,0E0],"parents":[2147483647,0,0,1,1,2,2,3,3,4,4,5,5,6,6],"right_children":[2,4,6,8,10,12,14,-1,-1,-1,-1,-1,-1,-1,-1],"split_conditions":[6.4667207E-1,5.674943E-1,6.7933834E-1,-2.402121E-2,-6.2280027E-3,2.5623507E-4,7.2664204E-3,7.42934E-2,-1.0682024E-1,5.1171202E-2,-4.007957E-2,8.467631E-2,-8.431539E-3,5.759741E-2,1.1049551E-1],"split_indices":[7,7,7,4,3,2,0,0,0,0,0,0,0,0,0],"split_type":[0,0,0,0,0,0,0,0,0,0,0,0,0,0,0],"sum_hessian":[1.3317073E2,8.1953606E1,5.1217125E1,3.7596085E1,4.435752E1,1.2961022E1,3.8256104E1,1.1747836E0,3.64213E1,9.545456E0,3.4812065E1,7.1382833E0,5.822739E0,4.036604E0,3.42195E1],"tree_param":{"num_deleted":"0","num_feature":"8","num_nodes":"15","size_leaf_vector":"1"}},{"base_weights":[9.223222E-3,-4.9987665E-1,8.881887E-1,-8.577329E-1,-1.7519605E-1,4.239858E-1,1.036697E0,7.1680374E-2,-9.218328E-2,1.5884403E-2,-5.4537535E-2,-4.9877357E-2,6.232501E-2,3.5415307E-2,1.05877E-1],"categories":[],"categories_nodes":[],"categories_segments":[],"categories_sizes":[],"default_left":[0,0,0,0,0,0,0,0,0,0,0,0,0,0,0],"id":4,"left_children":[1,3,5,7,9,11,13,-1,-1,-1,-1,-1,-1,-1,-1],"loss_changes":[6.0064617E1,9.726843E0,2.9540672E0,4.7162247E0,5.7533774E0,2.8158681E0,1.764946E-1,0E0,0E0,0E0,0E0,0E0,0E0,0E0,0E0],"parents":[2147483647,0,0,1,1,2,2,3,3,4,4,5,5,6,6],"right_children":[2,4,6,8,10,12,14,-1,-1,-1,-1,-1,-1,-1,-1],"split_conditions":[6.4667207E-1,5.674943E-1,6.7933834E-1,-2.402121E-2,5.7167892E1,7.614634E-3,-2.8524294E-2,7.1680374E-2,-9.218328E-2,1.5884403E-2,-5.4537535E-2,-4.9877357E-2,6.232501E-2,3.5415307E-2,1.05877E-1],"split_indices":[7,7,7,4,1,0,6,0,0,0,0,0,0,0,0],"split_type":[0,0,0,0,0,0,0,0,0,0,0,0,0,0,0],"sum_hessian":[1.3223605E2,8.4009026E1,4.8227028E1,3.918184E1,4.4827183E1,1.262358E1,3.560345E1,1.1343867E0,3.8047455E1,2.3863916E1,2.0963268E1,1.9749304E0,1.0648649E1,1.6492599E0,3.395419E1],"tree_param":{"num_deleted":"0","num_feature":"8","num_nodes":"15","size_leaf_vector":"1"}},{"base_weights":[1.08021125E-2,-4.4118783E-1,8.5491717E-1,-8.657263E-1,-2.2060955E-1,3.3932617E-1,9.913979E-1,-9.9550895E-2,1.7210608E-2,4.562945E-2,-3.8706712E-2,-7.074686E-2,5.90845E-2,6.8723746E-2,1.0785883E-1],"categories":[],"categories_nodes":[],"categories_segments":[],"categories_sizes":[],"default_left":[0,0,0,0,0,0,0,0,0,0,0,0,0,0,0],"id":5,"left_children":[1,3,5,7,9,11,13,-1,-1,-1,-1,-1,-1,-1,-1],"loss_changes":[5.07462E1,7.9222355E0,2.9271965E0,4.1153545E0,6.7520804E0,3.3741155E0,2.1748734E-1,0E0,0E0,0E0,0E0,0E0,0E0,0E0,0E0],"parents":[2147483647,0,0,1,1,2,2,3,3,4,4,5,5,6,6],"right_children":[2,4,6,8,10,12,14,-1,-1,-1,-1,-1,-1,-1,-1],"split_conditions":[6.4667207E-1,5.4877615E-1,6.7321545E-1,1.3224157E-2,-6.838998E-3,7.614634E-3,7.122253E-1,-9.9550895E-2,1.7210608E-2,4.562945E-2,-3.8706712E-2,-7.074686E-2,5.90845E-2,6.8723746E-2,1.0785883E-1],"split_indices":[7,7,7,2,2,0,7,0,0,0,0,0,0,0,0],"split_type":[0,0,0,0,0,0,0,0,0,0,0,0,0,0,0],"sum_hessian":[1.3101797E2,8.563903E1,4.537895E1,2.8281645E1,5.7357384E1,1.0227649E1,3.5151302E1,2.5174334E1,3.1073122E0,1.0977181E1,4.6380203E1,1.630189E0,8.59746E0,9.810332E0,2.5340967E1],"tree_param":{"num_deleted":"0","num_feature":"8","num_nodes":"15","size_leaf_vector":"1"}},{"base_weights":[1.1998492E-2,-4.7458863E-1,6.8520904E-1,-6.0201836E-1,1.319754E-1,1.0515221E0,3.1980217E-1,-6.9357835E-2,3.724135E-2,8.674763E-2,-2.5565147E-2,2.6936674E-2,1.08406365E-1,-2.300152E-2,8.148252E-2],"categories":[],"categories_nodes":[],"categories_segments":[],"categories_sizes":[],"default_left":[0,0,0,0,0,0,0,0,0,0,0,0,0,0,0],"id":6,"left_children":[1,3,5,7,9,11,13,-1,-1,-1,-1,-1,-1,-1,-1],"loss_changes":[4.3148705E1,5.99037E0,7.059885E0,5.912655E0,4.240759E0,3.991909E-1,8.107401E0,0E0,0E0,0E0,0E0,0E0,0E0,0E0,0E0],"parents":[2147483647,0,0,1,1,2,2,3,3,4,4,5,5,6,6],"right_children":[2,4,6,8,10,12,14,-1,-1,-1,-1,-1,-1,-1,-1],"split_conditions":[6.233445E-1,1.7595738E-2,6.0566082E1,1.6704202E-2,-5.6628524E-3,-2.8815556E-2,6.7933834E-1,-6.9357835E-2,3.724135E-2,8.674763E-2,-2.5565147E-2,2.6936674E-2,1.08406365E-1,-2.300152E-2,8.148252E-2],"split_indices":[7,0,1,2,2,5,7,0,0,0,0,0,0,0,0],"split_type":[0,0,0,0,0,0,0,0,0,0,0,0,0,0,0],"sum_hessian":[1.2972865E2,7.5472916E1,5.425573E1,6.237615E1,1.3096768E1,2.6156591E1,2.8099138E1,5.7282013E1,5.0941358E0,4.0928645E0,9.003903E0,1.4153508E0,2.4741241E1,1.3566405E1,1.4532733E1],"tree_param":{"num_deleted":"0","num_feature":"8","num_nodes":"15","size_leaf_vector":"1"}},{"base_weights":[1.4191438E-2,-3.4895924E-1,7.9520804E-1,-5.441707E-1,1.0402751E-2,4.2754826E-1,1.0088199E0,-7.9450235E-2,-1.9852318E-2,-1.7166987E-2,5.596569E-2,6.447531E-3,8.152524E-2,2.5089255E-2,1.04270294E-1],"categories":[],"categories_nodes":[],"categories_segments":[],"categories_sizes":[],"default_left":[0,0,0,0,0,0,0,0,0,0,0,0,0,0,0],"id":7,"left_children":[1,3,5,7,9,11,13,-1,-1,-1,-1,-1,-1,-1,-1],"loss_changes":[3.6992455E1,6.2531652E0,2.8193798E0,4.8372383E0,3.329175E0,2.332883E0,3.9183235E-1,0E0,0E0,0E0,0E0,0E0,0E0,0E0,0E0],"parents":[2147483647,0,0,1,1,2,2,3,3,4,4,5,5,6,6],"right_children":[2,4,6,8,10,12,14,-1,-1,-1,-1,-1,-1,-1,-1],"split_conditions":[6.4667207E-1,5.901271E-1,6.9608873E-1,1.3575787E-2,7.5072143E-3,-3.5435933E-5,-2.8524294E-2,-7.9450235E-2,-1.9852318E-2,-1.7166987E-2,5.596569E-2,6.447531E-3,8.152524E-2,2.5089255E-2,1.04270294E-1],"split_indices":[7,7,7,0,5,6,6,0,0,0,0,0,0,0,0],"split_type":[0,0,0,0,0,0,0,0,0,0,0,0,0,0,0],"sum_hessian":[1.2844818E2,8.805724E1,4.0390934E1,5.6727596E1,3.1329649E1,1.5946321E1,2.4444614E1,3.2146927E1,2.458067E1,2.4046055E1,7.2835937E0,8.837022E0,7.1092987E0,1.4056792E0,2.3038935E1],"tree_param":{"num_deleted":"0","num_feature":"8","num_nodes":"15","size_leaf_vector":"1"}},{"base_weights":[1.5279961E-2,-3.1131786E-1,7.649513E-1,-6.468055E-1,-1.3491754E-1,4.4048297E-1,1.0191535E0,-1.0436805E-1,-2.9302737E-2,4.7714304E-2,-2.9845132E-2,-4.585417E-2,6.563828E-2,1.967964E-2,1.0618114E-1],"categories":[],"categories_nodes":[],"categories_segments":[],"categories_sizes":[],"default_left":[0,0,0,0,0,0,0,0,0,0,0,0,0,0,0],"id":8,"left_children":[1,3,5,7,9,11,13,-1,-1,-1,-1,-1,-1,-1,-1],"loss_changes":[3.1595833E1,5.234212E0,2.7805004E0,4.00793E0,6.167624E0,3.9812727E0,5.3448296E-1,0E0,0E0,0E0,0E0,0E0,0E0,0E0,0E0],"parents":[2147483647,0,0,1,1,2,2,3,3,4,4,5,5,6,6],"right_children":[2,4,6,8,10,12,14,-1,-1,-1,-1,-1,-1,-1,-1],"split_conditions":[6.4667207E-1,5.4877615E-1,7.122253E-1,-2.1689713E-3,-6.2280027E-3,7.614634E-3,-2.8524294E-2,-1.0436805E-1,-2.9302737E-2,4.7714304E-2,-2.9845132E-2,-4.585417E-2,6.563828E-2,1.967964E-2,1.0618114E-1],"split_indices":[7,7,7,3,3,0,6,0,0,0,0,0,0,0,0],"split_type":[0,0,0,0,0,0,0,0,0,0,0,0,0,0,0],"sum_hessian":[1.2707368E2,8.891999E1,3.8153687E1,2.9723518E1,5.9196476E1,1.7960888E1,2.0192797E1,1.3089439E1,1.6634079E1,1.2077208E1,4.7119267E1,3.2604096E0,1.4700479E1,1.2726184E0,1.8920177E1],"tree_param":{"num_deleted":"0","num_feature":"8","num_nodes":"15","size_leaf_vector":"1"}},{"base_weights":[1.5247806E-2,-2.2858284E-1,8.939666E-1,-4.0128085E-1,1.593651E-1,1.4158063E-2,9.205931E-1,-4.4985298E-2,7.2335266E-2,6.1962616E-2,-1.8628102E-2,9.490403E-2,2.6939888E-2],"categories":[],"categories_nodes":[],"categories_segments":[],"categories_sizes":[],"default_left":[0,0,0,0,0,0,0,0,0,0,0,0,0],"id":9,"left_children":[1,3,5,7,9,-1,11,-1,-1,-1,-1,-1,-1],"loss_changes":[2.7347113E1,6.761174E0,4.2499733E-1,4.1194096E0,5.127853E0,0E0,2.3692513E-1,0E0,0E0,0E0,0E0,0E0,0E0],"parents":[2147483647,0,0,1,1,2,2,3,3,4,4,6,6],"right_children":[2,4,6,8,10,-1,12,-1,-1,-1,-1,-1,-1],"split_conditions":[6.7321545E-1,6.0442424E-1,6.4326734E-3,2.7832856E-2,5.8827213E1,1.4158063E-2,3.5744898E-2,-4.4985298E-2,7.2335266E-2,6.1962616E-2,-1.8628102E-2,9.490403E-2,2.6939888E-2],"split_indices":[7,7,0,5,1,0,0,0,0,0,0,0,0],"split_type":[0,0,0,0,0,0,0,0,0,0,0,0,0],"sum_hessian":[1.2568229E2,9.896181E1,2.672048E1,6.845443E1,3.0507381E1,1.1292248E0,2.5591255E1,6.6195496E1,2.2589366E0,1.2744369E1,1.7763012E1,2.4081861E1,1.5093933E0],"tree_param":{"num_deleted":"0","num_feature":"8","num_nodes":"13","size_leaf_vector":"1"}},{"base_weights":[1.6515994E-2,-2.0355761E-1,8.6954314E-1,-3.9625537E-1,7.748908E-2,5.1875323E-1,9.850623E-1,-5.0232984E-2,1.8373314E-2,-1.0166886E-1,1.8638665E-2,8.6402714E-2,1.02462685E-2,1.5035562E-2,1.033643E-1],"categories":[],"categories_nodes":[],"categories_segments":[],"categories_sizes":[],"default_left":[0,0,0,0,0,0,0,0,0,0,0,0,0,0,0],"id":10,"left_children":[1,3,5,7,9,11,13,-1,-1,-1,-1,-1,-1,-1,-1],"loss_changes":[2.3715307E1,5.4724526E0,5.386944E-1,3.7696676E0,5.15908E0,1.1374714E0,5.896702E-1,0E0,0E0,0E0,0E0,0E0,0E0,0E0,0E0],"parents":[2147483647,0,0,1,1,2,2,3,3,4,4,5,5,6,6],"right_children":[2,4,6,8,10,12,14,-1,-1,-1,-1,-1,-1,-1,-1],"split_conditions":[6.7321545E-1,5.901271E-1,7.122253E-1,1.7867053E-2,7.614634E-3,5.9995377E1,-2.8524294E-2,-5.0232984E-2,1.8373314E-2,-1.0166886E-1,1.8638665E-2,8.6402714E-2,1.02462685E-2,1.5035562E-2,1.033643E-1],"split_indices":[7,7,7,0,0,1,6,0,0,0,0,0,0,0,0],"split_type":[0,0,0,0,0,0,0,0,0,0,0,0,0,0,0],"sum_hessian":[1.2438465E2,9.948083E1,2.490382E1,5.877335E1,4.0707478E1,7.529641E0,1.737418E1,4.9799404E1,8.973945E0,2.9301193E0,3.777736E1,3.5279772E0,4.001664E0,1.1808012E0,1.6193378E1],"tree_param":{"num_deleted":"0","num_feature":"8","num_nodes":"15","size_leaf_vector":"1"}},{"base_weights":[1.6691297E-2,-1.8355933E-1,8.4683436E-1,-2.3616622E-1,6.6394264E-1,4.9514753E-1,9.676819E-1,-3.7921246E-2,9.10602E-3,1.0444953E-1,-8.128521E-3,7.43122E-2,-2.648052E-3,1.4316581E-2,1.01932205E-1],"categories":[],"categories_nodes":[],"categories_segments":[],"categories_sizes":[],"default_left":[0,0,0,0,0,0,0,0,0,0,0,0,0,0,0],"id":11,"left_children":[1,3,5,7,9,11,13,-1,-1,-1,-1,-1,-1,-1,-1],"loss_changes":[2.0777851E1,4.6494484E0,5.530796E-1,4.510146E0,1.8295183E0,1.0880084E0,5.7909775E-1,0E0,0E0,0E0,0E0,0E0,0E0,0E0,0E0],"parents":[2147483647,0,0,1,1,2,2,3,3,4,4,5,5,6,6],"right_children":[2,4,6,8,10,12,14,-1,-1,-1,-1,-1,-1,-1,-1],"split_conditions":[6.7321545E-1,2.0033639E-2,7.122253E-1,6.2064687E-3,2.6334835E-2,6.9266E-1,-2.8524294E-2,-3.7921246E-2,9.10602E-3,1.0444953E-1,-8.128521E-3,7.43122E-2,-2.648052E-3,1.4316581E-2,1.01932205E-1],"split_indices":[7,3,7,6,3,7,6,0,0,0,0,0,0,0,0],"split_type":[0,0,0,0,0,0,0,0,0,0,0,0,0,0,0],"sum_hessian":[1.2305451E2,9.976714E1,2.328737E1,9.4615425E1,5.151714E0,7.259189E0,1.6028181E1,6.572503E1,2.8890402E1,3.1444256E0,2.0072885E0,4.6323943E0,2.6267948E0,1.1670346E0,1.4861147E1],"tree_param":{"num_deleted":"0","num_feature":"8","num_nodes":"15","size_leaf_vector":"1"}},{"base_weights":[1.8002234E-2,-1.6318269E-1,8.2380146E-1,-3.0078632E-1,1.550581E-1,4.7031277E-1,9.507277E-1,-3.434358E-2,7.063347E-2,5.8682002E-2,-1.5384639E-2,8.334417E-2,5.812081E-3,1.3631688E-2,1.00563824E-1],"categories":[],"categories_nodes":[],"categories_segments":[],"categories_sizes":[],"default_left":[0,0,0,0,0,0,0,0,0,0,0,0,0,0,0],"id":12,"left_children":[1,3,5,7,9,11,13,-1,-1,-1,-1,-1,-1,-1,-1],"loss_changes":[1.8125593E1,4.488867E0,5.752382E-1,3.2991276E0,4.262391E0,1.1488848E0,5.689306E-1,0E0,0E0,0E0,0E0,0E0,0E0,0E0,0E0],"parents":[2147483647,0,0,1,1,2,2,3,3,4,4,5,5,6,6],"right_children":[2,4,6,8,10,12,14,-1,-1,-1,-1,-1,-1,-1,-1],"split_conditions":[6.7321545E-1,6.0442424E-1,7.122253E-1,2.7832856E-2,5.8827213E1,5.9995377E1,-2.8524294E-2,-3.434358E-2,7.063347E-2,5.8682002E-2,-1.5384639E-2,8.334417E-2,5.812081E-3,1.3631688E-2,1.00563824E-1],"split_indices":[7,7,7,5,1,1,6,0,0,0,0,0,0,0,0],"split_type":[0,0,0,0,0,0,0,0,0,0,0,0,0,0,0],"sum_hessian":[1.2222826E2,1.0044138E2,2.1786877E1,7.0159904E1,3.0281479E1,6.999295E0,1.4787581E1,6.79417E1,2.2181993E0,1.2254058E1,1.8027422E1,3.1777856E0,3.8215098E0,1.1540283E0,1.36335535E1],"tree_param":{"num_deleted":"0","num_feature":"8","num_nodes":"15","size_leaf_vector":"1"}},{"base_weights":[1.9444246E-2,-1.4548063E-1,8.01511E-1,-4.384617E-1,-1.196393E-2,4.484628E-1,9.3405837E-1,-1.20691195E-1,-2.7286464E-2,-2.7754335E-2,3.0296994E-2,6.252014E-2,-2.4661787E-2,9.947591E-2,1.3923175E-2],"categories":[],"categories_nodes":[],"categories_segments":[],"categories_sizes":[],"default_left":[0,0,0,0,0,0,0,0,0,0,0,0,0,0,0],"id":13,"left_children":[1,3,5,7,9,11,13,-1,-1,-1,-1,-1,-1,-1,-1],"loss_changes":[1.58632E1,3.9717953E0,5.8325005E-1,3.7172656E0,6.0115347E0,1.108589E0,5.6812954E-1,0E0,0E0,0E0,0E0,0E0,0E0,0E0,0E0],"parents":[2147483647,0,0,1,1,2,2,3,3,4,4,5,5,6,6],"right_children":[2,4,6,8,10,12,14,-1,-1,-1,-1,-1,-1,-1,-1],"split_conditions":[6.7321545E-1,5.4877615E-1,7.122253E-1,-1.1988005E-2,1.4950809E-3,6.504197E-3,3.5744898E-2,-1.20691195E-1,-2.7286464E-2,-2.7754335E-2,3.0296994E-2,6.252014E-2,-2.4661787E-2,9.947591E-2,1.3923175E-2],"split_indices":[7,7,7,3,6,3,0,0,0,0,0,0,0,0,0],"split_type":[0,0,0,0,0,0,0,0,0,0,0,0,0,0,0],"sum_hessian":[1.2108342E2,1.0066815E2,2.0415262E1,3.0799541E1,6.9868614E1,6.7690063E0,1.36462555E1,4.3456025E0,2.645394E1,3.7968784E1,3.189983E1,5.476921E0,1.2920855E0,1.2444342E1,1.2019136E0],"tree_param":{"num_deleted":"0","num_feature":"8","num_nodes":"15","size_leaf_vector":"1"}},{"base_weights":[1.8360687E-2,-1.7308696E-1,6.197924E-1,-3.3016086E-1,4.7111526E-2,-7.963795E-6,7.4577254E-1,-6.056572E-2,1.5344503E-2,1.4226625E-2,-1.3827996E-1,-4.3500174E-2,6.7851566E-2,9.493347E-2,4.624506E-2],"categories":[],"categories_nodes":[],"categories_segments":[],"categories_sizes":[],"default_left":[0,0,0,0,0,0,0,0,0,0,0,0,0,0,0],"id":14,"left_children":[1,3,5,7,9,11,13,-1,-1,-1,-1,-1,-1,-1,-1],"loss_changes":[1.4040564E1,3.2173796E0,2.2985172E0,7.3081384E0,5.5598574E0,2.0579872E0,9.719267E-1,0E0,0E0,0E0,0E0,0E0,0E0,0E0,0E0],"parents":[2147483647,0,0,1,1,2,2,3,3,4,4,5,5,6,6],"right_children":[2,4,6,8,10,12,14,-1,-1,-1,-1,-1,-1,-1,-1],"split_conditions":[6.4667207E-1,2.8390002E-3,7.614634E-3,1.3711387E-2,1.7246274E-2,7.122253E-1,6.305995E-4,-6.056572E-2,1.5344503E-2,1.4226625E-2,-1.3827996E-1,-4.3500174E-2,6.7851566E-2,9.493347E-2,4.624506E-2],"split_indices":[7,2,0,0,6,7,2,0,0,0,0,0,0,0,0],"split_type":[0,0,0,0,0,0,0,0,0,0,0,0,0,0,0],"sum_hessian":[1.20008865E2,9.1571915E1,2.8436949E1,5.3155323E1,3.841659E1,4.972593E0,2.3464357E1,3.37032E1,1.9452124E1,3.6863953E1,1.552638E0,3.2487535E0,1.7238394E0,1.2286198E1,1.1178159E1],"tree_param":{"num_deleted":"0","num_feature":"8","num_nodes":"15","size_leaf_vector":"1"}},{"base_weights":[1.7306514E-2,-1.2204565E-1,7.5863856E-1,-1.6748904E-1,6.361789E-1,3.974209E-1,9.040401E-1,-2.0248506E-2,7.5699374E-2,1.01363E-1,-7.276463E-3,6.751799E-2,-1.3179207E-2,6.5346616E-3,9.712325E-2],"categories":[],"categories_nodes":[],"categories_segments":[],"categories_sizes":[],"default_left":[0,0,0,0,0,0,0,0,0,0,0,0,0,0,0],"id":15,"left_children":[1,3,5,7,9,11,13,-1,-1,-1,-1,-1,-1,-1,-1],"loss_changes":[1.2482763E1,3.614895E0,6.447363E-1,3.2868264E0,1.6701593E0,1.157761E0,6.604204E-1,0E0,0E0,0E0,0E0,0E0,0E0,0E0,0E0],"parents":[2147483647,0,0,1,1,2,2,3,3,4,4,5,5,6,6],"right_children":[2,4,6,8,10,12,14,-1,-1,-1,-1,-1,-1,-1,-1],"split_conditions":[6.7321545E-1,2.0033639E-2,7.122253E-1,2.7832856E-2,2.6334835E-2,6.9266E-1,-2.8524294E-2,-2.0248506E-2,7.5699374E-2,1.01363E-1,-7.276463E-3,6.751799E-2,-1.3179207E-2,6.5346616E-3,9.712325E-2],"split_indices":[7,3,7,5,3,7,6,0,0,0,0,0,0,0,0],"split_type":[0,0,0,0,0,0,0,0,0,0,0,0,0,0,0],"sum_hessian":[1.18936386E2,1.0082007E2,1.811632E1,9.585425E1,4.965819E0,6.2709093E0,1.1845409E1,9.311055E1,2.7436974E0,2.960065E0,2.0057538E0,3.9315863E0,2.339323E0,1.0249199E0,1.082049E1],"tree_param":{"num_deleted":"0","num_feature":"8","num_nodes":"15","size_leaf_vector":"1"}},{"base_weights":[1.882778E-2,-1.0279867E-1,7.678469E-1,-3.6519286E-1,1.4466232E-2,9.0446934E-2,8.569628E-1,-1.08391345E-1,-2.1093493E-2,5.336235E-2,-1.077458E-2,-4.1553453E-2,5.6098223E-2,9.13312E-2,6.340779E-3],"categories":[],"categories_nodes":[],"categories_segments":[],"categories_sizes":[],"default_left":[0,0,0,0,0,0,0,0,0,0,0,0,0,0,0],"id":16,"left_children":[1,3,5,7,9,11,13,-1,-1,-1,-1,-1,-1,-1,-1],"loss_changes":[1.0939947E1,3.1883192E0,9.3501186E-1,3.3180184E0,4.65473E0,9.6354663E-1,5.996294E-1,0E0,0E0,0E0,0E0,0E0,0E0,0E0,0E0],"parents":[2147483647,0,0,1,1,2,2,3,3,4,4,5,5,6,6],"right_children":[2,4,6,8,10,12,14,-1,-1,-1,-1,-1,-1,-1,-1],"split_conditions":[6.7933834E-1,5.4877615E-1,7.2664204E-3,-1.1988005E-2,-6.838998E-3,1.3295573E-3,3.5744898E-2,-1.08391345E-1,-2.1093493E-2,5.336235E-2,-1.077458E-2,-4.1553453E-2,5.6098223E-2,9.13312E-2,6.340779E-3],"split_indices":[7,7,0,3,2,2,0,0,0,0,0,0,0,0,0],"split_type":[0,0,0,0,0,0,0,0,0,0,0,0,0,0,0],"sum_hessian":[1.18220085E2,1.0244734E2,1.5772743E1,3.0989775E1,7.1457565E1,2.0680132E0,1.370473E1,4.4110622E0,2.6578712E1,1.2974682E1,5.8482887E1,1.0527971E0,1.0152162E0,1.2655191E1,1.049538E0],"tree_param":{"num_deleted":"0","num_feature":"8","num_nodes":"15","size_leaf_vector":"1"}},{"base_weights":[1.781552E-2,-9.322137E-2,7.4476224E-1,-1.3406098E-1,6.078616E-1,8.701735E-3,8.372207E-1,-1.6617404E-2,7.340593E-2,9.780286E-2,-7.2838054E-3,8.964476E-2,6.033748E-3],"categories":[],"categories_nodes":[],"categories_segments":[],"categories_sizes":[],"default_left":[0,0,0,0,0,0,0,0,0,0,0,0,0],"id":17,"left_children":[1,3,5,7,9,-1,11,-1,-1,-1,-1,-1,-1],"loss_changes":[9.612942E0,3.0436168E0,8.86652E-1,2.8701882E0,1.5516918E0,0E0,5.7707024E-1,0E0,0E0,0E0,0E0,0E0,0E0],"parents":[2147483647,0,0,1,1,2,2,3,3,4,4,6,6],"right_children":[2,4,6,8,10,-1,12,-1,-1,-1,-1,-1,-1],"split_conditions":[6.7933834E-1,2.0033639E-2,7.2664204E-3,2.7832856E-2,2.6334835E-2,8.701735E-3,3.5744898E-2,-1.6617404E-2,7.340593E-2,9.780286E-2,-7.2838054E-3,8.964476E-2,6.033748E-3],"split_indices":[7,3,0,5,3,0,0,0,0,0,0,0,0],"split_type":[0,0,0,0,0,0,0,0,0,0,0,0,0],"sum_hessian":[1.1723293E2,1.0245525E2,1.4777681E1,9.7579796E1,4.875457E0,2.0605054E0,1.2717176E1,9.487868E1,2.701121E0,2.8751435E0,2.000313E0,1.1673339E1,1.0438372E0],"tree_param":{"num_deleted":"0","num_feature":"8","num_nodes":"13","size_leaf_vector":"1"}},{"base_weights":[1.874103E-2,-1.7709856E-1,3.9143842E-1,-3.3148462E-1,4.960331E-2,8.3260804E-1,6.7594364E-2,-7.2866725E-3,-8.2614675E-2,-3.1560343E-2,4.6758454E-2,3.8565297E-2,1.0335338E-1,-4.381024E-2,4.6465676E-2],"categories":[],"categories_nodes":[],"categories_segments":[],"categories_sizes":[],"default_left":[0,0,0,0,0,0,0,0,0,0,0,0,0,0,0],"id":18,"left_children":[1,3,5,7,9,11,13,-1,-1,-1,-1,-1,-1,-1,-1],"loss_changes":[8.6508665E0,2.7380893E0,5.7744036E0,5.8743258E0,5.089266E0,1.1449518E0,5.147771E0,0E0,0E0,0E0,0E0,0E0,0E0,0E0,0E0],"parents":[2147483647,0,0,1,1,2,2,3,3,4,4,5,5,6,6],"right_children":[2,4,6,8,10,12,14,-1,-1,-1,-1,-1,-1,-1,-1],"split_conditions":[6.152985E-1,2.8390002E-3,5.9246674E1,-1.6725454E-3,-3.5435933E-5,-5.296687E-3,2.40567E-4,-7.2866725E-3,-8.2614675E-2,-3.1560343E-2,4.6758454E-2,3.8565297E-2,1.0335338E-1,-4.381024E-2,4.6465676E-2],"split_indices":[7,2,1,2,5,5,6,0,0,0,0,0,0,0,0],"split_type":[0,0,0,0,0,0,0,0,0,0,0,0,0,0,0],"sum_hessian":[1.16573265E2,7.67622E1,3.981106E1,4.5389397E1,3.1372805E1,1.61877E1,2.3623362E1,3.055961E1,1.4829787E1,1.6874138E1,1.4498668E1,5.925634E0,1.0262067E1,1.0344851E1,1.3278511E1],"tree_param":{"num_deleted":"0","num_feature":"8","num_nodes":"15","size_leaf_vector":"1"}},{"base_weights":[1.8246653E-2,-6.886638E-2,7.9676664E-1,-1.7726776E-1,1.6115566E-1,8.631317E-1,4.37649E-3,-3.30033E-2,2.5261273E-3,5.8823418E-2,-1.1729553E-2,1.32647995E-2,9.405829E-2],"categories":[],"categories_nodes":[],"categories_segments":[],"categories_sizes":[],"default_left":[0,0,0,0,0,0,0,0,0,0,0,0,0],"id":19,"left_children":[1,3,5,7,9,11,-1,-1,-1,-1,-1,-1,-1],"loss_changes":[7.972213E0,2.669501E0,5.532999E-1,2.250347E0,4.165739E0,4.8719406E-1,0E0,0E0,0E0,0E0,0E0,0E0,0E0],"parents":[2147483647,0,0,1,1,2,2,3,3,4,4,5,5],"right_children":[2,4,6,8,10,12,-1,-1,-1,-1,-1,-1,-1],"split_conditions":[6.9608873E-1,6.0442424E-1,3.5744898E-2,1.3215579E-2,5.8827213E1,7.2664204E-3,4.37649E-3,-3.30033E-2,2.5261273E-3,5.8823418E-2,-1.1729553E-2,1.32647995E-2,9.405829E-2],"split_indices":[7,7,0,0,1,0,0,0,0,0,0,0,0],"split_type":[0,0,0,0,0,0,0,0,0,0,0,0,0],"sum_hessian":[1.15741844E2,1.0491396E2,1.0827879E1,7.1464554E1,3.344941E1,9.81646E0,1.0114193E0,4.0378197E1,3.1086355E1,1.2762389E1,2.0687021E1,1.2010808E0,8.615378E0],"tree_param":{"num_deleted":"0","num_feature":"8","num_nodes":"13","size_leaf_vector":"1"}},{"base_weights":[1.812297E-2,-6.178765E-2,7.7693707E-1,-9.116061E-2,7.380887E-1,8.4619397E-1,4.164694E-3,-2.3797343E-2,8.900865E-3,1.6993111E-2,8.933117E-2,1.2623319E-2,9.279855E-2],"categories":[],"categories_nodes":[],"categories_segments":[],"categories_sizes":[],"default_left":[0,0,0,0,0,0,0,0,0,0,0,0,0],"id":20,"left_children":[1,3,5,7,9,11,-1,-1,-1,-1,-1,-1,-1],"loss_changes":[7.068099E0,2.5499237E0,5.302172E-1,2.740759E0,1.8798208E-1,4.7739935E-1,0E0,0E0,0E0,0E0,0E0,0E0,0E0],"parents":[2147483647,0,0,1,1,2,2,3,3,4,4,5,5],"right_children":[2,4,6,8,10,12,-1,-1,-1,-1,-1,-1,-1],"split_conditions":[6.9608873E-1,2.7832856E-2,3.5744898E-2,1.4950809E-3,-2.4817467E-3,7.2664204E-3,4.164694E-3,-2.3797343E-2,8.900865E-3,1.6993111E-2,8.933117E-2,1.2623319E-2,9.279855E-2],"split_indices":[7,5,0,6,2,0,0,0,0,0,0,0,0],"split_type":[0,0,0,0,0,0,0,0,0,0,0,0,0],"sum_hessian":[1.14771866E2,1.0466788E2,1.0103987E1,1.0181507E2,2.8528087E0,9.096371E0,1.0076162E0,5.592399E1,4.589108E1,1.061648E0,1.7911608E0,1.187438E0,7.908933E0],"tree_param":{"num_deleted":"0","num_feature":"8","num_nodes":"13","size_leaf_vector":"1"}},{"base_weights":[1.8460127E-2,-4.941162E-2,8.19822E-1,-8.666084E-2,6.0460377E-1,9.1211915E-2,3.9631915E-3,2.0423797E-3,-4.207762E-2,9.519288E-2,-4.8918406E-5],"categories":[],"categories_nodes":[],"categories_segments":[],"categories_sizes":[],"default_left":[0,0,0,0,0,0,0,0,0,0,0],"id":21,"left_children":[1,3,5,7,9,-1,-1,-1,-1,-1,-1],"loss_changes":[6.3129086E0,2.665453E0,6.1636496E-1,3.6707602E0,1.2415292E0,0E0,0E0,0E0,0E0,0E0,0E0],"parents":[2147483647,0,0,1,1,2,2,3,3,4,4],"right_children":[2,4,6,8,10,-1,-1,-1,-1,-1,-1],"split_conditions":[7.122253E-1,2.0033639E-2,3.5744898E-2,6.9339513E-3,2.6334835E-2,9.1211915E-2,3.9631915E-3,2.0423797E-3,-4.207762E-2,9.519288E-2,-4.8918406E-5],"split_indices":[7,3,0,3,3,0,0,0,0,0,0],"split_type":[0,0,0,0,0,0,0,0,0,0,0],"sum_hessian":[1.1432302E2,1.0626149E2,8.06153E0,1.0135627E2,4.9052167E0,7.057521E0,1.004009E0,7.746686E1,2.3889412E1,2.752233E0,2.152984E0],"tree_param":{"num_deleted":"0","num_feature":"8","num_nodes":"11","size_leaf_vector":"1"}},{"base_weights":[1.8337574E-2,-4.378275E-2,8.02054E-1,-2.7569315E-1,5.4436266E-2,8.9916565E-2,3.7714161E-3,3.476666E-2,-4.3476265E-2,4.8280787E-2,-7.029941E-3],"categories":[],"categories_nodes":[],"categories_segments":[],"categories_sizes":[],"default_left":[0,0,0,0,0,0,0,0,0,0,0],"id":22,"left_children":[1,3,5,7,9,-1,-1,-1,-1,-1,-1],"loss_changes":[5.627181E0,2.4608035E0,5.9608984E-1,3.3351824E0,4.108996E0,0E0,0E0,0E0,0E0,0E0,0E0],"parents":[2147483647,0,0,1,1,2,2,3,3,4,4],"right_children":[2,4,6,8,10,-1,-1,-1,-1,-1,-1],"split_conditions":[7.122253E-1,5.4877615E-1,3.5744898E-2,-1.0710595E-2,-5.542485E-3,8.9916565E-2,3.7714161E-3,3.476666E-2,-4.3476265E-2,4.8280787E-2,-7.029941E-3],"split_indices":[7,7,0,6,3,0,0,0,0,0,0],"split_type":[0,0,0,0,0,0,0,0,0,0,0],"sum_hessian":[1.13862854E2,1.0637528E2,7.487572E0,3.1110834E1,7.526445E1,6.4869866E0,1.0005859E0,6.083856E0,2.5026978E1,1.632611E1,5.893834E1],"tree_param":{"num_deleted":"0","num_feature":"8","num_nodes":"11","size_leaf_vector":"1"}},{"base_weights":[1.8024595E-2,-1.1520299E-1,3.4910133E-1,-3.162331E-1,4.2694334E-2,9.9181466E-2,4.8668385E-2,2.837762E-2,-5.373757E-2,-1.5757442E-2,5.0083514E-2,-3.62624E-2,4.675926E-2],"categories":[],"categories_nodes":[],"categories_segments":[],"categories_sizes":[],"default_left":[0,0,0,0,0,0,0,0,0,0,0,0,0],"id":23,"left_children":[1,3,5,7,9,-1,11,-1,-1,-1,-1,-1,-1],"loss_changes":[5.074059E0,2.6204512E0,6.322783E0,4.962249E0,4.380252E0,0E0,4.2248507E0,0E0,0E0,0E0,0E0,0E0,0E0],"parents":[2147483647,0,0,1,1,2,2,3,3,4,4,6,6],"right_children":[2,4,6,8,10,-1,12,-1,-1,-1,-1,-1,-1],"split_conditions":[6.233445E-1,-2.8722946E-4,5.2564392E1,1.0036608E-2,6.2064687E-3,9.9181466E-2,2.40567E-4,2.837762E-2,-5.373757E-2,-1.5757442E-2,5.0083514E-2,-3.62624E-2,4.675926E-2],"split_indices":[7,5,1,0,6,0,6,0,0,0,0,0,0],"split_type":[0,0,0,0,0,0,0,0,0,0,0,0,0],"sum_hessian":[1.13123924E2,8.112906E1,3.1994864E1,3.5248703E1,4.588036E1,9.458692E0,2.2536173E1,9.416474E0,2.5832226E1,3.2381413E1,1.3498948E1,1.1439483E1,1.1096689E1],"tree_param":{"num_deleted":"0","num_feature":"8","num_nodes":"13","size_leaf_vector":"1"}},{"base_weights":[1.7923458E-2,-3.625434E-2,7.727236E-1,-7.116278E-2,5.888204E-1,8.790366E-2,3.7503098E-3,2.0159383E-3,-3.5775054E-2,9.2261985E-2,2.7046397E-3],"categories":[],"categories_nodes":[],"categories_segments":[],"categories_sizes":[],"default_left":[0,0,0,0,0,0,0,0,0,0,0],"id":24,"left_children":[1,3,5,7,9,-1,-1,-1,-1,-1,-1],"loss_changes":[4.6729236E0,2.3752437E0,5.6511927E-1,2.6811903E0,1.055888E0,0E0,0E0,0E0,0E0,0E0,0E0],"parents":[2147483647,0,0,1,1,2,2,3,3,4,4],"right_children":[2,4,6,8,10,-1,-1,-1,-1,-1,-1],"split_conditions":[7.122253E-1,2.0033639E-2,2.2248717E-2,6.991108E-3,2.6334835E-2,8.790366E-2,3.7503098E-3,2.0159383E-3,-3.5775054E-2,9.2261985E-2,2.7046397E-3],"split_indices":[7,3,2,3,3,0,0,0,0,0,0],"split_type":[0,0,0,0,0,0,0,0,0,0,0],"sum_hessian":[1.1258576E2,1.0593404E2,6.6517296E0,1.0117016E2,4.763879E0,5.6405025E0,1.0112268E0,7.742733E1,2.3742825E1,2.5853577E0,2.178521E0],"tree_param":{"num_deleted":"0","num_feature":"8","num_nodes":"11","size_leaf_vector":"1"}},{"base_weights":[1.7808896E-2,-7.2863676E-2,4.215275E-1,-1.3842852E-1,3.1759456E-1,8.893365E-2,1.9900568E-1,-1.061097E-1,-9.353614E-3,6.509248E-2,-2.2848483E-2,-2.13657E-2,7.301197E-2],"categories":[],"categories_nodes":[],"categories_segments":[],"categories_sizes":[],"default_left":[0,0,0,0,0,0,0,0,0,0,0,0,0],"id":25,"left_children":[1,3,5,7,9,-1,11,-1,-1,-1,-1,-1,-1],"loss_changes":[4.1742063E0,2.4320686E0,1.9993758E0,3.2379637E0,2.6452875E0,0E0,3.5435057E0,0E0,0E0,0E0,0E0,0E0,0E0],"parents":[2147483647,0,0,1,1,2,2,3,3,4,4,6,6],"right_children":[2,4,6,8,10,-1,12,-1,-1,-1,-1,-1,-1],"split_conditions":[6.4667207E-1,1.7994555E-2,5.2564392E1,-1.7390804E-2,5.5179745E1,8.893365E-2,7.2287445E1,-1.061097E-1,-9.353614E-3,6.509248E-2,-2.2848483E-2,-2.13657E-2,7.301197E-2],"split_indices":[7,0,1,5,1,0,1,0,0,0,0,0,0],"split_type":[0,0,0,0,0,0,0,0,0,0,0,0,0],"sum_hessian":[1.1219099E2,9.2284096E1,1.9906889E1,7.9568596E1,1.2715504E1,5.450869E0,1.445602E1,2.6415076E0,7.6927086E1,7.7766137E0,4.93889E0,8.471551E0,5.9844694E0],"tree_param":{"num_deleted":"0","num_feature":"8","num_nodes":"13","size_leaf_vector":"1"}},{"base_weights":[1.7104222E-2,-3.011524E-2,7.421519E-1,-5.247689E-1,9.586146E-3,4.1919486E-3,8.55219E-2,-1.0891972E-1,3.4765627E-2,3.3849582E-2,-7.962949E-3],"categories":[],"categories_nodes":[],"categories_segments":[],"categories_sizes":[],"default_left":[0,0,0,0,0,0,0,0,0,0,0],"id":26,"left_children":[1,3,5,7,9,-1,-1,-1,-1,-1,-1],"loss_changes":[3.8788872E0,2.100804E0,5.125451E-1,4.2918625E0,2.954626E0,0E0,0E0,0E0,0E0,0E0,0E0],"parents":[2147483647,0,0,1,1,2,2,3,3,4,4],"right_children":[2,4,6,8,10,-1,-1,-1,-1,-1,-1],"split_conditions":[7.122253E-1,7.92324E-3,-1.6269088E-2,2.6247646E-3,9.864353E-3,4.1919486E-3,8.55219E-2,-1.0891972E-1,3.4765627E-2,3.3849582E-2,-7.962949E-3],"split_indices":[7,0,6,2,0,0,0,0,0,0,0],"split_type":[0,0,0,0,0,0,0,0,0,0,0],"sum_hessian":[1.1164448E2,1.0571796E2,5.9265237E0,6.946845E0,9.877111E1,1.0144869E0,4.912037E0,4.067103E0,2.8797424E0,2.0478662E1,7.829245E1],"tree_param":{"num_deleted":"0","num_feature":"8","num_nodes":"11","size_leaf_vector":"1"}},{"base_weights":[1.6039323E-2,-1.1527588E-1,2.511416E-1,-2.590696E-1,7.322314E-2,6.3094664E-1,9.942798E-3,-8.4385306E-2,-6.201381E-3,7.070548E-2,-1.904464E-2,-3.6392666E-2,7.268442E-2,-2.1553209E-2,7.298189E-2],"categories":[],"categories_nodes":[],"categories_segments":[],"categories_sizes":[],"default_left":[0,0,0,0,0,0,0,0,0,0,0,0,0,0,0],"id":27,"left_children":[1,3,5,7,9,11,13,-1,-1,-1,-1,-1,-1,-1,-1],"loss_changes":[3.5005593E0,1.9931862E0,3.714308E0,4.7342825E0,5.53238E0,1.7679725E0,4.3539968E0,0E0,0E0,0E0,0E0,0E0,0E0,0E0,0E0],"parents":[2147483647,0,0,1,1,2,2,3,3,4,4,5,5,6,6],"right_children":[2,4,6,8,10,12,14,-1,-1,-1,-1,-1,-1,-1,-1],"split_conditions":[6.0442424E-1,1.3215579E-2,5.8827213E1,4.5866287E1,-6.838998E-3,-2.8815556E-2,9.260312E-3,-8.4385306E-2,-6.201381E-3,7.070548E-2,-1.904464E-2,-3.6392666E-2,7.268442E-2,-2.1553209E-2,7.298189E-2],"split_indices":[7,0,1,1,2,5,5,0,0,0,0,0,0,0,0],"split_type":[0,0,0,0,0,0,0,0,0,0,0,0,0,0,0],"sum_hessian":[1.1144986E2,7.183594E1,3.9613926E1,4.053785E1,3.1298088E1,1.4758497E1,2.4855429E1,9.389936E0,3.1147913E1,8.700788E0,2.25973E1,1.0518016E0,1.3706696E1,1.946068E1,5.394749E0],"tree_param":{"num_deleted":"0","num_feature":"8","num_nodes":"15","size_leaf_vector":"1"}},{"base_weights":[1.542696E-2,-2.6475705E-2,7.1360475E-1,-9.4111785E-2,2.6400483E-1,3.626432E-3,8.343259E-2,1.1333621E-2,-2.8315976E-2,4.0577266E-2,-1.2051783E-1],"categories":[],"categories_nodes":[],"categories_segments":[],"categories_sizes":[],"default_left":[0,0,0,0,0,0,0,0,0,0,0],"id":28,"left_children":[1,3,5,7,9,-1,-1,-1,-1,-1,-1],"loss_changes":[3.2850437E0,2.113031E0,4.895389E-1,3.44202E0,4.724773E0,0E0,0E0,0E0,0E0,0E0,0E0],"parents":[2147483647,0,0,1,1,2,2,3,3,4,4],"right_children":[2,4,6,8,10,-1,-1,-1,-1,-1,-1],"split_conditions":[7.122253E-1,1.052797E-2,-1.5659906E-2,5.4389366E1,1.7246274E-2,3.626432E-3,8.343259E-2,1.1333621E-2,-2.8315976E-2,4.0577266E-2,-1.2051783E-1],"split_indices":[7,2,6,1,6,0,0,0,0,0,0],"split_type":[0,0,0,0,0,0,0,0,0,0,0],"sum_hessian":[1.1064223E2,1.0528537E2,5.3568525E0,8.5948875E1,1.9336498E1,1.0070287E0,4.349824E0,4.1171093E1,4.4777782E1,1.829495E1,1.0415479E0],"tree_param":{"num_deleted":"0","num_feature":"8","num_nodes":"11","size_leaf_vector":"1"}},{"base_weights":[1.4092392E-2,-6.1500605E-2,3.747122E-1,-1.9181946E-1,1.19310714E-1,7.675993E-1,1.3960859E-1,-4.0270127E-2,1.8629229E-2,2.0413183E-2,-1.1396183E-1,8.8070236E-2,4.3516518E-3,-4.9724486E-2,5.780607E-2],"categories":[],"categories_nodes":[],"categories_segments":[],"categories_sizes":[],"default_left":[0,0,0,0,0,0,0,0,0,0,0,0,0,0,0],"id":29,"left_children":[1,3,5,7,9,11,13,-1,-1,-1,-1,-1,-1,-1,-1],"loss_changes":[3.0575805E0,2.2115555E0,1.6877098E0,4.4097733E0,4.452956E0,5.3923416E-1,4.023299E0,0E0,0E0,0E0,0E0,0E0,0E0,0E0,0E0],"parents":[2147483647,0,0,1,1,2,2,3,3,4,4,5,5,6,6],"right_children":[2,4,6,8,10,12,14,-1,-1,-1,-1,-1,-1,-1,-1],"split_conditions":[6.4667207E-1,2.8390002E-3,6.0566082E1,1.3711387E-2,1.7246274E-2,8.812222E-3,6.9574486E1,-4.0270127E-2,1.8629229E-2,2.0413183E-2,-1.1396183E-1,8.8070236E-2,4.3516518E-3,-4.9724486E-2,5.780607E-2],"split_indices":[7,2,1,0,6,2,1,0,0,0,0,0,0,0,0],"split_type":[0,0,0,0,0,0,0,0,0,0,0,0,0,0,0],"sum_hessian":[1.1031689E2,9.188537E1,1.843152E1,5.3363216E1,3.8522152E1,6.052353E0,1.23791685E1,3.4215435E1,1.9147781E1,3.6875496E1,1.6466562E0,5.047607E0,1.004746E0,4.9928875E0,7.3862805E0],"tree_param":{"num_deleted":"0","num_feature":"8","num_nodes":"15","size_leaf_vector":"1"}},{"base_weights":[1.2974794E-2,-9.048378E-2,2.5133178E-1,-1.9476484E-1,1.5657124E-1,6.867165E-1,1.29587E-2,-4.136562E-2,1.0478195E-2,9.175098E-2,-3.4030892E-2,1.0758157E-2,9.7103864E-2,-3.9023086E-2,3.754663E-2],"categories":[],"categories_nodes":[],"categories_segments":[],"categories_sizes":[],"default_left":[0,0,0,0,0,0,0,0,0,0,0,0,0,0,0],"id":30,"left_children":[1,3,5,7,9,11,13,-1,-1,-1,-1,-1,-1,-1,-1],"loss_changes":[2.7521024E0,2.037829E0,3.49531E0,3.6649647E0,9.265721E0,1.8593631E0,3.4844952E0,0E0,0E0,0E0,0E0,0E0,0E0,0E0,0E0],"parents":[2147483647,0,0,1,1,2,2,3,3,4,4,5,5,6,6],"right_children":[2,4,6,8,10,12,14,-1,-1,-1,-1,-1,-1,-1,-1],"split_conditions":[6.152985E-1,6.0535227E-3,5.9246674E1,2.5549778E-3,9.582875E-3,-5.296687E-3,2.40567E-4,-4.136562E-2,1.0478195E-2,9.175098E-2,-3.4030892E-2,1.0758157E-2,9.7103864E-2,-3.9023086E-2,3.754663E-2],"split_indices":[7,6,1,4,6,5,6,0,0,0,0,0,0,0,0],"split_type":[0,0,0,0,0,0,0,0,0,0,0,0,0,0,0],"sum_hessian":[1.0967935E2,7.691491E1,3.2764442E1,5.423441E1,2.2680498E1,1.0926504E1,2.1837938E1,3.111583E1,2.311858E1,8.625137E0,1.4055361E1,4.051795E0,6.874709E0,1.0302631E1,1.1535308E1],"tree_param":{"num_deleted":"0","num_feature":"8","num_nodes":"15","size_leaf_vector":"1"}},{"base_weights":[1.3420915E-2,-2.5124567E-2,6.342972E-1,6.4083256E-2,-3.0415723E-1,-1.0664335E-2,8.0830276E-1,-2.8952058E-5,7.5354576E-2,3.4289684E-2,-5.186019E-2,9.399334E-2,1.5636569E-2],"categories":[],"categories_nodes":[],"categories_segments":[],"categories_sizes":[],"default_left":[0,0,0,0,0,0,0,0,0,0,0,0,0],"id":31,"left_children":[1,3,5,7,9,-1,11,-1,-1,-1,-1,-1,-1],"loss_changes":[2.6509268E0,2.6239133E0,9.2088175E-1,3.5556383E0,3.719041E0,0E0,3.1293774E-1,0E0,0E0,0E0,0E0,0E0,0E0],"parents":[2147483647,0,0,1,1,2,2,3,3,4,4,6,6],"right_children":[2,4,6,8,10,-1,12,-1,-1,-1,-1,-1,-1],"split_conditions":[2.0033639E-2,6.991108E-3,5.5436623E-1,6.7933834E-1,-5.3278767E-3,-1.0664335E-2,7.360614E1,-2.8952058E-5,7.5354576E-2,3.4289684E-2,-5.186019E-2,9.399334E-2,1.5636569E-2],"split_indices":[3,3,7,7,2,0,1,0,0,0,0,0,0],"split_type":[0,0,0,0,0,0,0,0,0,0,0,0,0],"sum_hessian":[1.0910334E2,1.0362932E2,5.474022E0,7.910839E1,2.4520924E1,1.1146806E0,4.359341E0,7.326726E1,5.8411355E0,5.954657E0,1.8566267E1,3.2594757E0,1.0998656E0],"tree_param":{"num_deleted":"0","num_feature":"8","num_nodes":"13","size_leaf_vector":"1"}},{"base_weights":[1.3842245E-2,-1.9878374E-2,6.596621E-1,-4.4966653E-2,6.9832927E-1,7.9390496E-2,3.2008786E-3,5.2089285E-2,-8.411729E-3,1.6722389E-2,8.50493E-2],"categories":[],"categories_nodes":[],"categories_segments":[],"categories_sizes":[],"default_left":[0,0,0,0,0,0,0,0,0,0,0],"id":32,"left_children":[1,3,5,7,9,-1,-1,-1,-1,-1,-1],"loss_changes":[2.4019353E0,1.927318E0,4.3568873E-1,2.3169703E0,1.4967775E-1,0E0,0E0,0E0,0E0,0E0,0E0],"parents":[2147483647,0,0,1,1,2,2,3,3,4,4],"right_children":[2,4,6,8,10,-1,-1,-1,-1,-1,-1],"split_conditions":[7.122253E-1,2.7832856E-2,1.9640451E-2,-1.7146356E-2,-1.0263617E-3,7.9390496E-2,3.2008786E-3,5.2089285E-2,-8.411729E-3,1.6722389E-2,8.50493E-2],"split_indices":[7,5,2,4,2,0,0,0,0,0,0],"split_type":[0,0,0,0,0,0,0,0,0,0,0],"sum_hessian":[1.08692505E2,1.0422002E2,4.4724884E0,1.01608055E2,2.611961E0,3.4662476E0,1.0062408E0,5.7788744E0,9.582918E1,1.0491233E0,1.5628376E0],"tree_param":{"num_deleted":"0","num_feature":"8","num_nodes":"11","size_leaf_vector":"1"}},{"base_weights":[1.4724283E-2,-2.0778943E-2,6.059011E-1,6.0582608E-2,-2.7244374E-1,-9.629959E-3,7.785727E-1,-8.208331E-4,7.000057E-2,6.866367E-2,-3.870033E-2,9.114935E-2,1.4433284E-2],"categories":[],"categories_nodes":[],"categories_segments":[],"categories_sizes":[],"default_left":[0,0,0,0,0,0,0,0,0,0,0,0,0],"id":33,"left_children":[1,3,5,7,9,-1,11,-1,-1,-1,-1,-1,-1],"loss_changes":[2.3101025E0,2.150696E0,8.30925E-1,3.5063453E0,3.08353E0,0E0,2.9958606E-1,0E0,0E0,0E0,0E0,0E0,0E0],"parents":[2147483647,0,0,1,1,2,2,3,3,4,4,6,6],"right_children":[2,4,6,8,10,-1,12,-1,-1,-1,-1,-1,-1],"split_conditions":[2.0033639E-2,6.991108E-3,5.5436623E-1,5.418119E-3,-1.7146356E-2,-9.629959E-3,7.360614E1,-8.208331E-4,7.000057E-2,6.866367E-2,-3.870033E-2,9.114935E-2,1.4433284E-2],"split_indices":[3,3,7,3,4,0,1,0,0,0,0,0,0],"split_type":[0,0,0,0,0,0,0,0,0,0,0,0,0],"sum_hessian":[1.0846434E2,1.0322971E2,5.234627E0,7.858347E1,2.464624E1,1.1204414E0,4.1141853E0,7.18417E1,6.7417703E0,2.096965E0,2.2549276E1,3.0399454E0,1.0742397E0],"tree_param":{"num_deleted":"0","num_feature":"8","num_nodes":"13","size_leaf_vector":"1"}},{"base_weights":[1.5246662E-2,-1.0911427E-1,1.6996437E-1,-2.8863605E-2,-7.1310425E-1,2.3608083E-2,6.913783E-1,-1.3888319E-2,4.2806752E-2,-1.3878992E-1,-1.50717795E-2,-7.965239E-3,7.565023E-2,1.048844E-1,1.8263102E-2],"categories":[],"categories_nodes":[],"categories_segments":[],"categories_sizes":[],"default_left":[0,0,0,0,0,0,0,0,0,0,0,0,0,0,0],"id":34,"left_children":[1,3,5,7,9,11,13,-1,-1,-1,-1,-1,-1,-1,-1],"loss_changes":[2.121315E0,2.945636E0,3.7298853E0,2.8274472E0,2.4985852E0,3.039485E0,1.7586942E0,0E0,0E0,0E0,0E0,0E0,0E0,0E0,0E0],"parents":[2147483647,0,0,1,1,2,2,3,3,4,4,5,5,6,6],"right_children":[2,4,6,8,10,12,14,-1,-1,-1,-1,-1,-1,-1,-1],"split_conditions":[5.901271E-1,5.7873935E-1,9.260312E-3,5.674943E-1,-4.6154708E-3,1.1531659E-2,1.7804688E-2,-1.3888319E-2,4.2806752E-2,-1.3878992E-1,-1.50717795E-2,-7.965239E-3,7.565023E-2,1.048844E-1,1.8263102E-2],"split_indices":[7,7,5,7,6,6,5,0,0,0,0,0,0,0,0],"split_type":[0,0,0,0,0,0,0,0,0,0,0,0,0,0,0],"sum_hessian":[1.082868E2,6.019625E1,4.809054E1,5.4061077E1,6.135174E0,3.8366642E1,9.7239E0,4.413124E1,9.929839E0,2.121618E0,4.013556E0,3.440982E1,3.9568226E0,5.0875607E0,4.636339E0],"tree_param":{"num_deleted":"0","num_feature":"8","num_nodes":"15","size_leaf_vector":"1"}},{"base_weights":[1.4681469E-2,-1.5598086E-2,6.3211E-1,-3.9010275E-2,6.690402E-1,7.713028E-2,3.7356757E-3,4.6735305E-2,-7.3037567E-3,1.5890362E-2,8.173787E-2],"categories":[],"categories_nodes":[],"categories_segments":[],"categories_sizes":[],"default_left":[0,0,0,0,0,0,0,0,0,0,0],"id":35,"left_children":[1,3,5,7,9,-1,-1,-1,-1,-1,-1],"loss_changes":[2.0445046E0,1.7046305E0,3.943684E-1,1.7950827E0,1.3631058E-1,0E0,0E0,0E0,0E0,0E0,0E0],"parents":[2147483647,0,0,1,1,2,2,3,3,4,4],"right_children":[2,4,6,8,10,-1,-1,-1,-1,-1,-1],"split_conditions":[7.122253E-1,2.7832856E-2,1.8138705E-2,-1.7146356E-2,-1.0263617E-3,7.713028E-2,3.7356757E-3,4.6735305E-2,-7.3037567E-3,1.5890362E-2,8.173787E-2],"split_indices":[7,5,2,4,2,0,0,0,0,0,0],"split_type":[0,0,0,0,0,0,0,0,0,0,0],"sum_hessian":[1.07830956E2,1.0371916E2,4.111795E0,1.01201454E2,2.5177083E0,3.091445E0,1.0203502E0,5.570573E0,9.563088E1,1.0337752E0,1.4839332E0],"tree_param":{"num_deleted":"0","num_feature":"8","num_nodes":"11","size_leaf_vector":"1"}},{"base_weights":[1.5380011E-2,-1.7018737E-2,5.7588917E-1,5.7747334E-2,-2.4057291E-1,8.8485755E-2,1.0101904E-1,-6.9227733E-4,7.138195E-2,2.151539E-2,-5.2664865E-2,6.712199E-2,-4.723968E-2],"categories":[],"categories_nodes":[],"categories_segments":[],"categories_sizes":[],"default_left":[0,0,0,0,0,0,0,0,0,0,0,0,0],"id":36,"left_children":[1,3,5,7,9,-1,11,-1,-1,-1,-1,-1,-1],"loss_changes":[1.9822124E0,1.7463326E0,7.8562E-1,3.3346937E0,3.52526E0,0E0,1.4547955E0,0E0,0E0,0E0,0E0,0E0,0E0],"parents":[2147483647,0,0,1,1,2,2,3,3,4,4,6,6],"right_children":[2,4,6,8,10,-1,12,-1,-1,-1,-1,-1,-1],"split_conditions":[2.0033639E-2,6.9339513E-3,2.7832856E-2,5.418119E-3,-1.6725454E-3,8.8485755E-2,-2.4817467E-3,-6.9227733E-4,7.138195E-2,2.151539E-2,-5.2664865E-2,6.712199E-2,-4.723968E-2],"split_indices":[3,3,3,3,2,0,6,0,0,0,0,0,0],"split_type":[0,0,0,0,0,0,0,0,0,0,0,0,0],"sum_hessian":[1.0761418E2,1.0265038E2,4.9637966E0,7.747958E1,2.5170801E1,2.4841487E0,2.4796479E0,7.142824E1,6.05135E0,9.802712E0,1.5368088E1,1.1577877E0,1.3218602E0],"tree_param":{"num_deleted":"0","num_feature":"8","num_nodes":"13","size_leaf_vector":"1"}},{"base_weights":[1.5414081E-2,-1.2565881E-2,6.121978E-1,-2.6522675E-1,4.7932733E-2,7.566551E-2,2.688021E-3,2.1684791E-3,-1.0881811E-1,9.1412775E-2,6.101892E-4],"categories":[],"categories_nodes":[],"categories_segments":[],"categories_sizes":[],"default_left":[0,0,0,0,0,0,0,0,0,0,0],"id":37,"left_children":[1,3,5,7,9,-1,-1,-1,-1,-1,-1],"loss_changes":[1.8181416E0,1.6107852E0,3.919289E-1,4.828619E0,3.0814219E0,0E0,0E0,0E0,0E0,0E0,0E0],"parents":[2147483647,0,0,1,1,2,2,3,3,4,4],"right_children":[2,4,6,8,10,-1,-1,-1,-1,-1,-1],"split_conditions":[7.122253E-1,-8.22571E-3,3.1073848E-2,5.7466328E1,-6.7620818E-3,7.566551E-2,2.688021E-3,2.1684791E-3,-1.0881811E-1,9.1412775E-2,6.101892E-4],"split_indices":[7,4,0,1,4,0,0,0,0,0,0],"split_type":[0,0,0,0,0,0,0,0,0,0,0],"sum_hessian":[1.0742317E2,1.0354734E2,3.875831E0,1.9350342E1,8.4197E1,2.8738375E0,1.0019932E0,1.5070034E1,4.2803073E0,2.9181268E0,8.127888E1],"tree_param":{"num_deleted":"0","num_feature":"8","num_nodes":"11","size_leaf_vector":"1"}},{"base_weights":[1.4658201E-2,-1.5167687E-2,5.467839E-1,-9.7168505E-2,1.8266357E-1,8.5584074E-2,8.789942E-2,-4.9443055E-2,5.4531655E-4,-4.8405495E-2,4.11262E-2,6.422829E-2,-4.45382E-2],"categories":[],"categories_nodes":[],"categories_segments":[],"categories_sizes":[],"default_left":[0,0,0,0,0,0,0,0,0,0,0,0,0],"id":38,"left_children":[1,3,5,7,9,-1,11,-1,-1,-1,-1,-1,-1],"loss_changes":[1.7257512E0,1.6958239E0,7.4314415E-1,3.0106494E0,4.871918E0,0E0,1.3021153E0,0E0,0E0,0E0,0E0,0E0,0E0],"parents":[2147483647,0,0,1,1,2,2,3,3,4,4,6,6],"right_children":[2,4,6,8,10,-1,12,-1,-1,-1,-1,-1,-1],"split_conditions":[2.0033639E-2,6.2064687E-3,2.7832856E-2,-8.22571E-3,-5.831742E-3,8.5584074E-2,-2.4817467E-3,-4.9443055E-2,5.4531655E-4,-4.8405495E-2,4.11262E-2,6.422829E-2,-4.45382E-2],"split_indices":[3,6,3,4,5,0,6,0,0,0,0,0,0],"split_type":[0,0,0,0,0,0,0,0,0,0,0,0,0],"sum_hessian":[1.07212746E2,1.0244231E2,4.7704415E0,7.278277E1,2.9659538E1,2.333675E0,2.4367669E0,1.4157854E1,5.8624912E1,7.287549E0,2.2371988E1,1.0945292E0,1.3422377E0],"tree_param":{"num_deleted":"0","num_feature":"8","num_nodes":"13","size_leaf_vector":"1"}},{"base_weights":[1.38669005E-2,-9.775304E-2,1.5461521E-1,-2.3006517E-2,-6.5399015E-1,2.3106897E-2,6.46289E-1,-1.2496251E-2,4.0624913E-2,-1.2553735E-1,-1.4253094E-2,3.531004E-2,-2.0320406E-2,1.0159439E-1,1.4210722E-2],"categories":[],"categories_nodes":[],"categories_segments":[],"categories_sizes":[],"default_left":[0,0,0,0,0,0,0,0,0,0,0,0,0,0,0],"id":39,"left_children":[1,3,5,7,9,11,13,-1,-1,-1,-1,-1,-1,-1,-1],"loss_changes":[1.7132325E0,2.5167804E0,3.1012635E0,2.4455085E0,2.0286565E0,2.9888706E0,1.744185E0,0E0,0E0,0E0,0E0,0E0,0E0,0E0,0E0],"parents":[2147483647,0,0,1,1,2,2,3,3,4,4,5,5,6,6],"right_children":[2,4,6,8,10,12,14,-1,-1,-1,-1,-1,-1,-1,-1],"split_conditions":[5.901271E-1,5.7873935E-1,9.260312E-3,5.674943E-1,-4.6154708E-3,5.7167892E1,1.7804688E-2,-1.2496251E-2,4.0624913E-2,-1.2553735E-1,-1.4253094E-2,3.531004E-2,-2.0320406E-2,1.0159439E-1,1.4210722E-2],"split_indices":[7,7,5,7,6,1,5,0,0,0,0,0,0,0,0],"split_type":[0,0,0,0,0,0,0,0,0,0,0,0,0,0,0],"sum_hessian":[1.0708937E2,5.9895187E1,4.7194187E1,5.3717983E1,6.1772027E0,3.8060986E1,9.133202E0,4.3980667E1,9.737319E0,2.170543E0,4.0066595E0,1.5255726E1,2.280526E1,4.6839776E0,4.4492235E0],"tree_param":{"num_deleted":"0","num_feature":"8","num_nodes":"15","size_leaf_vector":"1"}},{"base_weights":[1.2970948E-2,-1.0837002E-2,6.7418116E-1,4.8917675E-1,-4.5224153E-2,1.706401E-2,8.085214E-2,-2.921494E-2,8.668902E-2,-6.457358E-2,2.085848E-3],"categories":[],"categories_nodes":[],"categories_segments":[],"categories_sizes":[],"default_left":[0,0,0,0,0,0,0,0,0,0,0],"id":40,"left_children":[1,3,5,7,9,-1,-1,-1,-1,-1,-1],"loss_changes":[1.7014049E0,1.8250911E0,1.1611426E-1,2.2695231E0,3.9432342E0,0E0,0E0,0E0,0E0,0E0,0E0],"parents":[2147483647,0,0,1,1,2,2,3,3,4,4],"right_children":[2,4,6,8,10,-1,-1,-1,-1,-1,-1],"split_conditions":[2.7832856E-2,-1.7146356E-2,-1.0263617E-3,-3.7059344E-3,-1.0240961E-2,1.706401E-2,8.085214E-2,-2.921494E-2,8.668902E-2,-6.457358E-2,2.085848E-3],"split_indices":[5,4,2,3,4,0,0,0,0,0,0],"split_type":[0,0,0,0,0,0,0,0,0,0,0],"sum_hessian":[1.0661608E2,1.0386004E2,2.7560394E0,5.832066E0,9.802798E1,1.0585473E0,1.6974921E0,1.9744053E0,3.8576608E0,8.848402E0,8.917957E1],"tree_param":{"num_deleted":"0","num_feature":"8","num_nodes":"11","size_leaf_vector":"1"}},{"base_weights":[1.2708119E-2,-3.959914E-2,2.895846E-1,-1.6532217E-1,1.3373165E-1,-2.9122043E-1,4.4403112E-1,2.8694503E-3,-5.11969E-2,2.1312622E-2,-1.0366803E-1,6.632432E-2,-1.1053759E-1,4.33654E-3,9.727403E-2],"categories":[],"categories_nodes":[],"categories_segments":[],"categories_sizes":[],"default_left":[0,0,0,0,0,0,0,0,0,0,0,0,0,0,0],"id":41,"left_children":[1,3,5,7,9,11,13,-1,-1,-1,-1,-1,-1,-1,-1],"loss_changes":[1.5678724E0,2.011037E0,1.6719182E0,3.6025634E0,3.837839E0,4.009513E0,2.9193864E0,0E0,0E0,0E0,0E0,0E0,0E0,0E0,0E0],"parents":[2147483647,0,0,1,1,2,2,3,3,4,4,5,5,6,6],"right_children":[2,4,6,8,10,12,14,-1,-1,-1,-1,-1,-1,-1,-1],"split_conditions":[6.4667207E-1,2.8390002E-3,-8.583122E-3,-1.6725454E-3,1.7246274E-2,7.182541E-3,4.5452365E-3,2.8694503E-3,-5.11969E-2,2.1312622E-2,-1.0366803E-1,6.632432E-2,-1.1053759E-1,4.33654E-3,9.727403E-2],"split_indices":[7,2,6,2,6,2,2,0,0,0,0,0,0,0,0],"split_type":[0,0,0,0,0,0,0,0,0,0,0,0,0,0,0],"sum_hessian":[1.0646687E2,9.02701E1,1.619677E1,5.2347088E1,3.7923016E1,3.216261E0,1.2980508E1,3.4150455E1,1.8196634E1,3.6279884E1,1.6431305E0,1.5658818E0,1.650379E0,7.9999886E0,4.98052E0],"tree_param":{"num_deleted":"0","num_feature":"8","num_nodes":"15","size_leaf_vector":"1"}},{"base_weights":[1.1105783E-2,-1.1167032E-2,6.4724517E-1,4.592636E-1,-4.2667445E-2,1.5944295E-2,7.8128956E-2,-2.7770886E-2,8.3293274E-2,-4.7711425E-2,3.2142734E-3],"categories":[],"categories_nodes":[],"categories_segments":[],"categories_sizes":[],"default_left":[0,0,0,0,0,0,0,0,0,0,0],"id":42,"left_children":[1,3,5,7,9,-1,-1,-1,-1,-1,-1],"loss_changes":[1.5237923E0,1.5666602E0,1.1329508E-1,2.0590162E0,3.2252083E0,0E0,0E0,0E0,0E0,0E0,0E0],"parents":[2147483647,0,0,1,1,2,2,3,3,4,4],"right_children":[2,4,6,8,10,-1,-1,-1,-1,-1,-1],"split_conditions":[2.7832856E-2,-1.7146356E-2,-1.0263617E-3,-3.7059344E-3,-8.22571E-3,1.5944295E-2,7.8128956E-2,-2.7770886E-2,8.3293274E-2,-4.7711425E-2,3.2142734E-3],"split_indices":[5,4,2,3,4,0,0,0,0,0,0],"split_type":[0,0,0,0,0,0,0,0,0,0,0],"sum_hessian":[1.0603689E2,1.0339908E2,2.6378121E0,5.6369305E0,9.7762146E1,1.0405638E0,1.5972482E0,1.9829146E0,3.654016E0,1.357134E1,8.41908E1],"tree_param":{"num_deleted":"0","num_feature":"8","num_nodes":"11","size_leaf_vector":"1"}},{"base_weights":[1.1126827E-2,-1.3461056E-2,5.758681E-1,-4.609797E-1,1.8120786E-2,7.2732575E-2,2.6226898E-3,-1.2758799E-1,1.1345197E-2,6.312639E-2,-1.9536563E-3],"categories":[],"categories_nodes":[],"categories_segments":[],"categories_sizes":[],"default_left":[0,0,0,0,0,0,0,0,0,0,0],"id":43,"left_children":[1,3,5,7,9,-1,-1,-1,-1,-1,-1],"loss_changes":[1.4920083E0,1.4698635E0,3.5408068E-1,3.3533096E0,2.2647774E0,0E0,0E0,0E0,0E0,0E0,0E0],"parents":[2147483647,0,0,1,1,2,2,3,3,4,4],"right_children":[2,4,6,8,10,-1,-1,-1,-1,-1,-1],"split_conditions":[7.122253E-1,2.9204615E1,1.170783E-2,-9.684139E-3,-1.7146356E-2,7.2732575E-2,2.6226898E-3,-1.2758799E-1,1.1345197E-2,6.312639E-2,-1.9536563E-3],"split_indices":[7,1,3,4,4,0,0,0,0,0,0],"split_type":[0,0,0,0,0,0,0,0,0,0,0],"sum_hessian":[1.058903E2,1.024078E2,3.4824986E0,5.854365E0,9.655343E1,2.476741E0,1.0057575E0,1.9156579E0,3.938707E0,4.6747656E0,9.187867E1],"tree_param":{"num_deleted":"0","num_feature":"8","num_nodes":"11","size_leaf_vector":"1"}},{"base_weights":[1.0358592E-2,-1.6759062E-2,5.128624E-1,1.8459389E-1,-9.326154E-2,-7.928852E-3,7.271904E-1,-2.3588693E-2,4.405427E-2,-2.179117E-2,1.644073E-2,8.247772E-2,2.3534637E-2],"categories":[],"categories_nodes":[],"categories_segments":[],"categories_sizes":[],"default_left":[0,0,0,0,0,0,0,0,0,0,0,0,0],"id":44,"left_children":[1,3,5,7,9,-1,11,-1,-1,-1,-1,-1,-1],"loss_changes":[1.4620811E0,1.5910623E0,7.5480807E-1,3.1675465E0,2.435224E0,0E0,4.196167E-3,0E0,0E0,0E0,0E0,0E0,0E0],"parents":[2147483647,0,0,1,1,2,2,3,3,4,4,6,6],"right_children":[2,4,6,8,10,-1,12,-1,-1,-1,-1,-1,-1],"split_conditions":[2.0033639E-2,9.864353E-3,-8.637797E-3,8.186567E-3,6.504197E-3,-7.928852E-3,1.8172612E-2,-2.3588693E-2,4.405427E-2,-2.179117E-2,1.644073E-2,8.247772E-2,2.3534637E-2],"split_indices":[3,0,2,0,5,0,0,0,0,0,0,0,0],"split_type":[0,0,0,0,0,0,0,0,0,0,0,0,0],"sum_hessian":[1.05664375E2,1.0117131E2,4.4930687E0,2.7466673E1,7.3704636E1,1.361511E0,3.1315575E0,1.0422554E1,1.7044119E1,4.9778183E1,2.3926453E1,2.0482552E0,1.0833024E0],"tree_param":{"num_deleted":"0","num_feature":"8","num_nodes":"13","size_leaf_vector":"1"}},{"base_weights":[1.0506846E-2,6.515822E-1,-1.0046081E-2,2.059061E-2,7.779747E-2,-5.079265E-1,2.3537003E-2,-1.04550086E-1,-1.9230669E-3,6.1356645E-2,-1.2634995E-3],"categories":[],"categories_nodes":[],"categories_segments":[],"categories_sizes":[],"default_left":[0,0,0,0,0,0,0,0,0,0,0],"id":45,"left_children":[1,3,5,-1,-1,7,9,-1,-1,-1,-1],"loss_changes":[1.4121616E0,2.7339697E-2,1.7567428E0,0E0,0E0,1.7238213E0,2.1145363E0,0E0,0E0,0E0,0E0],"parents":[2147483647,0,0,1,1,2,2,5,5,6,6],"right_children":[2,4,6,-1,-1,8,10,-1,-1,-1,-1],"split_conditions":[-2.7378485E-2,3.281018E-3,2.9204615E1,2.059061E-2,7.779747E-2,-9.684139E-3,-1.7146356E-2,-1.04550086E-1,-1.9230669E-3,6.1356645E-2,-1.2634995E-3],"split_indices":[2,6,1,0,0,4,4,0,0,0,0],"split_type":[0,0,0,0,0,0,0,0,0,0,0],"sum_hessian":[1.056802E2,2.3291147E0,1.0335108E2,1.0954653E0,1.2336495E0,5.6382127E0,9.7712875E1,2.1422882E0,3.4959247E0,4.7222424E0,9.299063E1],"tree_param":{"num_deleted":"0","num_feature":"8","num_nodes":"11","size_leaf_vector":"1"}},{"base_weights":[1.0041903E-2,-7.167158E-2,1.7000793E-1,1.6699961E-1,-1.5371656E-1,5.1665866E-1,-1.7673736E-2,-7.7747285E-2,3.2102186E-2,-4.356117E-2,6.1809896E-3,8.925148E-3,8.438309E-2,5.4737866E-2,-2.7643874E-2],"categories":[],"categories_nodes":[],"categories_segments":[],"categories_sizes":[],"default_left":[0,0,0,0,0,0,0,0,0,0,0,0,0,0,0],"id":46,"left_children":[1,3,5,7,9,11,13,-1,-1,-1,-1,-1,-1,-1,-1],"loss_changes":[1.4050834E0,1.4205861E0,2.37247E0,2.9702473E0,3.279357E0,1.7135005E0,3.7384706E0,0E0,0E0,0E0,0E0,0E0,0E0,0E0,0E0],"parents":[2147483647,0,0,1,1,2,2,3,3,4,4,5,5,6,6],"right_children":[2,4,6,8,10,12,14,-1,-1,-1,-1,-1,-1,-1,-1],"split_conditions":[6.0442424E-1,9.864353E-3,5.8827213E1,5.107479E-1,1.3215579E-2,-1.04369E-3,-1.3166531E-3,-7.7747285E-2,3.2102186E-2,-4.356117E-2,6.1809896E-3,8.925148E-3,8.438309E-2,5.4737866E-2,-2.7643874E-2],"split_indices":[7,0,1,7,0,5,5,0,0,0,0,0,0,0,0],"split_type":[0,0,0,0,0,0,0,0,0,0,0,0,0,0,0],"sum_hessian":[1.0556093E2,7.02354E1,3.532553E1,1.770259E1,5.2532806E1,1.1792243E1,2.3533289E1,1.9145675E0,1.5788024E1,2.2319345E1,3.021346E1,5.66477E0,6.1274734E0,7.041582E0,1.6491707E1],"tree_param":{"num_deleted":"0","num_feature":"8","num_nodes":"15","size_leaf_vector":"1"}},{"base_weights":[9.675122E-3,-1.1425882E-2,6.3066393E-1,1.1662881E-1,-1.09573044E-1,1.6496658E-2,7.524302E-2,-7.595905E-3,7.260708E-2,-6.42808E-2,-3.2543603E-3],"categories":[],"categories_nodes":[],"categories_segments":[],"categories_sizes":[],"default_left":[0,0,0,0,0,0,0,0,0,0,0],"id":47,"left_children":[1,3,5,7,9,-1,-1,-1,-1,-1,-1],"loss_changes":[1.3979685E0,1.315236E0,7.4673295E-2,5.389562E0,2.4099684E0,0E0,0E0,0E0,0E0,0E0,0E0],"parents":[2147483647,0,0,1,1,2,2,3,3,4,4],"right_children":[2,4,6,8,10,-1,-1,-1,-1,-1,-1],"split_conditions":[2.7832856E-2,5.4172012E1,-1.0263617E-3,4.8925293E1,-8.22571E-3,1.6496658E-2,7.524302E-2,-7.595905E-3,7.260708E-2,-6.42808E-2,-3.2543603E-3],"split_indices":[5,1,2,1,4,0,0,0,0,0,0],"split_type":[0,0,0,0,0,0,0,0,0,0,0],"sum_hessian":[1.0513684E2,1.0263107E2,2.5057712E0,4.444909E1,5.818198E1,1.007469E0,1.498302E0,3.444089E1,1.0008197E1,6.416803E0,5.176518E1],"tree_param":{"num_deleted":"0","num_feature":"8","num_nodes":"11","size_leaf_vector":"1"}},{"base_weights":[9.696667E-3,-2.157911E-2,4.097079E-1,-5.1407717E-2,3.920112E-1,6.9048053E-1,-2.3058845E-1,-2.7120395E-2,3.2624097E-3,8.298559E-2,-1.0089585E-2,4.263124E-3,8.251337E-2,-9.39538E-2,5.5357095E-2],"categories":[],"categories_nodes":[],"categories_segments":[],"categories_sizes":[],"default_left":[0,0,0,0,0,0,0,0,0,0,0,0,0,0,0],"id":48,"left_children":[1,3,5,7,9,11,13,-1,-1,-1,-1,-1,-1,-1,-1],"loss_changes":[1.3354472E0,1.2451794E0,1.5506294E0,1.735831E0,1.5503545E0,4.5601583E-1,2.248457E0,0E0,0E0,0E0,0E0,0E0,0E0,0E0,0E0],"parents":[2147483647,0,0,1,1,2,2,3,3,4,4,5,5,6,6],"right_children":[2,4,6,8,10,12,14,-1,-1,-1,-1,-1,-1,-1,-1],"split_conditions":[6.7933834E-1,2.0738184E-2,6.991108E-3,-3.3880465E-3,-4.8658435E-4,-5.058658E-3,1.3730152E-2,-2.7120395E-2,3.2624097E-3,8.298559E-2,-1.0089585E-2,4.263124E-3,8.251337E-2,-9.39538E-2,5.5357095E-2],"split_indices":[7,0,3,5,5,2,3,0,0,0,0,0,0,0,0],"split_type":[0,0,0,0,0,0,0,0,0,0,0,0,0,0,0],"sum_hessian":[1.0503804E2,9.829841E1,6.7396283E0,9.2502716E1,5.795698E0,4.6306796E0,2.1089487E0,2.4968067E1,6.7534645E1,2.7072651E0,3.0884333E0,1.0234092E0,3.6072705E0,1.0035257E0,1.1054229E0],"tree_param":{"num_deleted":"0","num_feature":"8","num_nodes":"15","size_leaf_vector":"1"}},{"base_weights":[9.869219E-3,-1.5362889E-2,4.8864517E-1,5.4410223E-2,-2.2134855E-1,8.077241E-2,4.3606896E-2,-6.401324E-4,6.831723E-2,1.8510038E-2,-4.6849634E-2,-2.8215526E-2,3.1157812E-2],"categories":[],"categories_nodes":[],"categories_segments":[],"categories_sizes":[],"default_left":[0,0,0,0,0,0,0,0,0,0,0,0,0],"id":49,"left_children":[1,3,5,7,9,-1,11,-1,-1,-1,-1,-1,-1],"loss_changes":[1.2859925E0,1.4708515E0,7.214588E-1,2.9340968E0,2.68639E0,0E0,3.7443262E-1,0E0,0E0,0E0,0E0,0E0,0E0],"parents":[2147483647,0,0,1,1,2,2,3,3,4,4,6,6],"right_children":[2,4,6,8,10,-1,12,-1,-1,-1,-1,-1,-1],"split_conditions":[2.0033639E-2,6.9339513E-3,2.7832856E-2,5.418119E-3,-1.6725454E-3,8.077241E-2,3.5483886E-2,-6.401324E-4,6.831723E-2,1.8510038E-2,-4.6849634E-2,-2.8215526E-2,3.1157812E-2],"split_indices":[3,3,3,3,2,0,3,0,0,0,0,0,0],"split_type":[0,0,0,0,0,0,0,0,0,0,0,0,0],"sum_hessian":[1.04830284E2,1.0050163E2,4.328653E0,7.562215E1,2.4879484E1,2.0464537E0,2.2821991E0,6.9855774E1,5.766374E0,9.502736E0,1.5376748E1,1.0061413E0,1.2760578E0],"tree_param":{"num_deleted":"0","num_feature":"8","num_nodes":"13","size_leaf_vector":"1"}},{"base_weights":[1.0194422E-2,-5.975156E-2,1.8081819E-1,-3.1637892E-3,-5.77916E-1,1.0831286E-1,4.4790085E-2,-1.6237466E-2,1.9275364E-2,-1.0756447E-1,1.5641224E-2,-1.7168377E-2,5.92795E-2],"categories":[],"categories_nodes":[],"categories_segments":[],"categories_sizes":[],"default_left":[0,0,0,0,0,0,0,0,0,0,0,0,0],"id":50,"left_children":[1,3,5,7,9,-1,11,-1,-1,-1,-1,-1,-1],"loss_changes":[1.2717402E0,2.2174604E0,3.7524564E0,2.1910772E0,2.8898652E0,0E0,3.4179149E0,0E0,0E0,0E0,0E0,0E0,0E0],"parents":[2147483647,0,0,1,1,2,2,3,3,4,4,6,6],"right_children":[2,4,6,8,10,-1,12,-1,-1,-1,-1,-1,-1],"split_conditions":[6.2064687E-3,4.121739E-3,6.996652E-3,2.5549778E-3,3.2359376E-3,1.0831286E-1,7.255372E-3,-1.6237466E-2,1.9275364E-2,-1.0756447E-1,1.5641224E-2,-1.7168377E-2,5.92795E-2],"split_indices":[6,6,6,4,3,0,5,0,0,0,0,0,0],"split_type":[0,0,0,0,0,0,0,0,0,0,0,0,0],"sum_hessian":[1.04655174E2,7.468741E1,2.996776E1,6.824104E1,6.4463706E0,3.013812E0,2.6953947E1,3.774172E1,3.0499323E1,3.5651236E0,2.881247E0,1.9813784E1,7.140164E0],"tree_param":{"num_deleted":"0","num_feature":"8","num_nodes":"13","size_leaf_vector":"1"}},{"base_weights":[9.978146E-3,-7.5849526E-2,1.4732394E-1,-3.319153E-1,1.0407645E-1,5.8143747E-1,-2.5473582E-2,-8.7105995E-3,-7.884138E-2,9.082345E-2,-1.0138481E-2,7.2698414E-2,-2.6920661E-2,-4.9779363E-2,2.2545643E-2],"categories":[],"categories_nodes":[],"categories_segments":[],"categories_sizes":[],"default_left":[0,0,0,0,0,0,0,0,0,0,0,0,0,0,0],"id":51,"left_children":[1,3,5,7,9,11,13,-1,-1,-1,-1,-1,-1,-1,-1],"loss_changes":[1.2546903E0,3.0560308E0,3.0835328E0,2.982533E0,6.5817122E0,1.6429522E0,3.693814E0,0E0,0E0,0E0,0E0,0E0,0E0,0E0,0E0],"parents":[2147483647,0,0,1,1,2,2,3,3,4,4,5,5,6,6],"right_children":[2,4,6,8,10,12,14,-1,-1,-1,-1,-1,-1,-1,-1],"split_conditions":[3.799136E-3,-1.04369E-3,6.6969716E-3,4.16355E-3,1.4992914E-3,2.0560782E-2,1.052797E-2,-8.7105995E-3,-7.884138E-2,9.082345E-2,-1.0138481E-2,7.2698414E-2,-2.6920661E-2,-4.9779363E-2,2.2545643E-2],"split_indices":[2,3,2,6,3,4,2,0,0,0,0,0,0,0,0],"split_type":[0,0,0,0,0,0,0,0,0,0,0,0,0,0,0],"sum_hessian":[1.04489365E2,6.4580574E1,3.990879E1,2.630264E1,3.8277935E1,1.0689374E1,2.9219416E1,1.7896166E1,8.406475E0,7.0936236E0,3.118431E1,9.251755E0,1.4376192E0,9.796287E0,1.9423128E1],"tree_param":{"num_deleted":"0","num_feature":"8","num_nodes":"15","size_leaf_vector":"1"}},{"base_weights":[9.395755E-3,-1.064529E-2,6.1685663E-2,6.0475403E-1,-2.960924E-2,1.7525844E-2,7.355169E-2,-6.7657255E-2,-6.372489E-4],"categories":[],"categories_nodes":[],"categories_segments":[],"categories_sizes":[],"default_left":[0,0,0,0,0,0,0,0,0],"id":52,"left_children":[1,3,-1,5,7,-1,-1,-1,-1],"loss_changes":[1.2884007E0,1.2189275E0,0E0,4.649794E-2,1.5108755E0,0E0,0E0,0E0,0E0],"parents":[2147483647,0,0,1,1,3,3,4,4],"right_children":[2,4,-1,6,8,-1,-1,-1,-1],"split_conditions":[2.7832856E-2,-2.7378485E-2,6.1685663E-2,3.281018E-3,-1.8258572E-2,1.7525844E-2,7.355169E-2,-6.7657255E-2,-6.372489E-4],"split_indices":[5,2,0,6,2,0,0,0,0],"split_type":[0,0,0,0,0,0,0,0,0],"sum_hessian":[1.0429146E2,1.0191171E2,2.3797445E0,2.1231663E0,9.978855E1,1.0417562E0,1.0814102E0,2.4849687E0,9.730358E1],"tree_param":{"num_deleted":"0","num_feature":"8","num_nodes":"9","size_leaf_vector":"1"}},{"base_weights":[9.315878E-3,-5.8406282E-2,1.7746463E-1,4.1164532E-1,-1.0386169E-1,7.690202E-1,2.392826E-2,-2.6487513E-2,7.0984E-2,-2.1499721E-2,1.4044817E-2,8.752374E-2,1.16122505E-2,-8.66856E-3,8.640035E-2],"categories":[],"categories_nodes":[],"categories_segments":[],"categories_sizes":[],"default_left":[0,0,0,0,0,0,0,0,0,0,0,0,0,0,0],"id":53,"left_children":[1,3,5,7,9,11,13,-1,-1,-1,-1,-1,-1,-1,-1],"loss_changes":[1.2083555E0,1.6612604E0,2.7475078E0,1.5761205E0,1.9272523E0,3.3132195E-1,2.4175017E0,0E0,0E0,0E0,0E0,0E0,0E0,0E0,0E0],"parents":[2147483647,0,0,1,1,2,2,3,3,4,4,5,5,6,6],"right_children":[2,4,6,8,10,12,14,-1,-1,-1,-1,-1,-1,-1,-1],"split_conditions":[6.152985E-1,-2.5046844E-2,4.7705276E1,5.342115E-1,6.0535227E-3,6.8276706E-3,8.0954666E1,-2.6487513E-2,7.0984E-2,-2.1499721E-2,1.4044817E-2,8.752374E-2,1.16122505E-2,-8.66856E-3,8.640035E-2],"split_indices":[7,6,1,7,6,3,1,0,0,0,0,0,0,0,0],"split_type":[0,0,0,0,0,0,0,0,0,0,0,0,0,0,0],"sum_hessian":[1.0420319E2,7.475012E1,2.9453072E1,5.8808265E0,6.886929E1,5.243157E0,2.4209915E1,1.8333054E0,4.047521E0,4.7418705E1,2.145059E1,4.216628E0,1.0265287E0,2.2185528E1,2.0243866E0],"tree_param":{"num_deleted":"0","num_feature":"8","num_nodes":"15","size_leaf_vector":"1"}},{"base_weights":[1.0670617E-2,-6.3223485E-3,6.481578E-2,-3.6239693E-1,2.3851989E-2,2.2093933E-2,-9.313948E-2,3.4064244E-2,-6.137604E-3],"categories":[],"categories_nodes":[],"categories_segments":[],"categories_sizes":[],"default_left":[0,0,0,0,0,0,0,0,0],"id":54,"left_children":[1,3,-1,5,7,-1,-1,-1,-1],"loss_changes":[1.1405283E0,1.117167E0,0E0,2.9015388E0,2.6142352E0,0E0,0E0,0E0,0E0],"parents":[2147483647,0,0,1,1,3,3,4,4],"right_children":[2,4,-1,6,8,-1,-1,-1,-1],"split_conditions":[7.909424E-1,7.92324E-3,6.481578E-2,6.9323964E-3,9.864353E-3,2.2093933E-2,-9.313948E-2,3.4064244E-2,-6.137604E-3],"split_indices":[7,0,0,0,0,0,0,0,0],"split_type":[0,0,0,0,0,0,0,0,0],"sum_hessian":[1.03906456E2,1.02173E2,1.7334583E0,7.12178E0,9.5051216E1,3.8186285E0,3.3031514E0,1.9515553E1,7.553567E1],"tree_param":{"num_deleted":"0","num_feature":"8","num_nodes":"9","size_leaf_vector":"1"}},{"base_weights":[9.903328E-3,6.979586E-2,-5.906123E-3,5.961836E-1,-2.4497252E-2,1.6904429E-2,7.23673E-2,-5.1212277E-2,7.930657E-4],"categories":[],"categories_nodes":[],"categories_segments":[],"categories_sizes":[],"default_left":[0,0,0,0,0,0,0,0,0],"id":55,"left_children":[1,-1,3,5,7,-1,-1,-1,-1],"loss_changes":[1.1448914E0,0E0,1.1732204E0,4.864788E-2,1.606958E0,0E0,0E0,0E0,0E0],"parents":[2147483647,0,0,2,2,3,3,4,4],"right_children":[2,-1,4,6,8,-1,-1,-1,-1],"split_conditions":[-3.5489127E-2,6.979586E-2,-2.7378485E-2,3.281018E-3,2.9204615E1,1.6904429E-2,7.23673E-2,-5.1212277E-2,7.930657E-4],"split_indices":[4,0,2,6,1,0,0,0,0],"split_type":[0,0,0,0,0,0,0,0,0],"sum_hessian":[1.0387154E2,1.3639026E0,1.0250764E2,2.139812E0,1.0036783E2,1.0265193E0,1.1132926E0,5.336036E0,9.503179E1],"tree_param":{"num_deleted":"0","num_feature":"8","num_nodes":"9","size_leaf_vector":"1"}},{"base_weights":[1.0005071E-2,-1.35123925E-2,4.6687725E-1,-5.0434142E-2,3.1119886E-1,-9.465299E-3,6.817437E-1,7.2925707E-4,-5.419719E-2,7.655038E-2,-2.3895698E-2,1.9366723E-2,7.8985274E-2],"categories":[],"categories_nodes":[],"categories_segments":[],"categories_sizes":[],"default_left":[0,0,0,0,0,0,0,0,0,0,0,0,0],"id":56,"left_children":[1,3,5,7,9,-1,11,-1,-1,-1,-1,-1,-1],"loss_changes":[1.1321948E0,1.2221322E0,6.868615E-1,2.592193E0,2.7856464E0,0E0,5.0307512E-2,0E0,0E0,0E0,0E0,0E0,0E0],"parents":[2147483647,0,0,1,1,2,2,3,3,4,4,6,6],"right_children":[2,4,6,8,10,-1,12,-1,-1,-1,-1,-1,-1],"split_conditions":[2.0033639E-2,1.2798891E-2,-8.637797E-3,9.327936E-3,1.8138705E-2,-9.465299E-3,6.1034748E1,7.2925707E-4,-5.419719E-2,7.655038E-2,-2.3895698E-2,1.9366723E-2,7.8985274E-2],"split_indices":[3,6,2,6,6,0,1,0,0,0,0,0,0],"split_type":[0,0,0,0,0,0,0,0,0,0,0,0,0],"sum_hessian":[1.0378744E2,9.962944E1,4.1579943E0,9.021599E1,9.413456E0,1.3055527E0,2.8524418E0,8.161607E1,8.599915E0,4.941477E0,4.471979E0,1.0234247E0,1.8290169E0],"tree_param":{"num_deleted":"0","num_feature":"8","num_nodes":"13","size_leaf_vector":"1"}},{"base_weights":[9.9777095E-3,-8.153818E-3,5.8188766E-2,1.117041E-1,-9.926851E-2,-6.2605487E-3,6.684741E-2,-2.7502706E-2,1.0457776E-2],"categories":[],"categories_nodes":[],"categories_segments":[],"categories_sizes":[],"default_left":[0,0,0,0,0,0,0,0,0],"id":57,"left_children":[1,3,-1,5,7,-1,-1,-1,-1],"loss_changes":[1.0898983E0,1.1295774E0,0E0,4.3802676E0,2.1323967E0,0E0,0E0,0E0,0E0],"parents":[2147483647,0,0,1,1,3,3,4,4],"right_children":[2,4,-1,6,8,-1,-1,-1,-1],"split_conditions":[2.7832856E-2,5.4172012E1,5.8188766E-2,4.8925293E1,1.2431766E-3,-6.2605487E-3,6.684741E-2,-2.7502706E-2,1.0457776E-2],"split_indices":[5,1,0,1,6,0,0,0,0],"split_type":[0,0,0,0,0,0,0,0,0],"sum_hessian":[1.0364759E2,1.0141804E2,2.2295604E0,4.370275E1,5.7715282E1,3.3958744E1,9.744007E0,3.0805363E1,2.690992E1],"tree_param":{"num_deleted":"0","num_feature":"8","num_nodes":"9","size_leaf_vector":"1"}},{"base_weights":[1.0094683E-2,-5.4922458E-2,1.7279728E-1,-2.8740142E-2,-8.628329E-2,7.4977505E-1,2.9966576E-2,-5.886308E-3,7.893819E-2,8.569068E-2,1.2154427E-2,-1.1254727E-2,5.9579212E-2],"categories":[],"categories_nodes":[],"categories_segments":[],"categories_sizes":[],"default_left":[0,0,0,0,0,0,0,0,0,0,0,0,0],"id":58,"left_children":[1,3,5,7,-1,9,11,-1,-1,-1,-1,-1,-1],"loss_changes":[1.1151229E0,1.5708764E0,2.4566216E0,1.872642E0,0E0,2.9479408E-1,2.0954843E0,0E0,0E0,0E0,0E0,0E0,0E0],"parents":[2147483647,0,0,1,1,2,2,3,3,5,5,6,6],"right_children":[2,4,6,8,-1,10,12,-1,-1,-1,-1,-1,-1],"split_conditions":[6.152985E-1,6.113431E-1,4.7705276E1,6.0941E-1,-8.628329E-2,6.8276706E-3,9.260312E-3,-5.886308E-3,7.893819E-2,8.569068E-2,1.2154427E-2,-1.1254727E-2,5.9579212E-2],"split_indices":[7,7,1,7,0,3,5,0,0,0,0,0,0],"split_type":[0,0,0,0,0,0,0,0,0,0,0,0,0],"sum_hessian":[1.03517365E2,7.443503E1,2.908234E1,7.310156E1,1.333462E0,4.9275703E0,2.415477E1,7.140067E1,1.700894E0,3.8987238E0,1.0288465E0,1.9934885E1,4.219885E0],"tree_param":{"num_deleted":"0","num_feature":"8","num_nodes":"13","size_leaf_vector":"1"}},{"base_weights":[1.0609569E-2,-6.80509E-2,1.3711436E-1,-3.0416822E-1,9.852193E-2,5.4793227E-1,-2.464662E-2,7.354863E-3,-5.7783425E-2,8.614813E-2,-9.182977E-3,1.0052722E-1,1.9268792E-2,-5.5445738E-2,1.5635993E-2],"categories":[],"categories_nodes":[],"categories_segments":[],"categories_sizes":[],"default_left":[0,0,0,0,0,0,0,0,0,0,0,0,0,0,0],"id":59,"left_children":[1,3,5,7,9,11,13,-1,-1,-1,-1,-1,-1,-1,-1],"loss_changes":[1.0462753E0,2.5833802E0,2.6905673E0,2.8437252E0,5.7172656E0,1.6623032E0,2.9502826E0,0E0,0E0,0E0,0E0,0E0,0E0,0E0,0E0],"parents":[2147483647,0,0,1,1,2,2,3,3,4,4,5,5,6,6],"right_children":[2,4,6,8,10,12,14,-1,-1,-1,-1,-1,-1,-1,-1],"split_conditions":[3.799136E-3,-1.04369E-3,6.6969716E-3,-2.3036306E-3,1.4992914E-3,-1.1780097E-3,9.081909E-3,7.354863E-3,-5.7783425E-2,8.614813E-2,-9.182977E-3,1.0052722E-1,1.9268792E-2,-5.5445738E-2,1.5635993E-2],"split_indices":[2,3,2,6,3,5,2,0,0,0,0,0,0,0,0],"split_type":[0,0,0,0,0,0,0,0,0,0,0,0,0,0,0],"sum_hessian":[1.0320583E2,6.3921577E1,3.928426E1,2.6099476E1,3.7822098E1,1.0423872E1,2.8860388E1,1.1272414E1,1.4827062E1,6.848102E0,3.0973997E1,3.7571416E0,6.6667304E0,6.8237906E0,2.2036598E1],"tree_param":{"num_deleted":"0","num_feature":"8","num_nodes":"15","size_leaf_vector":"1"}},{"base_weights":[1.0834407E-2,-1.1716767E-2,4.539532E-1,2.1163073E-1,-5.989972E-2,7.7059686E-2,2.9666904E-2,-2.8809816E-2,6.4434014E-2,-5.4066837E-2,-5.6526787E-4,2.8682811E-2,-2.6237631E-2],"categories":[],"categories_nodes":[],"categories_segments":[],"categories_sizes":[],"default_left":[0,0,0,0,0,0,0,0,0,0,0,0,0],"id":60,"left_children":[1,3,5,7,9,-1,11,-1,-1,-1,-1,-1,-1],"loss_changes":[1.0448928E0,1.0884932E0,6.5736043E-1,4.069254E0,2.1618323E0,0E0,3.158712E-1,0E0,0E0,0E0,0E0,0E0,0E0],"parents":[2147483647,0,0,1,1,2,2,3,3,4,4,6,6],"right_children":[2,4,6,8,10,-1,12,-1,-1,-1,-1,-1,-1],"split_conditions":[2.0033639E-2,-7.076408E-3,2.7832856E-2,1.3215579E-2,-4.3200296E-3,7.7059686E-2,-2.1689713E-3,-2.8809816E-2,6.4434014E-2,-5.4066837E-2,-5.6526787E-4,2.8682811E-2,-2.6237631E-2],"split_indices":[3,2,3,0,2,0,6,0,0,0,0,0,0],"split_type":[0,0,0,0,0,0,0,0,0,0,0,0,0],"sum_hessian":[1.03031784E2,9.8968636E1,4.0631475E0,1.695999E1,8.2008644E1,1.8593216E0,2.2038257E0,8.02558E0,8.934409E0,7.405961E0,7.4602684E1,1.1813952E0,1.0224307E0],"tree_param":{"num_deleted":"0","num_feature":"8","num_nodes":"13","size_leaf_vector":"1"}},{"base_weights":[1.0513944E-2,-7.585617E-2,1.2256062E-1,-5.6962604E-3,-5.868602E-1,1.621233E-2,5.606112E-1,-1.02633005E-2,3.9954957E-2,3.4312762E-3,-1.0650595E-1,4.6769984E-2,-1.1364131E-2,9.696994E-2,2.6264552E-3],"categories":[],"categories_nodes":[],"categories_segments":[],"categories_sizes":[],"default_left":[0,0,0,0,0,0,0,0,0,0,0,0,0,0,0],"id":61,"left_children":[1,3,5,7,9,11,13,-1,-1,-1,-1,-1,-1,-1,-1],"loss_changes":[1.0135983E0,2.119848E0,2.113185E0,2.1262171E0,2.1573071E0,2.262608E0,1.9133818E0,0E0,0E0,0E0,0E0,0E0,0E0,0E0,0E0],"parents":[2147483647,0,0,1,1,2,2,3,3,4,4,5,5,6,6],"right_children":[2,4,6,8,10,12,14,-1,-1,-1,-1,-1,-1,-1,-1],"split_conditions":[5.901271E-1,5.7873935E-1,9.260312E-3,5.674943E-1,4.9561073E1,-5.542485E-3,1.7804688E-2,-1.02633005E-2,3.9954957E-2,3.4312762E-3,-1.0650595E-1,4.6769984E-2,-1.1364131E-2,9.696994E-2,2.6264552E-3],"split_indices":[7,7,5,7,1,3,5,0,0,0,0,0,0,0,0],"split_type":[0,0,0,0,0,0,0,0,0,0,0,0,0,0,0],"sum_hessian":[1.02777115E2,5.8221E1,4.455611E1,5.208146E1,6.139542E0,3.668651E1,7.8696036E0,4.2630726E1,9.450734E0,3.0743108E0,3.0652316E0,7.613482E0,2.9073025E1,3.9957647E0,3.8738391E0],"tree_param":{"num_deleted":"0","num_feature":"8","num_nodes":"15","size_leaf_vector":"1"}},{"base_weights":[1.0305805E-2,6.6133276E-2,-4.167442E-3,-2.3313412E-1,4.7149118E-2,-5.715393E-2,2.1488091E-2,8.4476136E-2,1.0076528E-3],"categories":[],"categories_nodes":[],"categories_segments":[],"categories_sizes":[],"default_left":[0,0,0,0,0,0,0,0,0],"id":62,"left_children":[1,-1,3,5,7,-1,-1,-1,-1],"loss_changes":[9.7714937E-1,0E0,1.2113072E0,2.9839854E0,2.483743E0,0E0,0E0,0E0,0E0],"parents":[2147483647,0,0,2,2,3,3,4,4],"right_children":[2,-1,4,6,8,-1,-1,-1,-1],"split_conditions":[-3.5489127E-2,6.6133276E-2,-8.22571E-3,1.2431766E-3,-6.7620818E-3,-5.715393E-2,2.1488091E-2,8.4476136E-2,1.0076528E-3],"split_indices":[4,0,4,6,4,0,0,0,0],"split_type":[0,0,0,0,0,0,0,0,0],"sum_hessian":[1.0241162E2,1.2552503E0,1.0115637E2,1.787185E1,8.328452E1,1.0024325E1,7.8475227E0,2.7314312E0,8.055309E1],"tree_param":{"num_deleted":"0","num_feature":"8","num_nodes":"9","size_leaf_vector":"1"}},{"base_weights":[1.0502992E-2,-1.9501958E-2,3.2446006E-1,3.0617486E-3,-6.6940826E-1,7.367589E-3,7.870194E-2,-3.0010915E-3,5.3201944E-2,-8.439584E-2,-1.9796027E-2,5.0460484E-2,-5.10229E-2],"categories":[],"categories_nodes":[],"categories_segments":[],"categories_sizes":[],"default_left":[0,0,0,0,0,0,0,0,0,0,0,0,0],"id":63,"left_children":[1,3,5,7,9,11,-1,-1,-1,-1,-1,-1,-1],"loss_changes":[9.7978806E-1,1.3990542E0,1.3246989E0,1.6440433E0,9.634817E-2,1.9023683E0,0E0,0E0,0E0,0E0,0E0,0E0,0E0],"parents":[2147483647,0,0,1,1,2,2,3,3,4,4,5,5],"right_children":[2,4,6,8,10,12,-1,-1,-1,-1,-1,-1,-1],"split_conditions":[6.695705E-1,6.648354E-1,3.5843924E-3,6.4667207E-1,6.720578E1,-1.04369E-3,7.870194E-2,-3.0010915E-3,5.3201944E-2,-8.439584E-2,-1.9796027E-2,5.0460484E-2,-5.10229E-2],"split_indices":[7,7,5,7,1,5,0,0,0,0,0,0,0],"split_type":[0,0,0,0,0,0,0,0,0,0,0,0,0],"sum_hessian":[1.0233684E2,9.4265724E1,8.071114E0,9.2064674E1,2.2010489E0,5.3912477E0,2.6798658E0,8.753489E1,4.529786E0,1.0296775E0,1.1713713E0,2.7625046E0,2.628743E0],"tree_param":{"num_deleted":"0","num_feature":"8","num_nodes":"13","size_leaf_vector":"1"}},{"base_weights":[9.88892E-3,-6.7419987E-3,5.533904E-2,1.496994E-1,-7.4062906E-2,-3.5734143E-2,3.6513194E-2,-3.951934E-2,5.6362286E-4],"categories":[],"categories_nodes":[],"categories_segments":[],"categories_sizes":[],"default_left":[0,0,0,0,0,0,0,0,0],"id":64,"left_children":[1,3,-1,5,7,-1,-1,-1,-1],"loss_changes":[9.3579435E-1,1.0752485E0,0E0,3.4872816E0,1.8273803E0,0E0,0E0,0E0,0E0],"parents":[2147483647,0,0,1,1,3,3,4,4],"right_children":[2,4,-1,6,8,-1,-1,-1,-1],"split_conditions":[2.7832856E-2,1.0213944E-2,5.533904E-2,-2.1689713E-3,1.1558627E-2,-3.5734143E-2,3.6513194E-2,-3.951934E-2,5.6362286E-4],"split_indices":[5,0,0,3,0,0,0,0,0],"split_type":[0,0,0,0,0,0,0,0,0],"sum_hessian":[1.0211658E2,1.000429E2,2.0736759E0,2.9730658E1,7.031224E1,8.66889E0,2.1061768E1,1.3193463E1,5.7118782E1],"tree_param":{"num_deleted":"0","num_feature":"8","num_nodes":"9","size_leaf_vector":"1"}},{"base_weights":[9.152585E-3,4.5192826E-1,-1.090194E-2,-2.7475629E-2,8.574092E-2,-3.4013507E-1,3.4233615E-2,5.934027E-2,-5.078348E-2,-3.2387912E-2,9.606258E-3],"categories":[],"categories_nodes":[],"categories_segments":[],"categories_sizes":[],"default_left":[0,0,0,0,0,0,0,0,0,0,0],"id":65,"left_children":[1,3,5,-1,-1,7,9,-1,-1,-1,-1],"loss_changes":[9.199779E-1,1.5582169E0,1.4911405E0,0E0,0E0,2.1948757E0,1.9899149E0,0E0,0E0,0E0,0E0],"parents":[2147483647,0,0,1,1,2,2,5,5,6,6],"right_children":[2,4,6,-1,-1,8,10,-1,-1,-1,-1],"split_conditions":[-2.1825159E-2,-5.213031E-3,-1.0240961E-2,-2.7475629E-2,8.574092E-2,9.293566E-3,5.245867E-1,5.934027E-2,-5.078348E-2,-3.2387912E-2,9.606258E-3],"split_indices":[4,3,4,0,0,0,7,0,0,0,0],"split_type":[0,0,0,0,0,0,0,0,0,0,0],"sum_hessian":[1.0205028E2,3.488744E0,9.856153E1,1.364945E0,2.123799E0,1.1095026E1,8.746651E1,1.3030162E0,9.79201E0,1.2253876E1,7.521263E1],"tree_param":{"num_deleted":"0","num_feature":"8","num_nodes":"11","size_leaf_vector":"1"}},{"base_weights":[8.7755425E-3,5.5314846E-2,-7.4298363E-3,-9.153904E-2,1.2451126E-1,-3.100717E-2,6.618952E-3,5.1762518E-2,-2.8193272E-3],"categories":[],"categories_nodes":[],"categories_segments":[],"categories_sizes":[],"default_left":[0,0,0,0,0,0,0,0,0],"id":66,"left_children":[1,-1,3,5,7,-1,-1,-1,-1],"loss_changes":[9.107482E-1,0E0,1.1298951E0,2.161987E0,2.3954585E0,0E0,0E0,0E0,0E0],"parents":[2147483647,0,0,2,2,3,3,4,4],"right_children":[2,-1,4,6,8,-1,-1,-1,-1],"split_conditions":[-2.7378485E-2,5.5314846E-2,3.799136E-3,-1.04369E-3,6.6969716E-3,-3.100717E-2,6.618952E-3,5.1762518E-2,-2.8193272E-3],"split_indices":[2,0,2,3,2,0,0,0,0],"split_type":[0,0,0,0,0,0,0,0,0],"sum_hessian":[1.01772835E2,1.9842442E0,9.978859E1,6.1127514E1,3.8661076E1,2.5219744E1,3.590777E1,1.0147698E1,2.8513378E1],"tree_param":{"num_deleted":"0","num_feature":"8","num_nodes":"9","size_leaf_vector":"1"}},{"base_weights":[8.773432E-3,-7.199336E-3,5.409431E-2,1.0758345E-1,-9.341434E-2,-3.0118977E-3,7.296938E-2,-7.9672615E-4,-5.0828453E-2],"categories":[],"categories_nodes":[],"categories_segments":[],"categories_sizes":[],"default_left":[0,0,0,0,0,0,0,0,0],"id":67,"left_children":[1,3,-1,5,7,-1,-1,-1,-1],"loss_changes":[8.762852E-1,1.0058616E0,0E0,3.7593765E0,2.0520253E0,0E0,0E0,0E0,0E0],"parents":[2147483647,0,0,1,1,3,3,4,4],"right_children":[2,4,-1,6,8,-1,-1,-1,-1],"split_conditions":[2.7832856E-2,5.4172012E1,5.409431E-2,4.9879875E1,1.6770514E-2,-3.0118977E-3,7.296938E-2,-7.9672615E-4,-5.0828453E-2],"split_indices":[5,1,0,1,0,0,0,0,0],"split_type":[0,0,0,0,0,0,0,0,0],"sum_hessian":[1.01631516E2,9.9627716E1,2.003797E0,4.262751E1,5.7000206E1,3.5681168E1,6.9463434E0,4.811052E1,8.889687E0],"tree_param":{"num_deleted":"0","num_feature":"8","num_nodes":"9","size_leaf_vector":"1"}},{"base_weights":[8.728519E-3,-1.7617868E-2,3.389852E-1,8.4223775E-3,-7.213508E-1,8.074361E-1,-1.450218E-1,-3.973687E-3,4.9994536E-2,-6.3739233E-3,-1.1196555E-1,2.6440114E-2,9.199039E-2,-6.0847074E-2,5.1342566E-2],"categories":[],"categories_nodes":[],"categories_segments":[],"categories_sizes":[],"default_left":[0,0,0,0,0,0,0,0,0,0,0,0,0,0,0],"id":68,"left_children":[1,3,5,7,9,11,13,-1,-1,-1,-1,-1,-1,-1,-1],"loss_changes":[8.984468E-1,1.7642705E0,1.8465022E0,2.2333326E0,8.2837534E-1,2.7997494E-3,1.7158797E0,0E0,0E0,0E0,0E0,0E0,0E0,0E0,0E0],"parents":[2147483647,0,0,1,1,2,2,3,3,4,4,5,5,6,6],"right_children":[2,4,6,8,10,12,14,-1,-1,-1,-1,-1,-1,-1,-1],"split_conditions":[2.0738184E-2,1.9517733E-2,-4.8658435E-4,1.6704202E-2,2.6247646E-3,2.2625746E-2,6.3782703E1,-3.973687E-3,4.9994536E-2,-6.3739233E-3,-1.1196555E-1,2.6440114E-2,9.199039E-2,-6.0847074E-2,5.1342566E-2],"split_indices":[0,0,5,2,2,0,1,0,0,0,0,0,0,0,0],"split_type":[0,0,0,0,0,0,0,0,0,0,0,0,0,0,0],"sum_hessian":[1.0157067E2,9.4943184E1,6.627485E0,9.250813E1,2.4350488E0,3.0282912E0,3.5991936E0,8.509019E1,7.417951E0,1.3561068E0,1.078942E0,1.0945096E0,1.9337816E0,2.156934E0,1.4422594E0],"tree_param":{"num_deleted":"0","num_feature":"8","num_nodes":"15","size_leaf_vector":"1"}},{"base_weights":[8.343558E-3,-1.214385E-2,4.2220154E-1,4.698122E-2,-1.8752283E-1,-1.5664836E-2,6.156036E-1,-7.84625E-4,5.8172114E-2,-9.299022E-2,-7.303824E-3,7.466685E-2,1.2732125E-2],"categories":[],"categories_nodes":[],"categories_segments":[],"categories_sizes":[],"default_left":[0,0,0,0,0,0,0,0,0,0,0,0,0],"id":69,"left_children":[1,3,5,7,9,-1,11,-1,-1,-1,-1,-1,-1],"loss_changes":[8.7408394E-1,1.0314596E0,6.4073944E-1,2.1904566E0,2.0624607E0,0E0,1.511426E-1,0E0,0E0,0E0,0E0,0E0,0E0],"parents":[2147483647,0,0,1,1,2,2,3,3,4,4,6,6],"right_children":[2,4,6,8,10,-1,12,-1,-1,-1,-1,-1,-1],"split_conditions":[2.0033639E-2,6.991108E-3,5.5436623E-1,5.418119E-3,7.6338844E-3,-1.5664836E-2,5.392322E-3,-7.84625E-4,5.8172114E-2,-9.299022E-2,-7.303824E-3,7.466685E-2,1.2732125E-2],"split_indices":[3,3,7,3,3,0,5,0,0,0,0,0,0],"split_type":[0,0,0,0,0,0,0,0,0,0,0,0,0],"sum_hessian":[1.0148488E2,9.762286E1,3.862014E0,7.355692E1,2.4065943E1,1.014792E0,2.8472219E0,6.761011E1,5.9468117E0,2.263792E0,2.180215E1,1.8275081E0,1.0197139E0],"tree_param":{"num_deleted":"0","num_feature":"8","num_nodes":"13","size_leaf_vector":"1"}},{"base_weights":[7.897709E-3,4.3787313E-1,-1.1206295E-2,-2.3868185E-2,8.2926214E-2,-3.072802E-1,2.9900234E-2,5.4529916E-2,-4.5855608E-2,-2.9157398E-2,8.5558845E-3],"categories":[],"categories_nodes":[],"categories_segments":[],"categories_sizes":[],"default_left":[0,0,0,0,0,0,0,0,0,0,0],"id":70,"left_children":[1,3,5,-1,-1,7,9,-1,-1,-1,-1],"loss_changes":[8.4557176E-1,1.3573744E0,1.2136315E0,0E0,0E0,1.8175547E0,1.5961146E0,0E0,0E0,0E0,0E0],"parents":[2147483647,0,0,1,1,2,2,5,5,6,6],"right_children":[2,4,6,-1,-1,8,10,-1,-1,-1,-1],"split_conditions":[-2.1825159E-2,-5.213031E-3,-1.0240961E-2,-2.3868185E-2,8.2926214E-2,9.293566E-3,5.245867E-1,5.4529916E-2,-4.5855608E-2,-2.9157398E-2,8.5558845E-3],"split_indices":[4,3,4,0,0,0,7,0,0,0,0],"split_type":[0,0,0,0,0,0,0,0,0,0,0],"sum_hessian":[1.0134224E2,3.3786306E0,9.796361E1,1.3812206E0,1.9974099E0,1.1153584E1,8.681003E1,1.2882782E0,9.865306E0,1.2186184E1,7.462384E1],"tree_param":{"num_deleted":"0","num_feature":"8","num_nodes":"11","size_leaf_vector":"1"}},{"base_weights":[7.662342E-3,-4.9418714E-2,1.4971998E-1,1.22522786E-1,-2.0068523E-1,5.6687653E-1,-1.06743366E-1,-1.1908159E-2,6.6300265E-2,3.1089408E-2,-4.3002132E-2,-4.8419874E-2,8.659651E-2,-8.754747E-2,2.273934E-2],"categories":[],"categories_nodes":[],"categories_segments":[],"categories_sizes":[],"default_left":[0,0,0,0,0,0,0,0,0,0,0,0,0,0,0],"id":71,"left_children":[1,3,5,7,9,11,13,-1,-1,-1,-1,-1,-1,-1,-1],"loss_changes":[8.3513397E-1,1.9380873E0,3.2174282E0,4.6562743E0,4.770026E0,4.000808E0,5.109007E0,0E0,0E0,0E0,0E0,0E0,0E0,0E0,0E0],"parents":[2147483647,0,0,1,1,2,2,3,3,4,4,5,5,6,6],"right_children":[2,4,6,8,10,12,14,-1,-1,-1,-1,-1,-1,-1,-1],"split_conditions":[6.2064687E-3,5.4477608E1,9.327936E-3,4.7705276E1,-1.464083E-3,-6.599572E-3,1.1531659E-2,-1.1908159E-2,6.6300265E-2,3.1089408E-2,-4.3002132E-2,-4.8419874E-2,8.659651E-2,-8.754747E-2,2.273934E-2],"split_indices":[6,1,6,1,5,5,6,0,0,0,0,0,0,0,0],"split_type":[0,0,0,0,0,0,0,0,0,0,0,0,0,0,0],"sum_hessian":[1.0107861E2,7.257066E1,2.8507946E1,3.4053165E1,3.85175E1,1.0392849E1,1.8115097E1,2.407215E1,9.981016E0,1.1812272E1,2.6705229E1,2.1651242E0,8.227725E0,4.9974985E0,1.3117598E1],"tree_param":{"num_deleted":"0","num_feature":"8","num_nodes":"15","size_leaf_vector":"1"}},{"base_weights":[7.4188104E-3,-2.968453E-2,2.5268567E-1,1.3152349E-2,-6.392269E-1,6.1528516E-1,-5.349728E-1,-1.3774251E-2,1.718475E-2,-1.1461987E-1,3.5920292E-2,8.539265E-3,8.464729E-2,-1.0671721E-1,6.79583E-2],"categories":[],"categories_nodes":[],"categories_segments":[],"categories_sizes":[],"default_left":[0,0,0,0,0,0,0,0,0,0,0,0,0,0,0],"id":72,"left_children":[1,3,5,7,9,11,13,-1,-1,-1,-1,-1,-1,-1,-1],"loss_changes":[9.340547E-1,2.3409677E0,4.180195E0,2.0458589E0,3.3910596E0,1.1158102E0,3.818479E0,0E0,0E0,0E0,0E0,0E0,0E0,0E0,0E0],"parents":[2147483647,0,0,1,1,2,2,3,3,4,4,5,5,6,6],"right_children":[2,4,6,8,10,12,14,-1,-1,-1,-1,-1,-1,-1,-1],"split_conditions":[7.478603E1,7.198827E1,8.86843E-3,4.4102952E-4,7.5072143E-3,1.6794035E-3,1.8484397E-2,-1.3774251E-2,1.718475E-2,-1.1461987E-1,3.5920292E-2,8.539265E-3,8.464729E-2,-1.0671721E-1,6.79583E-2],"split_indices":[1,1,5,5,5,2,5,0,0,0,0,0,0,0,0],"split_type":[0,0,0,0,0,0,0,0,0,0,0,0,0,0,0],"sum_hessian":[1.0081664E2,8.833285E1,1.2483796E1,8.344686E1,4.8859825E0,8.698345E0,3.7854507E0,4.2842354E1,4.0604507E1,3.1423783E0,1.743604E0,3.0581944E0,5.640151E0,2.7164798E0,1.0689709E0],"tree_param":{"num_deleted":"0","num_feature":"8","num_nodes":"15","size_leaf_vector":"1"}},{"base_weights":[6.6771386E-3,-5.0942108E-2,1.5287974E-1,-2.4823993E-2,-8.407452E-2,7.2885406E-1,1.7237073E-2,-5.2902712E-3,7.5749606E-2,8.3383724E-2,1.2914943E-2,-7.958742E-3,8.070638E-2],"categories":[],"categories_nodes":[],"categories_segments":[],"categories_sizes":[],"default_left":[0,0,0,0,0,0,0,0,0,0,0,0,0],"id":73,"left_children":[1,3,5,7,-1,9,11,-1,-1,-1,-1,-1,-1],"loss_changes":[8.6403126E-1,1.4985731E0,2.2518308E0,1.6289414E0,0E0,2.3860979E-1,1.9365757E0,0E0,0E0,0E0,0E0,0E0,0E0],"parents":[2147483647,0,0,1,1,2,2,3,3,5,5,6,6],"right_children":[2,4,6,8,-1,10,12,-1,-1,-1,-1,-1,-1],"split_conditions":[6.152985E-1,6.113431E-1,4.7705276E1,6.0941E-1,-8.407452E-2,6.8276706E-3,8.0954666E1,-5.2902712E-3,7.5749606E-2,8.3383724E-2,1.2914943E-2,-7.958742E-3,8.070638E-2],"split_indices":[7,7,1,7,0,3,1,0,0,0,0,0,0],"split_type":[0,0,0,0,0,0,0,0,0,0,0,0,0],"sum_hessian":[1.006423E2,7.265868E1,2.798362E1,7.1331245E1,1.3274329E0,4.5004005E0,2.348322E1,6.9759834E1,1.571415E0,3.4976883E0,1.002712E0,2.171983E1,1.7633893E0],"tree_param":{"num_deleted":"0","num_feature":"8","num_nodes":"13","size_leaf_vector":"1"}},{"base_weights":[7.741673E-3,-1.5637763E-2,3.359568E-1,7.7371867E-3,-4.2924836E-1,6.324274E-1,-2.5977507E-2,-3.4634874E-3,6.818764E-2,1.7770052E-2,-1.1829922E-1,5.2002533E-3,7.74901E-2],"categories":[],"categories_nodes":[],"categories_segments":[],"categories_sizes":[],"default_left":[0,0,0,0,0,0,0,0,0,0,0,0,0],"id":74,"left_children":[1,3,5,7,9,11,-1,-1,-1,-1,-1,-1,-1],"loss_changes":[7.834124E-1,9.27798E-1,1.3631115E0,2.6369545E0,2.558304E0,3.5857284E-1,0E0,0E0,0E0,0E0,0E0,0E0,0E0],"parents":[2147483647,0,0,1,1,2,2,3,3,4,4,5,5],"right_children":[2,4,6,8,10,12,-1,-1,-1,-1,-1,-1,-1],"split_conditions":[6.7933834E-1,1.8138705E-2,6.991108E-3,1.2798891E-2,5.522701E-3,-4.0369495E-3,-2.5977507E-2,-3.4634874E-3,6.818764E-2,1.7770052E-2,-1.1829922E-1,5.2002533E-3,7.74901E-2],"split_indices":[7,6,3,6,2,2,0,0,0,0,0,0,0],"split_type":[0,0,0,0,0,0,0,0,0,0,0,0,0],"sum_hessian":[1.0040878E2,9.4621086E1,5.7876983E0,9.048848E1,4.1326075E0,3.8233707E0,1.9643276E0,8.6029816E1,4.458658E0,2.7125673E0,1.4200399E0,1.0225576E0,2.8008132E0],"tree_param":{"num_deleted":"0","num_feature":"8","num_nodes":"13","size_leaf_vector":"1"}},{"base_weights":[7.3123607E-3,-1.189626E-2,4.0231884E-1,1.9230771E-1,-5.465309E-2,7.2677076E-2,-4.302703E-3,-2.6137713E-2,5.973644E-2,-4.239422E-2,3.6188125E-4,-2.3455821E-2,2.191852E-2],"categories":[],"categories_nodes":[],"categories_segments":[],"categories_sizes":[],"default_left":[0,0,0,0,0,0,0,0,0,0,0,0,0],"id":75,"left_children":[1,3,5,7,9,-1,11,-1,-1,-1,-1,-1,-1],"loss_changes":[7.7261394E-1,8.6157113E-1,6.260355E-1,3.2980685E0,1.7527053E0,0E0,2.1039748E-1,0E0,0E0,0E0,0E0,0E0,0E0],"parents":[2147483647,0,0,1,1,2,2,3,3,4,4,6,6],"right_children":[2,4,6,8,10,-1,12,-1,-1,-1,-1,-1,-1],"split_conditions":[2.0033639E-2,-7.076408E-3,2.7832856E-2,1.3215579E-2,-3.3880465E-3,7.2677076E-2,1.4285678E-2,-2.6137713E-2,5.973644E-2,-4.239422E-2,3.6188125E-4,-2.3455821E-2,2.191852E-2],"split_indices":[3,2,3,0,2,0,0,0,0,0,0,0,0],"split_type":[0,0,0,0,0,0,0,0,0,0,0,0,0],"sum_hessian":[1.0019603E2,9.647449E1,3.721538E0,1.6097261E1,8.037723E1,1.6319952E0,2.0895429E0,7.7601724E0,8.337088E0,1.0099292E1,7.027794E1,1.0047909E0,1.084752E0],"tree_param":{"num_deleted":"0","num_feature":"8","num_nodes":"13","size_leaf_vector":"1"}},{"base_weights":[7.3432634E-3,-2.567573E-2,2.2968477E-1,-9.980772E-2,2.616508E-1,5.7266474E-1,-4.9713343E-1,-4.6008234E-3,-8.947695E-2,-3.013628E-3,9.216054E-2,8.642399E-2,1.1699553E-2,-9.813952E-2,6.473091E-2],"categories":[],"categories_nodes":[],"categories_segments":[],"categories_sizes":[],"default_left":[0,0,0,0,0,0,0,0,0,0,0,0,0,0,0],"id":76,"left_children":[1,3,5,7,9,11,13,-1,-1,-1,-1,-1,-1,-1,-1],"loss_changes":[7.470436E-1,1.9175403E0,3.563806E0,3.008698E0,3.5879407E0,1.147999E0,3.2691748E0,0E0,0E0,0E0,0E0,0E0,0E0,0E0,0E0],"parents":[2147483647,0,0,1,1,2,2,3,3,4,4,5,5,6,6],"right_children":[2,4,6,8,10,12,14,-1,-1,-1,-1,-1,-1,-1,-1],"split_conditions":[7.478603E1,9.093166E-3,8.86843E-3,7.198827E1,3.4675002E-3,8.023549E1,1.8484397E-2,-4.6008234E-3,-8.947695E-2,-3.013628E-3,9.216054E-2,8.642399E-2,1.1699553E-2,-9.813952E-2,6.473091E-2],"split_indices":[1,5,5,1,4,1,5,0,0,0,0,0,0,0,0],"split_type":[0,0,0,0,0,0,0,0,0,0,0,0,0,0,0],"sum_hessian":[9.995309E1,8.779896E1,1.2154129E1,7.031094E1,1.7488016E1,8.401581E0,3.7525482E0,6.684504E1,3.465901E0,1.2788254E1,4.699762E0,4.5765095E0,3.8250709E0,2.736914E0,1.0156344E0],"tree_param":{"num_deleted":"0","num_feature":"8","num_nodes":"15","size_leaf_vector":"1"}},{"base_weights":[7.4300715E-3,-9.5239E-2,8.130264E-2,-6.704181E-1,7.604593E-4,4.8174614E-1,-3.9193083E-2,-1.2244667E-1,1.6275194E-2,1.3943434E-2,-4.0062323E-2,-4.354934E-3,8.733522E-2,-1.7664013E-2,4.695544E-2],"categories":[],"categories_nodes":[],"categories_segments":[],"categories_sizes":[],"default_left":[0,0,0,0,0,0,0,0,0,0,0,0,0,0,0],"id":77,"left_children":[1,3,5,7,9,11,13,-1,-1,-1,-1,-1,-1,-1,-1],"loss_changes":[7.7178633E-1,2.3535101E0,2.8717458E0,3.0134065E0,2.144141E0,2.8667445E0,3.3256533E0,0E0,0E0,0E0,0E0,0E0,0E0,0E0,0E0],"parents":[2147483647,0,0,1,1,2,2,3,3,4,4,5,5,6,6],"right_children":[2,4,6,8,10,12,14,-1,-1,-1,-1,-1,-1,-1,-1],"split_conditions":[5.674943E-1,-1.1988005E-2,-5.542485E-3,3.229138E-3,8.812222E-3,-1.2493255E-3,7.678287E-3,-1.2244667E-1,1.6275194E-2,1.3943434E-2,-4.0062323E-2,-4.354934E-3,8.733522E-2,-1.7664013E-2,4.695544E-2],"split_indices":[7,3,3,2,3,4,5,0,0,0,0,0,0,0,0],"split_type":[0,0,0,0,0,0,0,0,0,0,0,0,0,0,0],"sum_hessian":[9.9738396E1,4.161378E1,5.8124615E1,5.0962324E0,3.6517548E1,1.275104E1,4.5373573E1,2.7787485E0,2.3174841E0,2.7625755E1,8.891794E0,5.825534E0,6.9255066E0,3.6236454E1,9.137119E0],"tree_param":{"num_deleted":"0","num_feature":"8","num_nodes":"15","size_leaf_vector":"1"}},{"base_weights":[6.722114E-3,-1.2068826E-2,3.974833E-1,-4.7366418E-2,2.1693714E-1,-1.6219025E-2,5.960873E-1,8.85869E-4,-7.797914E-2,5.107181E-2,-2.1177225E-2,7.109549E-2,1.4708208E-2],"categories":[],"categories_nodes":[],"categories_segments":[],"categories_sizes":[],"default_left":[0,0,0,0,0,0,0,0,0,0,0,0,0],"id":78,"left_children":[1,3,5,7,9,-1,11,-1,-1,-1,-1,-1,-1],"loss_changes":[7.418705E-1,7.92306E-1,6.1188775E-1,3.4926953E0,1.7580005E0,0E0,8.291066E-2,0E0,0E0,0E0,0E0,0E0,0E0],"parents":[2147483647,0,0,1,1,2,2,3,3,4,4,6,6],"right_children":[2,4,6,8,10,-1,12,-1,-1,-1,-1,-1,-1],"split_conditions":[2.0033639E-2,1.1531659E-2,5.5436623E-1,9.327936E-3,1.4096479E-2,-1.6219025E-2,4.2010783E-3,8.85869E-4,-7.797914E-2,5.107181E-2,-2.1177225E-2,7.109549E-2,1.4708208E-2],"split_indices":[3,6,7,6,0,0,5,0,0,0,0,0,0],"split_type":[0,0,0,0,0,0,0,0,0,0,0,0,0],"sum_hessian":[9.9380844E1,9.5745735E1,3.6351101E0,8.364618E1,1.2099551E1,1.0001104E0,2.635E0,7.860028E1,5.0458994E0,7.066091E0,5.03346E0,1.6336644E0,1.0013355E0],"tree_param":{"num_deleted":"0","num_feature":"8","num_nodes":"13","size_leaf_vector":"1"}},{"base_weights":[6.35793E-3,-4.6653222E-2,1.42465E-1,-2.1328004E-2,-7.99125E-2,7.058476E-1,1.590182E-2,-4.774749E-3,7.340743E-2,8.124465E-2,1.3054076E-2,1.5033982E-2,-5.1981103E-2],"categories":[],"categories_nodes":[],"categories_segments":[],"categories_sizes":[],"default_left":[0,0,0,0,0,0,0,0,0,0,0,0,0],"id":79,"left_children":[1,3,5,7,-1,9,11,-1,-1,-1,-1,-1,-1],"loss_changes":[7.302625E-1,1.3727814E0,2.0108607E0,1.4636866E0,0E0,2.1156001E-1,1.819579E0,0E0,0E0,0E0,0E0,0E0,0E0],"parents":[2147483647,0,0,1,1,2,2,3,3,5,5,6,6],"right_children":[2,4,6,8,-1,10,12,-1,-1,-1,-1,-1,-1],"split_conditions":[6.152985E-1,6.113431E-1,4.7705276E1,6.0941E-1,-7.99125E-2,6.8276706E-3,1.6770514E-2,-4.774749E-3,7.340743E-2,8.124465E-2,1.3054076E-2,1.5033982E-2,-5.1981103E-2],"split_indices":[7,7,1,7,0,3,0,0,0,0,0,0,0],"split_type":[0,0,0,0,0,0,0,0,0,0,0,0,0],"sum_hessian":[9.929062E1,7.193177E1,2.7358845E1,7.058452E1,1.3472513E0,4.179079E0,2.3179766E1,6.9104454E1,1.4800712E0,3.1780248E0,1.0010544E0,1.9104761E1,4.075005E0],"tree_param":{"num_deleted":"0","num_feature":"8","num_nodes":"13","size_leaf_vector":"1"}},{"base_weights":[6.370911E-3,-2.8380722E-1,3.186323E-2,-6.575121E-1,3.556826E-1,4.8674762E-1,-1.0660219E-2,-8.756863E-2,4.1839383E-3,8.56631E-2,-4.449031E-2,8.422452E-2,-1.3444222E-2,-1.6351784E-2,1.0407667E-2],"categories":[],"categories_nodes":[],"categories_segments":[],"categories_sizes":[],"default_left":[0,0,0,0,0,0,0,0,0,0,0,0,0,0,0],"id":80,"left_children":[1,3,5,7,9,11,13,-1,-1,-1,-1,-1,-1,-1,-1],"loss_changes":[7.491177E-1,2.188797E0,1.8015218E0,8.779888E-1,1.8514377E0,1.8711766E0,1.523665E0,0E0,0E0,0E0,0E0,0E0,0E0,0E0,0E0],"parents":[2147483647,0,0,1,1,2,2,3,3,4,4,5,5,6,6],"right_children":[2,4,6,8,10,12,14,-1,-1,-1,-1,-1,-1,-1,-1],"split_conditions":[7.92324E-3,2.6247646E-3,8.598943E-3,4.7211964E-3,6.9323964E-3,1.608959E-3,-2.8722946E-4,-8.756863E-2,4.1839383E-3,8.56631E-2,-4.449031E-2,8.422452E-2,-1.3444222E-2,-1.6351784E-2,1.0407667E-2],"split_indices":[0,2,0,6,0,3,5,0,0,0,0,0,0,0,0],"split_type":[0,0,0,0,0,0,0,0,0,0,0,0,0,0,0],"sum_hessian":[9.904642E1,7.1802983E0,9.186612E1,4.5141425E0,2.6661556E0,6.960566E0,8.4905556E1,3.24856E0,1.2655826E0,1.5969161E0,1.0692396E0,4.200707E0,2.759859E0,3.6222782E1,4.868277E1],"tree_param":{"num_deleted":"0","num_feature":"8","num_nodes":"15","size_leaf_vector":"1"}},{"base_weights":[6.0719964E-3,-1.8097367E-2,3.1416577E-1,8.162234E-3,-7.281383E-1,7.750126E-1,-1.4550486E-1,-3.5368556E-3,4.5818254E-2,-1.2483081E-2,-1.02293395E-1,2.4877861E-2,9.010076E-2,-6.12458E-2,5.090952E-2],"categories":[],"categories_nodes":[],"categories_segments":[],"categories_sizes":[],"default_left":[0,0,0,0,0,0,0,0,0,0,0,0,0,0,0],"id":81,"left_children":[1,3,5,7,9,11,13,-1,-1,-1,-1,-1,-1,-1,-1],"loss_changes":[7.501622E-1,1.7520958E0,1.6649041E0,1.8047401E0,4.6830153E-1,2.891922E-2,1.6903949E0,0E0,0E0,0E0,0E0,0E0,0E0,0E0,0E0],"parents":[2147483647,0,0,1,1,2,2,3,3,4,4,5,5,6,6],"right_children":[2,4,6,8,10,12,14,-1,-1,-1,-1,-1,-1,-1,-1],"split_conditions":[2.0738184E-2,1.9517733E-2,-4.8658435E-4,1.6704202E-2,2.6247646E-3,-2.2466506E-3,6.3782703E1,-3.5368556E-3,4.5818254E-2,-1.2483081E-2,-1.02293395E-1,2.4877861E-2,9.010076E-2,-6.12458E-2,5.090952E-2],"split_indices":[0,0,5,2,2,2,1,0,0,0,0,0,0,0,0],"split_type":[0,0,0,0,0,0,0,0,0,0,0,0,0,0,0],"sum_hessian":[9.897764E1,9.2650635E1,6.3270035E0,9.029957E1,2.3510644E0,2.816889E0,3.5101144E0,8.317536E1,7.124206E0,1.2389559E0,1.1121086E0,1.1187595E0,1.6981295E0,2.0862703E0,1.423844E0],"tree_param":{"num_deleted":"0","num_feature":"8","num_nodes":"15","size_leaf_vector":"1"}},{"base_weights":[5.891911E-3,4.1807845E-1,-1.2163724E-2,-2.1208636E-2,7.942786E-2,-4.0157083E-2,3.6776435E-1,-3.6175296E-2,1.272288E-3,6.436188E-2,-3.551031E-2],"categories":[],"categories_nodes":[],"categories_segments":[],"categories_sizes":[],"default_left":[0,0,0,0,0,0,0,0,0,0,0],"id":82,"left_children":[1,3,5,-1,-1,7,9,-1,-1,-1,-1],"loss_changes":[7.485527E-1,1.1690247E0,1.0429736E0,0E0,0E0,1.5511978E0,1.5711223E0,0E0,0E0,0E0,0E0],"parents":[2147483647,0,0,1,1,2,2,5,5,6,6],"right_children":[2,4,6,-1,-1,8,10,-1,-1,-1,-1],"split_conditions":[-2.1825159E-2,-5.213031E-3,2.0738184E-2,-2.1208636E-2,7.942786E-2,-8.637797E-3,2.6827348E-2,-3.6175296E-2,1.272288E-3,6.436188E-2,-3.551031E-2],"split_indices":[4,3,0,0,0,5,0,0,0,0,0],"split_type":[0,0,0,0,0,0,0,0,0,0,0],"sum_hessian":[9.889765E1,3.2205977E0,9.5677055E1,1.3670021E0,1.8535955E0,8.994421E1,5.732847E0,1.1876263E1,7.806794E1,4.2287426E0,1.504105E0],"tree_param":{"num_deleted":"0","num_feature":"8","num_nodes":"11","size_leaf_vector":"1"}},{"base_weights":[5.9283185E-3,-6.8765436E-3,5.6470405E-2,-2.983403E-1,1.8439552E-2,-6.5950796E-2,3.292661E-2,4.556795E-2,-2.237217E-3],"categories":[],"categories_nodes":[],"categories_segments":[],"categories_sizes":[],"default_left":[0,0,0,0,0,0,0,0,0],"id":83,"left_children":[1,3,-1,5,7,-1,-1,-1,-1],"loss_changes":[7.1804357E-1,7.327782E-1,0E0,2.0158234E0,1.6452675E0,0E0,0E0,0E0,0E0],"parents":[2147483647,0,0,1,1,3,3,4,4],"right_children":[2,4,-1,6,8,-1,-1,-1,-1],"split_conditions":[7.909424E-1,7.92324E-3,5.6470405E-2,2.6247646E-3,8.598943E-3,-6.5950796E-2,3.292661E-2,4.556795E-2,-2.237217E-3],"split_indices":[7,0,0,2,0,0,0,0,0],"split_type":[0,0,0,0,0,0,0,0,0],"sum_hessian":[9.881212E1,9.756404E1,1.2480767E0,6.935152E0,9.062889E1,4.3696985E0,2.5654538E0,6.869244E0,8.375965E1],"tree_param":{"num_deleted":"0","num_feature":"8","num_nodes":"9","size_leaf_vector":"1"}},{"base_weights":[6.061739E-3,-9.453726E-2,7.87662E-2,-3.514992E-1,9.110188E-2,4.5018452E-1,-3.007327E-2,-8.333676E-2,-2.3308713E-3,3.6298387E-2,-3.7450608E-2,-4.499885E-3,8.3574265E-2,3.4982678E-2,-2.1485586E-2],"categories":[],"categories_nodes":[],"categories_segments":[],"categories_sizes":[],"default_left":[0,0,0,0,0,0,0,0,0,0,0,0,0,0,0],"id":84,"left_children":[1,3,5,7,9,11,13,-1,-1,-1,-1,-1,-1,-1,-1],"loss_changes":[7.371363E-1,2.0502326E0,2.3766897E0,2.8194628E0,3.3459358E0,2.5789168E0,3.3146303E0,0E0,0E0,0E0,0E0,0E0,0E0,0E0,0E0],"parents":[2147483647,0,0,1,1,2,2,3,3,4,4,5,5,6,6],"right_children":[2,4,6,8,10,12,14,-1,-1,-1,-1,-1,-1,-1,-1],"split_conditions":[5.674943E-1,-2.1689713E-3,-5.542485E-3,-3.3880465E-3,8.812222E-3,-1.2493255E-3,1.0548166E-2,-8.333676E-2,-2.3308713E-3,3.6298387E-2,-3.7450608E-2,-4.499885E-3,8.3574265E-2,3.4982678E-2,-2.1485586E-2],"split_indices":[7,3,3,2,3,4,0,0,0,0,0,0,0,0,0],"split_type":[0,0,0,0,0,0,0,0,0,0,0,0,0,0,0],"sum_hessian":[9.876625E1,4.1308548E1,5.7457706E1,1.695121E1,2.435734E1,1.2310723E1,4.514698E1,6.24405E0,1.0707159E1,1.5516951E1,8.840389E0,5.775882E0,6.534842E0,1.4481287E1,3.0665693E1],"tree_param":{"num_deleted":"0","num_feature":"8","num_nodes":"15","size_leaf_vector":"1"}},{"base_weights":[5.730274E-3,-1.3482524E-2,4.044978E-1,1.8589947E-1,-5.4704614E-2,7.22846E-2,8.258052E-3,-2.4393035E-2,5.7772603E-2,-6.581021E-2,-2.6413598E-3,-2.0223843E-2,2.151385E-2],"categories":[],"categories_nodes":[],"categories_segments":[],"categories_sizes":[],"default_left":[0,0,0,0,0,0,0,0,0,0,0,0,0],"id":85,"left_children":[1,3,5,7,9,-1,11,-1,-1,-1,-1,-1,-1],"loss_changes":[7.6685566E-1,7.9738533E-1,5.7433355E-1,2.9429452E0,1.3507242E0,0E0,1.768095E-1,0E0,0E0,0E0,0E0,0E0,0E0],"parents":[2147483647,0,0,1,1,2,2,3,3,4,4,6,6],"right_children":[2,4,6,8,10,-1,12,-1,-1,-1,-1,-1,-1],"split_conditions":[2.0033639E-2,-7.076408E-3,-2.4817467E-3,1.3215579E-2,-5.9145107E-3,7.22846E-2,-8.637797E-3,-2.4393035E-2,5.7772603E-2,-6.581021E-2,-2.6413598E-3,-2.0223843E-2,2.151385E-2],"split_indices":[3,2,6,0,2,0,2,0,0,0,0,0,0],"split_type":[0,0,0,0,0,0,0,0,0,0,0,0,0],"sum_hessian":[9.838105E1,9.478067E1,3.6003854E0,1.5637223E1,7.914345E1,1.539362E0,2.0610235E0,7.636983E0,8.00024E0,2.5475173E0,7.6595924E1,1.0327055E0,1.0283179E0],"tree_param":{"num_deleted":"0","num_feature":"8","num_nodes":"13","size_leaf_vector":"1"}},{"base_weights":[5.6685572E-3,4.1541559E-1,-1.1985428E-2,-1.799525E-2,7.7472806E-2,-1.2821941E-1,7.203061E-2,-6.978368E-2,-3.2756578E-3,4.4506613E-2,-3.1421918E-3],"categories":[],"categories_nodes":[],"categories_segments":[],"categories_sizes":[],"default_left":[0,0,0,0,0,0,0,0,0,0,0],"id":86,"left_children":[1,3,5,-1,-1,7,9,-1,-1,-1,-1],"loss_changes":[7.2240585E-1,1.0217764E0,9.472548E-1,0E0,0E0,2.1881108E0,2.1903274E0,0E0,0E0,0E0,0E0],"parents":[2147483647,0,0,1,1,2,2,5,5,6,6],"right_children":[2,4,6,-1,-1,8,10,-1,-1,-1,-1],"split_conditions":[-2.1825159E-2,-5.213031E-3,5.674943E-1,-1.799525E-2,7.7472806E-2,-1.1988005E-2,-5.542485E-3,-6.978368E-2,-3.2756578E-3,4.4506613E-2,-3.1421918E-3],"split_indices":[4,3,7,0,0,3,3,0,0,0,0],"split_type":[0,0,0,0,0,0,0,0,0,0,0],"sum_hessian":[9.8178856E1,3.1246686E0,9.505419E1,1.3639038E0,1.7607648E0,3.9659786E1,5.53944E1,4.7868834E0,3.4872902E1,1.1309996E1,4.4084408E1],"tree_param":{"num_deleted":"0","num_feature":"8","num_nodes":"11","size_leaf_vector":"1"}},{"base_weights":[5.4886113E-3,-4.839435E-2,1.4075844E-1,9.96245E-2,-2.130119E-1,9.544679E-2,2.6172025E-2,-1.0746557E-3,9.371547E-2,1.3796045E-2,-4.785636E-2,7.978217E-2,-9.249182E-3],"categories":[],"categories_nodes":[],"categories_segments":[],"categories_sizes":[],"default_left":[0,0,0,0,0,0,0,0,0,0,0,0,0],"id":87,"left_children":[1,3,5,7,9,-1,11,-1,-1,-1,-1,-1,-1],"loss_changes":[7.2742933E-1,1.7621491E0,2.624868E0,3.550656E0,3.2484553E0,0E0,2.4490185E0,0E0,0E0,0E0,0E0,0E0,0E0],"parents":[2147483647,0,0,1,1,2,2,3,3,4,4,6,6],"right_children":[2,4,6,8,10,-1,12,-1,-1,-1,-1,-1,-1],"split_conditions":[6.2064687E-3,-2.549447E-3,6.996652E-3,-3.8486866E-3,5.4477608E1,9.544679E-2,-1.2032771E-2,-1.0746557E-3,9.371547E-2,1.3796045E-2,-4.785636E-2,7.978217E-2,-9.249182E-3],"split_indices":[6,6,6,6,1,0,4,0,0,0,0,0,0],"split_type":[0,0,0,0,0,0,0,0,0,0,0,0,0],"sum_hessian":[9.786724E1,7.04476E1,2.741964E1,3.7301815E1,3.3145786E1,2.4798524E0,2.4939787E1,3.3830715E1,3.4710968E0,1.4483639E1,1.8662148E1,2.561225E0,2.2378563E1],"tree_param":{"num_deleted":"0","num_feature":"8","num_nodes":"13","size_leaf_vector":"1"}},