{"learner":{"attributes":{"scikit_learn":"{\"_estimator_type\": \"classifier\"}"},"feature_names":[],"feature_types":[],"gradient_booster":{"model":{"cats":{"enc":[],"feature_segments":[],"sorted_idx":[]},"gbtree_model_param":{"num_parallel_tree":"1","num_trees":"100"},"iteration_indptr":[0,1,2,3,4,5,6,7,8,9,10,11,12,13,14,15,16,17,18,19,20,21,22,23,24,25,26,27,28,29,30,31,32,33,34,35,36,37,38,39,40,41,42,43,44,45,46,47,48,49,50,51,52,53,54,55,56,57,58,59,60,61,62,63,64,65,66,67,68,69,70,71,72,73,74,75,76,77,78,79,80,81,82,83,84,85,86,87,88,89,90,91,92,93,94,95,96,97,98,99,100],"tree_info":[0,0,0,0,0,0,0,0,0,0,0,0,0,0,0,0,0,0,0,0,0,0,0,0,0,0,0,0,0,0,0,0,0,0,0,0,0,0,0,0,0,0,0,0,0,0,0,0,0,0,0,0,0,0,0,0,0,0,0,0,0,0,0,0,0,0,0,0,0,0,0,0,0,0,0,0,0,0,0,0,0,0,0,0,0,0,0,0,0,0,0,0,0,0,0,0,0,0,0,0],"trees":[{"base_weights":[1.02809366E-7,-9.239194E-2,1.1883731E0,6.1779267E-1,-1.7889132E-1,4.3403643E-1,1.4085892E-1,1.4279322E-1,1.5941268E-2,-7.890881E-2,-5.4507786E-3,1.0442585E-1,-2.7469695E-2],"categories":[],"categories_nodes":[],"categories_segments":[],"categories_sizes":[],"default_left":[0,0,0,0,0,0,0,0,0,0,0,0,0],"id":0,"left_children":[1,3,5,7,9,11,-1,-1,-1,-1,-1,-1,-1],"loss_changes":[2.1243364E1,1.1138689E1,1.7071648E0,7.0939746E0,1.2161953E1,2.2759588E0,0E0,0E0,0E0,0E0,0E0,0E0,0E0],"parents":[2147483647,0,0,1,1,2,2,3,3,4,4,5,5],"right_children":[2,4,6,8,10,12,-1,-1,-1,-1,-1,-1,-1],"split_conditions":[2.819188E-2,7.92324E-3,4.9452095E1,5.1597637E1,9.840682E-3,4.045939E1,1.4085892E-1,1.4279322E-1,1.5941268E-2,-7.890881E-2,-5.4507786E-3,1.0442585E-1,-2.7469695E-2],"split_indices":[0,0,1,1,0,1,0,0,0,0,0,0,0],"split_type":[0,0,0,0,0,0,0,0,0,0,0,0,0],"sum_hessian":[1.9147997E2,1.7852267E2,1.2957291E1,1.8716085E1,1.5980658E2,3.5992475E0,9.358043E0,5.9987454E0,1.271734E1,2.6154531E1,1.3365205E2,1.6796488E0,1.9195986E0],"tree_param":{"num_deleted":"0","num_feature":"7","num_nodes":"13","size_leaf_vector":"1"}},{"base_weights":[1.7896036E-3,-8.244342E-2,1.1132554E0,6.020239E-1,-1.5794244E-1,4.103964E-1,1.3220252E-1,1.3087787E-1,2.418957E-2,-6.5975435E-2,-4.9041687E-3,8.453222E-2,-4.3886628E-2],"categories":[],"categories_nodes":[],"categories_segments":[],"categories_sizes":[],"default_left":[0,0,0,0,0,0,0,0,0,0,0,0,0],"id":1,"left_children":[1,3,5,7,9,11,-1,-1,-1,-1,-1,-1,-1],"loss_changes":[1.8107613E1,9.386864E0,1.4567356E0,4.282813E0,8.860767E0,2.0591462E0,0E0,0E0,0E0,0E0,0E0,0E0,0E0],"parents":[2147483647,0,0,1,1,2,2,3,3,4,4,5,5],"right_children":[2,4,6,8,10,12,-1,-1,-1,-1,-1,-1,-1],"split_conditions":[2.819188E-2,7.8118723E-3,4.9452095E1,5.1597637E1,9.840682E-3,4.688587E1,1.3220252E-1,1.3087787E-1,2.418957E-2,-6.5975435E-2,-4.9041687E-3,8.453222E-2,-4.3886628E-2],"split_indices":[0,0,1,1,0,1,0,0,0,0,0,0,0],"split_type":[0,0,0,0,0,0,0,0,0,0,0,0,0],"sum_hessian":[1.9143135E2,1.7880626E2,1.2625104E1,1.7070719E1,1.6173553E2,3.57043E0,9.054673E0,4.8730717E0,1.2197646E1,2.7938292E1,1.3379724E2,2.3642738E0,1.2061563E0],"tree_param":{"num_deleted":"0","num_feature":"7","num_nodes":"13","size_leaf_vector":"1"}},{"base_weights":[3.1951813E-3,-7.881053E-2,9.829506E-1,5.355054E-1,-1.522117E-1,4.91574E-1,1.2441646E-1,1.2950008E-1,1.2642366E-2,6.537735E-2,-2.1237025E-2,9.123423E-2,-2.657972E-3],"categories":[],"categories_nodes":[],"categories_segments":[],"categories_sizes":[],"default_left":[0,0,0,0,0,0,0,0,0,0,0,0,0],"id":2,"left_children":[1,3,5,7,9,11,-1,-1,-1,-1,-1,-1,-1],"loss_changes":[1.5519948E1,8.120509E0,1.3033171E0,5.817062E0,7.8983116E0,1.5136379E0,0E0,0E0,0E0,0E0,0E0,0E0,0E0],"parents":[2147483647,0,0,1,1,2,2,3,3,4,4,5,5],"right_children":[2,4,6,8,10,12,-1,-1,-1,-1,-1,-1,-1],"split_conditions":[2.6827348E-2,7.92324E-3,5.5419426E1,5.1597637E1,2.5501652E1,4.7273674E1,1.2441646E-1,1.2950008E-1,1.2642366E-2,6.537735E-2,-2.1237025E-2,9.123423E-2,-2.657972E-3],"split_indices":[0,0,1,1,1,1,0,0,0,0,0,0,0],"split_type":[0,0,0,0,0,0,0,0,0,0,0,0,0],"sum_hessian":[1.9120085E2,1.7728189E2,1.3918965E1,1.8249643E1,1.5903224E2,5.8313446E0,8.08762E0,5.6305046E0,1.2619139E1,1.0360332E1,1.486719E2,2.7982562E0,3.0330887E0],"tree_param":{"num_deleted":"0","num_feature":"7","num_nodes":"13","size_leaf_vector":"1"}},{"base_weights":[5.219448E-3,-6.511008E-2,9.9011415E-1,-1.6268547E-1,-3.9086618E-2,3.3658677E-1,1.1955118E-1,6.904956E-2,-8.76005E-3,9.157773E-2,-2.8903967E-2],"categories":[],"categories_nodes":[],"categories_segments":[],"categories_sizes":[],"default_left":[0,0,0,0,0,0,0,0,0,0,0],"id":3,"left_children":[1,3,5,-1,7,9,-1,-1,-1,-1,-1],"loss_changes":[1.3359975E1,7.2556562E0,1.3231249E0,0E0,6.3665643E0,1.8829257E0,0E0,0E0,0E0,0E0,0E0],"parents":[2147483647,0,0,1,1,2,2,4,4,5,5],"right_children":[2,4,6,-1,8,10,-1,-1,-1,-1,-1],"split_conditions":[2.819188E-2,-4.6110943E-2,4.9452095E1,-1.6268547E-1,2.5501652E1,4.045939E1,1.1955118E-1,6.904956E-2,-8.76005E-3,9.157773E-2,-2.8903967E-2],"split_indices":[0,3,1,0,1,1,0,0,0,0,0],"split_type":[0,0,0,0,0,0,0,0,0,0,0],"sum_hessian":[1.909453E2,1.7909065E2,1.1854644E1,1.9270618E0,1.7716359E2,3.465845E0,8.388799E0,1.0220989E1,1.669426E2,1.5588869E0,1.9069581E0],"tree_param":{"num_deleted":"0","num_feature":"7","num_nodes":"11","size_leaf_vector":"1"}},{"base_weights":[5.310855E-3,-6.3545965E-2,8.780127E-1,-2.1179589E-3,-7.5632125E-1,1.5924543E-1,1.0095099E0,5.312263E-2,-6.5400265E-3,-5.3971955E-5,-1.0543157E-1,4.301715E-2,-2.22929E-2,4.1449334E-2,1.1631862E-1],"categories":[],"categories_nodes":[],"categories_segments":[],"categories_sizes":[],"default_left":[0,0,0,0,0,0,0,0,0,0,0,0,0,0,0],"id":4,"left_children":[1,3,5,7,9,11,13,-1,-1,-1,-1,-1,-1,-1,-1],"loss_changes":[1.1573276E1,7.598086E0,1.1704159E0,5.6050305E0,3.2746143E0,4.4436136E-1,5.894232E-1,0E0,0E0,0E0,0E0,0E0,0E0,0E0,0E0],"parents":[2147483647,0,0,1,1,2,2,3,3,4,4,5,5,6,6],"right_children":[2,4,6,8,10,12,14,-1,-1,-1,-1,-1,-1,-1,-1],"split_conditions":[2.6827348E-2,2.0315476E-2,-2.8524294E-2,7.8118723E-3,-8.637797E-3,8.812222E-3,4.806854E1,5.312263E-2,-6.5400265E-3,-5.3971955E-5,-1.0543157E-1,4.301715E-2,-2.22929E-2,4.1449334E-2,1.1631862E-1],"split_indices":[0,0,6,0,5,3,1,0,0,0,0,0,0,0,0],"split_type":[0,0,0,0,0,0,0,0,0,0,0,0,0,0,0],"sum_hessian":[1.9066583E2,1.775817E2,1.3084142E1,1.6403946E2,1.35422325E1,2.365465E0,1.0718677E1,1.6614836E1,1.4742462E2,4.1128707E0,9.429361E0,1.3107067E0,1.0547582E0,2.9589913E0,7.7596855E0],"tree_param":{"num_deleted":"0","num_feature":"7","num_nodes":"15","size_leaf_vector":"1"}},{"base_weights":[5.610015E-3,-5.376737E-2,8.933825E-1,-1.4624779E-1,-2.990746E-2,2.9071024E-1,1.0954811E-1,6.4517915E-2,-7.4190623E-3,8.6101115E-2,-2.9805196E-2],"categories":[],"categories_nodes":[],"categories_segments":[],"categories_sizes":[],"default_left":[0,0,0,0,0,0,0,0,0,0,0],"id":5,"left_children":[1,3,5,-1,7,9,-1,-1,-1,-1,-1],"loss_changes":[1.0133873E1,6.0158195E0,1.1493988E0,0E0,5.3781223E0,1.729885E0,0E0,0E0,0E0,0E0,0E0],"parents":[2147483647,0,0,1,1,2,2,4,4,5,5],"right_children":[2,4,6,-1,8,10,-1,-1,-1,-1,-1],"split_conditions":[2.819188E-2,-4.6110943E-2,4.9452095E1,-1.4624779E-1,2.5501652E1,4.045939E1,1.0954811E-1,6.4517915E-2,-7.4190623E-3,8.6101115E-2,-2.9805196E-2],"split_indices":[0,3,1,0,1,1,0,0,0,0,0],"split_type":[0,0,0,0,0,0,0,0,0,0,0],"sum_hessian":[1.9033273E2,1.792812E2,1.105153E1,1.9817632E0,1.7729944E2,3.3876817E0,7.663848E0,1.00789385E1,1.672205E2,1.485933E0,1.9017488E0],"tree_param":{"num_deleted":"0","num_feature":"7","num_nodes":"11","size_leaf_vector":"1"}},{"base_weights":[5.6253276E-3,-4.8825495E-2,8.504009E-1,4.9420276E-1,-1.0618818E-1,2.7749163E-1,1.0488274E0,1.1648035E-1,1.7696084E-2,-5.5923995E-2,-7.5598055E-4,8.2743466E-2,-2.7732635E-2,3.5300475E-2,1.13372006E-1],"categories":[],"categories_nodes":[],"categories_segments":[],"categories_sizes":[],"default_left":[0,0,0,0,0,0,0,0,0,0,0,0,0,0,0],"id":6,"left_children":[1,3,5,7,9,11,13,-1,-1,-1,-1,-1,-1,-1,-1],"loss_changes":[8.825557E0,5.6701427E0,1.0296583E0,3.4971762E0,7.3211155E0,1.5562456E0,8.825874E-2,0E0,0E0,0E0,0E0,0E0,0E0,0E0,0E0],"parents":[2147483647,0,0,1,1,2,2,3,3,4,4,5,5,6,6],"right_children":[2,4,6,8,10,12,14,-1,-1,-1,-1,-1,-1,-1,-1],"split_conditions":[2.819188E-2,7.8118723E-3,4.9452095E1,5.1597637E1,9.840682E-3,4.045939E1,-2.8524294E-2,1.1648035E-1,1.7696084E-2,-5.5923995E-2,-7.5598055E-4,8.2743466E-2,-2.7732635E-2,3.5300475E-2,1.13372006E-1],"split_indices":[0,0,1,1,0,1,6,0,0,0,0,0,0,0,0],"split_type":[0,0,0,0,0,0,0,0,0,0,0,0,0,0,0],"sum_hessian":[1.8996257E2,1.7934492E2,1.0617646E1,1.640742E1,1.629375E2,3.348399E0,7.269247E0,4.4111876E0,1.1996231E1,2.8294748E1,1.3464276E2,1.4348218E0,1.9135771E0,1.3513288E0,5.917918E0],"tree_param":{"num_deleted":"0","num_feature":"7","num_nodes":"15","size_leaf_vector":"1"}},{"base_weights":[6.760598E-3,-4.8912775E-2,7.363329E-1,8.312235E-3,-7.211666E-1,2.350626E-1,1.0586709E-1,4.4297017E-2,-4.6495656E-3,1.6318252E-3,-1.0312518E-1,8.928945E-2,-1.32707795E-2],"categories":[],"categories_nodes":[],"categories_segments":[],"categories_sizes":[],"default_left":[0,0,0,0,0,0,0,0,0,0,0,0,0],"id":7,"left_children":[1,3,5,7,9,11,-1,-1,-1,-1,-1,-1,-1],"loss_changes":[7.7726398E0,6.8500366E0,1.9432425E0,3.9499006E0,3.210977E0,1.7140462E0,0E0,0E0,0E0,0E0,0E0,0E0,0E0],"parents":[2147483647,0,0,1,1,2,2,3,3,4,4,5,5],"right_children":[2,4,6,8,10,12,-1,-1,-1,-1,-1,-1,-1],"split_conditions":[2.6167832E-2,2.0315476E-2,5.5419426E1,7.92324E-3,-8.637797E-3,-2.3050338E-2,1.0586709E-1,4.4297017E-2,-4.6495656E-3,1.6318252E-3,-1.0312518E-1,8.928945E-2,-1.32707795E-2],"split_indices":[0,0,1,0,5,5,0,0,0,0,0,0,0],"split_type":[0,0,0,0,0,0,0,0,0,0,0,0,0],"sum_hessian":[1.8947395E2,1.769072E2,1.2566761E1,1.6393962E2,1.2967579E1,5.5950694E0,6.9716916E0,1.756409E1,1.4637552E2,4.118885E0,8.848694E0,1.4943187E0,4.1007504E0],"tree_param":{"num_deleted":"0","num_feature":"7","num_nodes":"13","size_leaf_vector":"1"}},{"base_weights":[6.897638E-3,-3.976437E-2,7.8095096E-1,-1.33206E-1,-1.7827531E-2,2.605038E-1,9.736882E-1,6.0656127E-2,-5.831038E-3,7.960849E-2,-2.6641494E-2,2.8591821E-2,1.0657622E-1],"categories":[],"categories_nodes":[],"categories_segments":[],"categories_sizes":[],"default_left":[0,0,0,0,0,0,0,0,0,0,0,0,0],"id":8,"left_children":[1,3,5,-1,7,9,11,-1,-1,-1,-1,-1,-1],"loss_changes":[6.8949456E0,5.084241E0,8.35011E-1,0E0,4.539461E0,1.4250972E0,1.7368841E-1,0E0,0E0,0E0,0E0,0E0,0E0],"parents":[2147483647,0,0,1,1,2,2,4,4,5,5,6,6],"right_children":[2,4,6,-1,8,10,12,-1,-1,-1,-1,-1,-1],"split_conditions":[2.819188E-2,-4.6110943E-2,4.9452095E1,-1.33206E-1,2.5501652E1,4.045939E1,-2.8524294E-2,6.0656127E-2,-5.831038E-3,7.960849E-2,-2.6641494E-2,2.8591821E-2,1.0657622E-1],"split_indices":[0,3,1,0,1,1,6,0,0,0,0,0,0],"split_type":[0,0,0,0,0,0,0,0,0,0,0,0,0],"sum_hessian":[1.890361E2,1.7918309E2,9.853009E0,1.9940066E0,1.7718909E2,3.2982814E0,6.554728E0,9.937318E0,1.6725177E2,1.3823626E0,1.9159187E0,1.2586005E0,5.2961273E0],"tree_param":{"num_deleted":"0","num_feature":"7","num_nodes":"13","size_leaf_vector":"1"}},{"base_weights":[6.931617E-3,-3.619782E-2,7.487067E-1,-1.24745004E-1,-1.5706396E-2,2.4969476E-1,9.3948686E-1,5.6068327E-2,-5.2460316E-3,7.6720774E-2,-2.4805652E-2,2.7240932E-2,1.032358E-1],"categories":[],"categories_nodes":[],"categories_segments":[],"categories_sizes":[],"default_left":[0,0,0,0,0,0,0,0,0,0,0,0,0],"id":9,"left_children":[1,3,5,-1,7,9,11,-1,-1,-1,-1,-1,-1],"loss_changes":[6.0938683E0,4.4521713E0,7.6180744E-1,0E0,3.8041074E0,1.286798E0,1.6541862E-1,0E0,0E0,0E0,0E0,0E0,0E0],"parents":[2147483647,0,0,1,1,2,2,4,4,5,5,6,6],"right_children":[2,4,6,-1,8,10,12,-1,-1,-1,-1,-1,-1],"split_conditions":[2.819188E-2,-4.6110943E-2,4.9452095E1,-1.24745004E-1,2.5501652E1,4.045939E1,-2.8524294E-2,5.6068327E-2,-5.2460316E-3,7.6720774E-2,-2.4805652E-2,2.7240932E-2,1.032358E-1],"split_indices":[0,3,1,0,1,1,6,0,0,0,0,0,0],"split_type":[0,0,0,0,0,0,0,0,0,0,0,0,0],"sum_hessian":[1.8863185E2,1.7916571E2,9.466129E0,1.9845057E0,1.7718121E2,3.256669E0,6.2094603E0,9.76635E0,1.6741486E2,1.3312345E0,1.9254346E0,1.2395054E0,4.969955E0],"tree_param":{"num_deleted":"0","num_feature":"7","num_nodes":"13","size_leaf_vector":"1"}},{"base_weights":[6.9428575E-3,-3.2976758E-2,7.186258E-1,4.1563714E-1,-8.346694E-2,2.3976994E-1,9.075486E-1,1.1734139E-1,3.9948984E-3,-5.2857485E-2,9.162551E-4,7.4023E-2,-2.3103802E-2,2.5955856E-2,1.00154854E-1],"categories":[],"categories_nodes":[],"categories_segments":[],"categories_sizes":[],"default_left":[0,0,0,0,0,0,0,0,0,0,0,0,0,0,0],"id":10,"left_children":[1,3,5,7,9,11,13,-1,-1,-1,-1,-1,-1,-1,-1],"loss_changes":[5.3991575E0,4.1144295E0,6.955056E-1,5.1879816E0,6.714139E0,1.1640615E0,1.59029E-1,0E0,0E0,0E0,0E0,0E0,0E0,0E0,0E0],"parents":[2147483647,0,0,1,1,2,2,3,3,4,4,5,5,6,6],"right_children":[2,4,6,8,10,12,14,-1,-1,-1,-1,-1,-1,-1,-1],"split_conditions":[2.819188E-2,7.92324E-3,4.9452095E1,5.1597637E1,9.840682E-3,4.045939E1,-2.8524294E-2,1.1734139E-1,3.9948984E-3,-5.2857485E-2,9.162551E-4,7.4023E-2,-2.3103802E-2,2.5955856E-2,1.00154854E-1],"split_indices":[0,0,1,1,0,1,6,0,0,0,0,0,0,0,0],"split_type":[0,0,0,0,0,0,0,0,0,0,0,0,0,0,0],"sum_hessian":[1.8820941E2,1.7911612E2,9.093292E0,1.7388071E1,1.6172804E2,3.2145734E0,5.878719E0,5.0595016E0,1.232857E1,2.7048223E1,1.3467982E2,1.2808251E0,1.9337482E0,1.2212532E0,4.6574655E0],"tree_param":{"num_deleted":"0","num_feature":"7","num_nodes":"15","size_leaf_vector":"1"}},{"base_weights":[7.7582835E-3,-2.9227225E-2,6.9040436E-1,-1.1751052E-1,-1.0001476E-2,2.3063025E-1,8.7748665E-1,-1.2412351E-1,5.6087616E-4,5.9056666E-2,-3.4575783E-2,2.4733063E-2,9.728697E-2],"categories":[],"categories_nodes":[],"categories_segments":[],"categories_sizes":[],"default_left":[0,0,0,0,0,0,0,0,0,0,0,0,0],"id":11,"left_children":[1,3,5,-1,7,9,11,-1,-1,-1,-1,-1,-1],"loss_changes":[4.7832875E0,3.9518702E0,6.3511086E-1,0E0,3.4272518E0,1.0698303E0,1.5391397E-1,0E0,0E0,0E0,0E0,0E0,0E0],"parents":[2147483647,0,0,1,1,2,2,4,4,5,5,6,6],"right_children":[2,4,6,-1,8,10,12,-1,-1,-1,-1,-1,-1],"split_conditions":[2.819188E-2,-4.6110943E-2,4.9452095E1,-1.1751052E-1,-4.733509E-2,4.688587E1,-2.8524294E-2,-1.2412351E-1,5.6087616E-4,5.9056666E-2,-3.4575783E-2,2.4733063E-2,9.728697E-2],"split_indices":[0,3,1,0,4,1,6,0,0,0,0,0,0],"split_type":[0,0,0,0,0,0,0,0,0,0,0,0,0],"sum_hessian":[1.8765283E2,1.7891638E2,8.736438E0,1.960274E0,1.7695612E2,3.1724896E0,5.563948E0,1.2324734E0,1.7572365E2,1.937797E0,1.2346928E0,1.2038219E0,4.360126E0],"tree_param":{"num_deleted":"0","num_feature":"7","num_nodes":"13","size_leaf_vector":"1"}},{"base_weights":[6.5706475E-3,-3.2035176E-2,5.916764E-1,1.7610893E-2,-6.137073E-1,1.3538235E-1,9.2965376E-1,7.754128E-3,-2.730099E-2,5.267336E-3,-8.956342E-2,8.150711E-2,-2.2199424E-2,1.0444673E-1,3.278795E-2],"categories":[],"categories_nodes":[],"categories_segments":[],"categories_sizes":[],"default_left":[0,0,0,0,0,0,0,0,0,0,0,0,0,0,0],"id":12,"left_children":[1,3,5,7,9,11,13,-1,-1,-1,-1,-1,-1,-1,-1],"loss_changes":[4.2716455E0,5.138439E0,1.6791863E0,2.887526E0,2.6757236E0,1.6750401E0,1.1034107E-1,0E0,0E0,0E0,0E0,0E0,0E0,0E0,0E0],"parents":[2147483647,0,0,1,1,2,2,3,3,4,4,5,5,6,6],"right_children":[2,4,6,8,10,12,14,-1,-1,-1,-1,-1,-1,-1,-1],"split_conditions":[2.6167832E-2,2.0315476E-2,5.5419426E1,1.1020787E-2,-8.637797E-3,-2.3050338E-2,3.5744898E-2,7.754128E-3,-2.730099E-2,5.267336E-3,-8.956342E-2,8.150711E-2,-2.2199424E-2,1.0444673E-1,3.278795E-2],"split_indices":[0,0,1,6,5,5,0,0,0,0,0,0,0,0,0],"split_type":[0,0,0,0,0,0,0,0,0,0,0,0,0,0,0],"sum_hessian":[1.8726807E2,1.7656349E2,1.0704575E1,1.6357222E2,1.2991265E1,5.1509643E0,5.5536103E0,1.3621568E2,2.7356539E1,4.103986E0,8.8872795E0,1.3337055E0,3.8172588E0,4.0460176E0,1.507593E0],"tree_param":{"num_deleted":"0","num_feature":"7","num_nodes":"15","size_leaf_vector":"1"}},{"base_weights":[6.516788E-3,-2.582805E-2,6.414E-1,4.0419993E-1,-6.946052E-2,3.2209677E-1,9.4848715E-2,1.05524875E-1,1.23947775E-2,-4.5137223E-2,1.4201818E-3,5.7781953E-2,-2.4304058E-2],"categories":[],"categories_nodes":[],"categories_segments":[],"categories_sizes":[],"default_left":[0,0,0,0,0,0,0,0,0,0,0,0,0],"id":13,"left_children":[1,3,5,7,9,11,-1,-1,-1,-1,-1,-1,-1],"loss_changes":[3.875736E0,3.4013338E0,5.915773E-1,2.9176388E0,5.2488127E0,1.0074623E0,0E0,0E0,0E0,0E0,0E0,0E0,0E0],"parents":[2147483647,0,0,1,1,2,2,3,3,4,4,5,5],"right_children":[2,4,6,8,10,12,-1,-1,-1,-1,-1,-1,-1],"split_conditions":[2.819188E-2,7.8118723E-3,1.5827373E-2,5.1597637E1,9.840682E-3,-7.523838E-4,9.4848715E-2,1.05524875E-1,1.23947775E-2,-4.5137223E-2,1.4201818E-3,5.7781953E-2,-2.4304058E-2],"split_indices":[0,0,6,1,0,6,0,0,0,0,0,0,0],"split_type":[0,0,0,0,0,0,0,0,0,0,0,0,0],"sum_hessian":[1.8692955E2,1.7878069E2,8.148865E0,1.5707614E1,1.6307307E2,4.9994316E0,3.1494331E0,3.894655E0,1.1812959E1,2.8513968E1,1.345591E2,3.4265075E0,1.5729241E0],"tree_param":{"num_deleted":"0","num_feature":"7","num_nodes":"13","size_leaf_vector":"1"}},{"base_weights":[7.09519E-3,-1.6151553E-2,8.63893E-1,9.3283225E-3,-1.27162E-1,1.134629E-1,2.5884975E-2,-1.0756185E-2,1.9162647E-2],"categories":[],"categories_nodes":[],"categories_segments":[],"categories_sizes":[],"default_left":[0,0,0,0,0,0,0,0,0],"id":14,"left_children":[1,3,5,7,-1,-1,-1,-1,-1],"loss_changes":[3.7473154E0,5.8808923E0,5.2036214E-1,3.8735201E0,0E0,0E0,0E0,0E0,0E0],"parents":[2147483647,0,0,1,1,2,2,3,3],"right_children":[2,4,6,8,-1,-1,-1,-1,-1],"split_conditions":[8.784322E1,8.534146E1,4.296577E-3,5.9625717E1,-1.27162E-1,1.134629E-1,2.5884975E-2,-1.0756185E-2,1.9162647E-2],"split_indices":[1,1,6,1,0,0,0,0,0],"split_type":[0,0,0,0,0,0,0,0,0],"sum_hessian":[1.8643887E2,1.8246924E2,3.9696293E0,1.798125E2,2.6567454E0,2.1377664E0,1.8318628E0,1.0981117E2,7.000132E1],"tree_param":{"num_deleted":"0","num_feature":"7","num_nodes":"9","size_leaf_vector":"1"}},{"base_weights":[6.559578E-3,-2.3627117E-2,6.1530256E-1,-1.09169774E-1,-6.033013E-3,3.052098E-1,9.222812E-2,5.310235E-2,-3.998219E-3,5.510475E-2,-2.2481654E-2],"categories":[],"categories_nodes":[],"categories_segments":[],"categories_sizes":[],"default_left":[0,0,0,0,0,0,0,0,0,0,0],"id":15,"left_children":[1,3,5,-1,7,9,-1,-1,-1,-1,-1],"loss_changes":[3.4584265E0,3.3669357E0,5.6490326E-1,0E0,3.2596695E0,8.9498883E-1,0E0,0E0,0E0,0E0,0E0],"parents":[2147483647,0,0,1,1,2,2,4,4,5,5],"right_children":[2,4,6,-1,8,10,-1,-1,-1,-1,-1],"split_conditions":[2.819188E-2,-4.6110943E-2,1.5827373E-2,-1.09169774E-1,2.5501652E1,-7.523838E-4,9.222812E-2,5.310235E-2,-3.998219E-3,5.510475E-2,-2.2481654E-2],"split_indices":[0,3,6,0,1,6,0,0,0,0,0],"split_type":[0,0,0,0,0,0,0,0,0,0,0],"sum_hessian":[1.8641293E2,1.7852148E2,7.891439E0,1.9037391E0,1.7661775E2,4.917894E0,2.9735448E0,9.630295E0,1.6698746E2,3.3325324E0,1.5853616E0],"tree_param":{"num_deleted":"0","num_feature":"7","num_nodes":"11","size_leaf_vector":"1"}},{"base_weights":[6.3322987E-3,-1.5237232E-2,8.173188E-1,8.575803E-3,-1.170096E-1,1.0794057E-1,2.325414E-2,-9.789177E-3,1.7524501E-2],"categories":[],"categories_nodes":[],"categories_segments":[],"categories_sizes":[],"default_left":[0,0,0,0,0,0,0,0,0],"id":16,"left_children":[1,3,5,7,-1,-1,-1,-1,-1],"loss_changes":[3.2842598E0,5.0474854E0,4.944694E-1,3.2195249E0,0E0,0E0,0E0,0E0,0E0],"parents":[2147483647,0,0,1,1,2,2,3,3],"right_children":[2,4,6,8,-1,-1,-1,-1,-1],"split_conditions":[8.784322E1,8.534146E1,4.296577E-3,5.9625717E1,-1.170096E-1,1.0794057E-1,2.325414E-2,-9.789177E-3,1.7524501E-2],"split_indices":[1,1,6,1,0,0,0,0,0],"split_type":[0,0,0,0,0,0,0,0,0],"sum_hessian":[1.8603946E2,1.8217542E2,3.8640459E0,1.7946739E2,2.7080195E0,2.0841336E0,1.7799121E0,1.09763565E2,6.9703835E1],"tree_param":{"num_deleted":"0","num_feature":"7","num_nodes":"9","size_leaf_vector":"1"}},{"base_weights":[5.870659E-3,-2.332723E-2,5.779356E-1,3.6708504E-2,-3.62996E-1,-7.981315E-2,1.0653824E0,6.6486806E-2,-8.7263726E-4,2.60697E-2,-6.562218E-2,1.2794524E-1,4.105195E-2],"categories":[],"categories_nodes":[],"categories_segments":[],"categories_sizes":[],"default_left":[0,0,0,0,0,0,0,0,0,0,0,0,0],"id":17,"left_children":[1,3,5,7,9,-1,11,-1,-1,-1,-1,-1,-1],"loss_changes":[3.1365762E0,3.6606545E0,6.96669E0,4.3696804E0,5.100946E0,0E0,4.7873116E-1,0E0,0E0,0E0,0E0,0E0,0E0],"parents":[2147483647,0,0,1,1,2,2,3,3,4,4,6,6],"right_children":[2,4,6,8,10,-1,12,-1,-1,-1,-1,-1,-1],"split_conditions":[2.4219234E-2,1.1020787E-2,4.2396996E1,2.5501652E1,-3.1541311E-3,-7.981315E-2,1.0579643E-2,6.6486806E-2,-8.7263726E-4,2.60697E-2,-6.562218E-2,1.2794524E-1,4.105195E-2],"split_indices":[6,6,1,1,5,0,3,0,0,0,0,0,0],"split_type":[0,0,0,0,0,0,0,0,0,0,0,0,0],"sum_hessian":[1.8597707E2,1.7785849E2,8.118579E0,1.5190205E2,2.5956436E1,1.9568896E0,6.1616898E0,9.326409E0,1.4257564E2,8.336207E0,1.7620228E1,3.9248974E0,2.2367923E0],"tree_param":{"num_deleted":"0","num_feature":"7","num_nodes":"13","size_leaf_vector":"1"}},{"base_weights":[6.037669E-3,-2.1407552E-2,5.80405E-1,1.9612709E-2,-4.3543407E-1,1.6685982E-1,7.759355E-1,-4.8383928E-4,5.8398426E-2,1.7551122E-2,-6.863473E-2,6.5863006E-2,-2.4873955E-2,1.55826155E-2,8.898124E-2],"categories":[],"categories_nodes":[],"categories_segments":[],"categories_sizes":[],"default_left":[0,0,0,0,0,0,0,0,0,0,0,0,0,0,0],"id":18,"left_children":[1,3,5,7,9,11,13,-1,-1,-1,-1,-1,-1,-1,-1],"loss_changes":[2.9560566E0,3.0517075E0,5.620079E-1,2.2657838E0,2.6031651E0,9.852753E-1,2.520125E-1,0E0,0E0,0E0,0E0,0E0,0E0,0E0,0E0],"parents":[2147483647,0,0,1,1,2,2,3,3,4,4,5,5,6,6],"right_children":[2,4,6,8,10,12,14,-1,-1,-1,-1,-1,-1,-1,-1],"split_conditions":[2.819188E-2,2.0315476E-2,4.9452095E1,2.3048671E-2,-8.637797E-3,4.045939E1,-2.8524294E-2,-4.8383928E-4,5.8398426E-2,1.7551122E-2,-6.863473E-2,6.5863006E-2,-2.4873955E-2,1.55826155E-2,8.898124E-2],"split_indices":[0,0,1,3,5,1,6,0,0,0,0,0,0,0,0],"split_type":[0,0,0,0,0,0,0,0,0,0,0,0,0,0,0],"sum_hessian":[1.8573552E2,1.7818402E2,7.5515084E0,1.6298834E2,1.5195671E1,3.0192306E0,4.5322776E0,1.5717044E2,5.8179E0,4.5114098E0,1.0684261E1,1.115047E0,1.9041837E0,1.0706265E0,3.461651E0],"tree_param":{"num_deleted":"0","num_feature":"7","num_nodes":"15","size_leaf_vector":"1"}},{"base_weights":[6.3378084E-3,-1.3842374E-2,7.793576E-1,8.380185E-3,-1.0827239E-1,1.0293152E-1,2.1848971E-2,9.539999E-2,-7.869044E-4],"categories":[],"categories_nodes":[],"categories_segments":[],"categories_sizes":[],"default_left":[0,0,0,0,0,0,0,0,0],"id":19,"left_children":[1,3,5,7,-1,-1,-1,-1,-1],"loss_changes":[2.918944E0,4.347936E0,4.424746E-1,2.7723255E0,0E0,0E0,0E0,0E0,0E0],"parents":[2147483647,0,0,1,1,2,2,3,3],"right_children":[2,4,6,8,-1,-1,-1,-1,-1],"split_conditions":[8.784322E1,8.534146E1,4.296577E-3,1.6674929E1,-1.0827239E-1,1.0293152E-1,2.1848971E-2,9.539999E-2,-7.869044E-4],"split_indices":[1,1,6,1,0,0,0,0,0],"split_type":[0,0,0,0,0,0,0,0,0],"sum_hessian":[1.8542406E2,1.816637E2,3.7603552E0,1.789357E2,2.7279992E0,2.0233889E0,1.7369664E0,2.0479054E0,1.768878E2],"tree_param":{"num_deleted":"0","num_feature":"7","num_nodes":"9","size_leaf_vector":"1"}},{"base_weights":[6.35508E-3,-1.803548E-1,8.361117E-2,3.887473E-1,-6.0268724E-1,-2.9152736E-1,2.4293847E-1,7.5982414E-2,-1.4925089E-3,-9.247512E-2,-9.469264E-3,2.3345865E-2,-6.933702E-2,1.8007878E-2,1.0069869E-1],"categories":[],"categories_nodes":[],"categories_segments":[],"categories_sizes":[],"default_left":[0,0,0,0,0,0,0,0,0,0,0,0,0,0,0],"id":20,"left_children":[1,3,5,7,9,11,13,-1,-1,-1,-1,-1,-1,-1,-1],"loss_changes":[2.7026567E0,1.3417033E1,7.9886856E0,3.6022084E0,5.1275463E0,8.588823E0,4.310575E0,0E0,0E0,0E0,0E0,0E0,0E0,0E0,0E0],"parents":[2147483647,0,0,1,1,2,2,3,3,4,4,5,5,6,6],"right_children":[2,4,6,8,10,12,14,-1,-1,-1,-1,-1,-1,-1,-1],"split_conditions":[4.348878E1,1.3858391E-2,1.0128736E-2,3.4617783E1,1.8690381E-2,8.186567E-3,2.4219234E-2,7.5982414E-2,-1.4925089E-3,-9.247512E-2,-9.469264E-3,2.3345865E-2,-6.933702E-2,1.8007878E-2,1.0069869E-1],"split_indices":[1,0,0,1,0,0,6,0,0,0,0,0,0,0,0],"split_type":[0,0,0,0,0,0,0,0,0,0,0,0,0,0,0],"sum_hessian":[1.8532063E2,5.3848034E1,1.3147261E2,2.2972124E1,3.087591E1,3.894538E1,9.252722E1,1.1509608E1,1.1462516E1,1.839393E1,1.248198E1,1.7067127E1,2.1878256E1,8.663526E1,5.891956E0],"tree_param":{"num_deleted":"0","num_feature":"7","num_nodes":"15","size_leaf_vector":"1"}},{"base_weights":[6.178198E-3,3.988174E-1,-2.9279647E-2,-5.9981E-1,8.099462E-1,-1.0082932E0,-6.332605E-3,-1.0770064E-1,4.947799E-2,-5.674558E-3,1.1275315E-1,-1.2996837E-1,-3.9629947E-2,-3.4651936E-3,5.4114845E-2],"categories":[],"categories_nodes":[],"categories_segments":[],"categories_sizes":[],"default_left":[0,0,0,0,0,0,0,0,0,0,0,0,0,0,0],"id":21,"left_children":[1,3,5,7,9,11,13,-1,-1,-1,-1,-1,-1,-1,-1],"loss_changes":[2.5996861E0,6.835264E0,3.844789E0,3.1887703E0,3.1964555E0,1.8393493E-1,2.6313298E0,0E0,0E0,0E0,0E0,0E0,0E0,0E0,0E0],"parents":[2147483647,0,0,1,1,2,2,3,3,4,4,5,5,6,6],"right_children":[2,4,6,8,10,12,14,-1,-1,-1,-1,-1,-1,-1,-1],"split_conditions":[-1.5659906E-2,-6.114908E-3,-1.342706E-2,2.3976695E-2,-3.4641683E-2,-9.858011E-4,2.3745392E-2,-1.0770064E-1,4.947799E-2,-5.674558E-3,1.1275315E-1,-1.2996837E-1,-3.9629947E-2,-3.4651936E-3,5.4114845E-2],"split_indices":[5,4,5,0,5,4,4,0,0,0,0,0,0,0,0],"split_type":[0,0,0,0,0,0,0,0,0,0,0,0,0,0,0],"sum_hessian":[1.848916E2,1.4465175E1,1.7042642E2,4.0846553E0,1.0380519E1,2.9197123E0,1.6750671E2,2.8557358E0,1.2289197E0,3.0039763E0,7.3765426E0,1.2167088E0,1.7030035E0,1.6015894E2,7.3477707E0],"tree_param":{"num_deleted":"0","num_feature":"7","num_nodes":"15","size_leaf_vector":"1"}},{"base_weights":[5.281051E-3,9.267799E-2,-9.706753E-3,-2.1878336E-1,7.446624E-2,3.0566666E-2,-6.415286E-2,-9.084288E-3,3.7733145E-2],"categories":[],"categories_nodes":[],"categories_segments":[],"categories_sizes":[],"default_left":[0,0,0,0,0,0,0,0,0],"id":22,"left_children":[1,-1,3,5,7,-1,-1,-1,-1],"loss_changes":[2.574787E0,0E0,3.2507737E0,1.1948587E1,6.632187E0,0E0,0E0,0E0,0E0],"parents":[2147483647,0,0,2,2,3,3,4,4],"right_children":[2,-1,4,6,8,-1,-1,-1,-1],"split_conditions":[1.6674929E1,9.267799E-2,4.348878E1,1.4028879E-2,1.4353964E-2,3.0566666E-2,-6.415286E-2,-9.084288E-3,3.7733145E-2],"split_indices":[1,0,1,0,0,0,0,0,0],"split_type":[0,0,0,0,0,0,0,0,0],"sum_hessian":[1.847755E2,1.9835703E0,1.8279193E2,5.200871E1,1.3078322E2,2.333575E1,2.867296E1,8.505744E1,4.572578E1],"tree_param":{"num_deleted":"0","num_feature":"7","num_nodes":"9","size_leaf_vector":"1"}},{"base_weights":[5.345945E-3,-1.2729002E-2,7.4174535E-1,1.8294292E-2,-5.4304403E-1,1.0443046E-1,7.879126E-3,-1.0517388E-1,3.2157612E-3,-1.2824844E-1,1.9020779E-2],"categories":[],"categories_nodes":[],"categories_segments":[],"categories_sizes":[],"default_left":[0,0,0,0,0,0,0,0,0,0,0],"id":23,"left_children":[1,3,5,7,9,-1,-1,-1,-1,-1,-1],"loss_changes":[2.478362E0,3.004676E0,8.124416E-1,2.5991762E0,5.716136E0,0E0,0E0,0E0,0E0,0E0,0E0],"parents":[2147483647,0,0,1,1,2,2,3,3,4,4],"right_children":[2,4,6,8,10,-1,-1,-1,-1,-1,-1],"split_conditions":[3.1095346E-2,2.0178841E-2,3.8776517E-2,-4.733509E-2,1.6022269E-2,1.0443046E-1,7.879126E-3,-1.0517388E-1,3.2157612E-3,-1.2824844E-1,1.9020779E-2],"split_indices":[2,2,2,4,0,0,0,0,0,0,0],"split_type":[0,0,0,0,0,0,0,0,0,0,0],"sum_hessian":[1.8448834E2,1.8102773E2,3.4606166E0,1.7193507E2,9.092655E0,1.9812045E0,1.4794121E0,1.2415532E0,1.7069351E2,4.1542783E0,4.938377E0],"tree_param":{"num_deleted":"0","num_feature":"7","num_nodes":"11","size_leaf_vector":"1"}},{"base_weights":[4.3185498E-3,4.5883814E-1,-2.418566E-2,7.698592E-1,-2.2658451E-1,-2.8881922E-1,6.651692E-2,9.4865754E-2,-1.6179567E-2,-7.720422E-2,4.732731E-2,1.6379546E-2,-7.3501945E-2,-2.5364539E-2,2.0396264E-2],"categories":[],"categories_nodes":[],"categories_segments":[],"categories_sizes":[],"default_left":[0,0,0,0,0,0,0,0,0,0,0,0,0,0,0],"id":24,"left_children":[1,3,5,7,9,11,13,-1,-1,-1,-1,-1,-1,-1,-1],"loss_changes":[2.41237E0,2.5167902E0,4.2282953E0,1.4503746E0,1.9695411E0,9.198056E0,5.8343525E0,0E0,0E0,0E0,0E0,0E0,0E0,0E0,0E0],"parents":[2147483647,0,0,1,1,2,2,3,3,4,4,5,5,6,6],"right_children":[2,4,6,8,10,12,14,-1,-1,-1,-1,-1,-1,-1,-1],"split_conditions":[2.5501652E1,-1.0658304E-3,4.348878E1,6.7788325E-3,1.5907057E-2,1.4353964E-2,1.0128736E-2,9.4865754E-2,-1.6179567E-2,-7.720422E-2,4.732731E-2,1.6379546E-2,-7.3501945E-2,-2.5364539E-2,2.0396264E-2],"split_indices":[1,4,1,5,0,0,0,0,0,0,0,0,0,0,0],"split_type":[0,0,0,0,0,0,0,0,0,0,0,0,0,0,0],"sum_hessian":[1.8434456E2,9.987628E0,1.7435693E2,6.785441E0,3.202187E0,4.3948547E1,1.3040839E2,5.67758E0,1.1078613E0,1.7416396E0,1.4605474E0,2.213165E1,2.1816898E1,3.8915127E1,9.149326E1],"tree_param":{"num_deleted":"0","num_feature":"7","num_nodes":"15","size_leaf_vector":"1"}},{"base_weights":[3.934033E-3,3.8810042E-1,-3.0412445E-2,-4.898994E-1,7.551381E-1,-9.2071134E-1,-9.28359E-3,-9.260963E-2,5.021776E-2,-3.8144134E-3,1.05245195E-1,-1.1997857E-1,-3.514121E-2,3.5517514E-2,-5.21437E-3],"categories":[],"categories_nodes":[],"categories_segments":[],"categories_sizes":[],"default_left":[0,0,0,0,0,0,0,0,0,0,0,0,0,0,0],"id":25,"left_children":[1,3,5,7,9,11,13,-1,-1,-1,-1,-1,-1,-1,-1],"loss_changes":[2.4511998E0,5.2828035E0,3.201193E0,2.6723776E0,2.668569E0,2.0521498E-1,2.6378946E0,0E0,0E0,0E0,0E0,0E0,0E0,0E0,0E0],"parents":[2147483647,0,0,1,1,2,2,3,3,4,4,5,5,6,6],"right_children":[2,4,6,8,10,12,14,-1,-1,-1,-1,-1,-1,-1,-1],"split_conditions":[-1.5659906E-2,-6.114908E-3,-1.342706E-2,2.3976695E-2,-3.4641683E-2,1.8637545E-3,7.92324E-3,-9.260963E-2,5.021776E-2,-3.8144134E-3,1.05245195E-1,-1.1997857E-1,-3.514121E-2,3.5517514E-2,-5.21437E-3],"split_indices":[5,4,5,0,5,2,0,0,0,0,0,0,0,0,0],"split_type":[0,0,0,0,0,0,0,0,0,0,0,0,0,0,0],"sum_hessian":[1.8387616E2,1.42450695E1,1.6963109E2,4.100773E0,1.0144297E1,2.9454098E0,1.6668568E2,2.8945873E0,1.2061858E0,3.003137E0,7.1411595E0,1.2333399E0,1.7120699E0,1.6772736E1,1.4991295E2],"tree_param":{"num_deleted":"0","num_feature":"7","num_nodes":"15","size_leaf_vector":"1"}},{"base_weights":[3.2774268E-3,-1.4513022E-2,7.1047E-1,6.5076896E-3,-1.026774E-1,9.55652E-2,1.7163252E-2,8.700346E-2,-7.4376643E-4],"categories":[],"categories_nodes":[],"categories_segments":[],"categories_sizes":[],"default_left":[0,0,0,0,0,0,0,0,0],"id":26,"left_children":[1,3,5,7,-1,-1,-1,-1,-1],"loss_changes":[2.3329327E0,3.8593414E0,4.3711734E-1,2.1544306E0,0E0,0E0,0E0,0E0,0E0],"parents":[2147483647,0,0,1,1,2,2,3,3],"right_children":[2,4,6,8,-1,-1,-1,-1,-1],"split_conditions":[8.784322E1,8.534146E1,4.296577E-3,1.6674929E1,-1.026774E-1,9.55652E-2,1.7163252E-2,8.700346E-2,-7.4376643E-4],"split_indices":[1,1,6,1,0,0,0,0,0],"split_type":[0,0,0,0,0,0,0,0,0],"sum_hessian":[1.8360942E2,1.8005925E2,3.550172E0,1.7736955E2,2.689703E0,1.9083089E0,1.6418633E0,1.8432397E0,1.755263E2],"tree_param":{"num_deleted":"0","num_feature":"7","num_nodes":"9","size_leaf_vector":"1"}},{"base_weights":[3.5174647E-3,-1.96134E-2,5.231313E-1,-9.79355E-2,-4.3560467E-3,2.4811246E-1,8.267877E-2,1.0031744E-1,-1.9198513E-3,-1.1785117E-2,5.847311E-2],"categories":[],"categories_nodes":[],"categories_segments":[],"categories_sizes":[],"default_left":[0,0,0,0,0,0,0,0,0,0,0],"id":27,"left_children":[1,3,5,-1,7,9,-1,-1,-1,-1,-1],"loss_changes":[2.2276585E0,2.5962124E0,4.54499E-1,0E0,2.6484523E0,7.555224E-1,0E0,0E0,0E0,0E0,0E0],"parents":[2147483647,0,0,1,1,2,2,4,4,5,5],"right_children":[2,4,6,-1,8,10,-1,-1,-1,-1,-1],"split_conditions":[2.819188E-2,-4.6110943E-2,1.5827373E-2,-9.79355E-2,-3.5527915E-2,1.896135E-2,8.267877E-2,1.0031744E-1,-1.9198513E-3,-1.1785117E-2,5.847311E-2],"split_indices":[0,3,6,0,3,5,0,0,0,0,0],"split_type":[0,0,0,0,0,0,0,0,0,0,0],"sum_hessian":[1.8348926E2,1.765905E2,6.8987594E0,1.7745726E0,1.7481593E2,4.5735865E0,2.325173E0,1.571215E0,1.7324472E2,2.5026565E0,2.07093E0],"tree_param":{"num_deleted":"0","num_feature":"7","num_nodes":"11","size_leaf_vector":"1"}},{"base_weights":[3.9114207E-3,-1.258232E-2,6.9235253E-1,1.6224522E-2,-5.0290716E-1,9.807263E-2,6.61521E-3,-9.117651E-4,5.4719258E-2,-1.1630738E-1,1.6735999E-2],"categories":[],"categories_nodes":[],"categories_segments":[],"categories_sizes":[],"default_left":[0,0,0,0,0,0,0,0,0,0,0],"id":28,"left_children":[1,3,5,7,9,-1,-1,-1,-1,-1,-1],"loss_changes":[2.1009712E0,2.5637484E0,7.1686435E-1,2.3175063E0,4.651018E0,0E0,0E0,0E0,0E0,0E0,0E0],"parents":[2147483647,0,0,1,1,2,2,3,3,4,4],"right_children":[2,4,6,8,10,-1,-1,-1,-1,-1,-1],"split_conditions":[3.1095346E-2,2.0178841E-2,3.8776517E-2,2.4219234E-2,1.6022269E-2,9.807263E-2,6.61521E-3,-9.117651E-4,5.4719258E-2,-1.1630738E-1,1.6735999E-2],"split_indices":[2,2,2,6,0,0,0,0,0,0,0],"split_type":[0,0,0,0,0,0,0,0,0,0,0],"sum_hessian":[1.832594E2,1.7993034E2,3.3290653E0,1.7085918E2,9.0711565E0,1.8917398E0,1.4373256E0,1.6401392E2,6.845268E0,4.199601E0,4.871555E0],"tree_param":{"num_deleted":"0","num_feature":"7","num_nodes":"11","size_leaf_vector":"1"}},{"base_weights":[3.8844813E-3,3.4341523E-1,-2.8653717E-2,1.0075118E-1,7.141142E-2,-3.4828654E-1,3.8463905E-2,-1.1846506E-1,3.334088E-2,8.1068315E-2,-5.1512044E-2,-1.9954717E-2,2.1956397E-2],"categories":[],"categories_nodes":[],"categories_segments":[],"categories_sizes":[],"default_left":[0,0,0,0,0,0,0,0,0,0,0,0,0],"id":29,"left_children":[1,3,5,-1,7,9,11,-1,-1,-1,-1,-1,-1],"loss_changes":[2.043767E0,2.8502626E0,3.6373765E0,0E0,4.5259447E0,6.1052227E0,6.100381E0,0E0,0E0,0E0,0E0,0E0,0E0],"parents":[2147483647,0,0,1,1,2,2,4,4,5,5,6,6],"right_children":[2,4,6,-1,8,10,12,-1,-1,-1,-1,-1,-1],"split_conditions":[7.8118723E-3,5.1597637E1,9.840682E-3,1.0075118E-1,5.9102436E1,3.404141E1,4.9561073E1,-1.1846506E-1,3.334088E-2,8.1068315E-2,-5.1512044E-2,-1.9954717E-2,2.1956397E-2],"split_indices":[0,1,0,0,1,1,1,0,0,0,0,0,0],"split_type":[0,0,0,0,0,0,0,0,0,0,0,0,0],"sum_hessian":[1.8310379E2,1.5177269E1,1.6792653E2,3.6243632E0,1.1552906E1,2.8415379E1,1.3951115E2,1.386097E0,1.0166809E1,3.09005E0,2.5325329E1,6.0239468E1,7.927168E1],"tree_param":{"num_deleted":"0","num_feature":"7","num_nodes":"13","size_leaf_vector":"1"}},{"base_weights":[3.8810929E-3,3.6023468E-1,-2.7608288E-2,-4.4177547E-1,7.007782E-1,-8.619935E-1,-7.620144E-3,-8.4382236E-2,4.8681404E-2,1.2597908E-1,2.427202E-2,-1.13249876E-1,-3.2188304E-2,-2.5660084E-3,6.644615E-2],"categories":[],"categories_nodes":[],"categories_segments":[],"categories_sizes":[],"default_left":[0,0,0,0,0,0,0,0,0,0,0,0,0,0,0],"id":30,"left_children":[1,3,5,7,9,11,13,-1,-1,-1,-1,-1,-1,-1,-1],"loss_changes":[2.0697489E0,4.3994675E0,2.8217607E0,2.3060737E0,2.484787E0,2.138257E-1,2.0372975E0,0E0,0E0,0E0,0E0,0E0,0E0,0E0,0E0],"parents":[2147483647,0,0,1,1,2,2,3,3,4,4,5,5,6,6],"right_children":[2,4,6,8,10,12,14,-1,-1,-1,-1,-1,-1,-1,-1],"split_conditions":[-1.5659906E-2,-6.114908E-3,-1.342706E-2,2.3976695E-2,1.4353964E-2,1.8637545E-3,8.784322E1,-8.4382236E-2,4.8681404E-2,1.2597908E-1,2.427202E-2,-1.13249876E-1,-3.2188304E-2,-2.5660084E-3,6.644615E-2],"split_indices":[5,4,5,0,0,2,1,0,0,0,0,0,0,0,0],"split_type":[0,0,0,0,0,0,0,0,0,0,0,0,0,0,0],"sum_hessian":[1.8256105E2,1.3974701E1,1.6858635E2,4.076624E0,9.898076E0,2.9585695E0,1.6562778E2,2.9085913E0,1.1680328E0,3.6695194E0,6.228557E0,1.2404965E0,1.718073E0,1.6223491E2,3.392871E0],"tree_param":{"num_deleted":"0","num_feature":"7","num_nodes":"15","size_leaf_vector":"1"}},{"base_weights":[3.7444134E-3,4.2965916E-1,-2.2659937E-2,7.286007E-1,-2.1309403E-1,-9.924924E-1,1.2647592E-3,9.031734E-2,-1.4679626E-2,-6.988604E-2,4.352898E-2,-1.4123404E-1,2.537748E-3,-2.3751896E-2,7.042025E-3],"categories":[],"categories_nodes":[],"categories_segments":[],"categories_sizes":[],"default_left":[0,0,0,0,0,0,0,0,0,0,0,0,0,0,0],"id":31,"left_children":[1,3,5,7,9,11,13,-1,-1,-1,-1,-1,-1,-1,-1],"loss_changes":[2.0717309E0,2.2214894E0,4.0292892E0,1.2888288E0,1.6230836E0,1.8224645E0,2.8308973E0,0E0,0E0,0E0,0E0,0E0,0E0,0E0,0E0],"parents":[2147483647,0,0,1,1,2,2,3,3,4,4,5,5,6,6],"right_children":[2,4,6,8,10,12,14,-1,-1,-1,-1,-1,-1,-1,-1],"split_conditions":[2.5501652E1,-1.0658304E-3,2.7539652E1,6.7788325E-3,1.5907057E-2,-3.5082966E-3,-6.2280027E-3,9.031734E-2,-1.4679626E-2,-6.988604E-2,4.352898E-2,-1.4123404E-1,2.537748E-3,-2.3751896E-2,7.042025E-3],"split_indices":[1,4,1,5,0,2,3,0,0,0,0,0,0,0,0],"split_type":[0,0,0,0,0,0,0,0,0,0,0,0,0,0,0],"sum_hessian":[1.8235358E2,9.753452E0,1.7260011E2,6.5660505E0,3.1874018E0,3.1806946E0,1.6941942E2,5.4478946E0,1.118156E0,1.7777039E0,1.409698E0,1.977483E0,1.2032115E0,3.750065E1,1.3191878E2],"tree_param":{"num_deleted":"0","num_feature":"7","num_nodes":"15","size_leaf_vector":"1"}},{"base_weights":[2.8662242E-3,-1.8012455E-2,4.9101833E-1,1.9185727E-2,-3.9538568E-1,2.3206882E-1,7.89163E-2,1.1178593E-2,-1.228549E-2,1.7393973E-2,-6.290989E-2,-1.060849E-2,5.5071767E-2],"categories":[],"categories_nodes":[],"categories_segments":[],"categories_sizes":[],"default_left":[0,0,0,0,0,0,0,0,0,0,0,0,0],"id":32,"left_children":[1,3,5,7,9,11,-1,-1,-1,-1,-1,-1,-1],"loss_changes":[1.8751391E0,2.4861784E0,3.9945197E-1,2.1402948E0,2.2236211E0,6.462197E-1,0E0,0E0,0E0,0E0,0E0,0E0,0E0],"parents":[2147483647,0,0,1,1,2,2,3,3,4,4,5,5],"right_children":[2,4,6,8,10,12,-1,-1,-1,-1,-1,-1,-1],"split_conditions":[2.819188E-2,2.0315476E-2,1.5827373E-2,3.366553E-3,-8.637797E-3,1.896135E-2,7.89163E-2,1.1178593E-2,-1.228549E-2,1.7393973E-2,-6.290989E-2,-1.060849E-2,5.5071767E-2],"split_indices":[0,0,6,6,5,5,0,0,0,0,0,0,0],"split_type":[0,0,0,0,0,0,0,0,0,0,0,0,0],"sum_hessian":[1.8211421E2,1.7556812E2,6.546097E0,1.6067894E2,1.4889177E1,4.455076E0,2.0910203E0,9.7396484E1,6.328246E1,4.407722E0,1.0481456E1,2.485022E0,1.9700544E0],"tree_param":{"num_deleted":"0","num_feature":"7","num_nodes":"13","size_leaf_vector":"1"}},{"base_weights":[3.048485E-3,8.180114E-2,-9.10435E-3,2.7428856E-1,-4.4940636E-2,1.1356422E-2,1.10136844E-1,-4.0657334E-2,2.0073352E-3],"categories":[],"categories_nodes":[],"categories_segments":[],"categories_sizes":[],"default_left":[0,0,0,0,0,0,0,0,0],"id":33,"left_children":[1,-1,3,5,7,-1,-1,-1,-1],"loss_changes":[1.8184617E0,0E0,1.8521131E0,2.5970044E0,3.8094463E0,0E0,0E0,0E0,0E0],"parents":[2147483647,0,0,2,2,3,3,4,4],"right_children":[2,-1,4,6,8,-1,-1,-1,-1],"split_conditions":[1.6674929E1,8.180114E-2,8.186567E-3,9.115241E-3,9.840682E-3,1.1356422E-2,1.10136844E-1,-4.0657334E-2,2.0073352E-3],"split_indices":[1,0,0,4,0,0,0,0,0],"split_type":[0,0,0,0,0,0,0,0,0],"sum_hessian":[1.8185483E2,1.6976987E0,1.8015714E2,1.947726E1,1.6067987E2,1.7260399E1,2.2168622E0,2.3684423E1,1.3699545E2],"tree_param":{"num_deleted":"0","num_feature":"7","num_nodes":"9","size_leaf_vector":"1"}},{"base_weights":[3.6870358E-3,-1.1155021E-2,6.4179546E-1,4.01384E-2,-2.7313477E-1,9.169828E-2,5.3235223E-3,-1.5504267E-4,8.32739E-2,9.513434E-2,-3.734986E-2],"categories":[],"categories_nodes":[],"categories_segments":[],"categories_sizes":[],"default_left":[0,0,0,0,0,0,0,0,0,0,0],"id":34,"left_children":[1,3,5,7,9,-1,-1,-1,-1,-1,-1],"loss_changes":[1.7362225E0,2.4217117E0,6.260847E-1,4.987354E0,3.9809222E0,0E0,0E0,0E0,0E0,0E0,0E0],"parents":[2147483647,0,0,1,1,2,2,3,3,4,4],"right_children":[2,4,6,8,10,-1,-1,-1,-1,-1,-1],"split_conditions":[3.1095346E-2,1.1163705E-2,3.8776517E-2,9.17154E-3,8.988825E-3,9.169828E-2,5.3235223E-3,-1.5504267E-4,8.32739E-2,9.513434E-2,-3.734986E-2],"split_indices":[2,2,2,2,0,0,0,0,0,0,0],"split_type":[0,0,0,0,0,0,0,0,0,0,0],"sum_hessian":[1.81567E2,1.7840004E2,3.1669698E0,1.4989806E2,2.8501984E1,1.7777531E0,1.3892165E0,1.4335593E2,6.542123E0,1.5168517E0,2.6985132E1],"tree_param":{"num_deleted":"0","num_feature":"7","num_nodes":"11","size_leaf_vector":"1"}},{"base_weights":[4.690932E-3,-1.610077E-2,4.5347923E-1,3.405777E-2,-2.9761162E-1,-6.0083814E-2,8.792131E-1,5.5554003E-2,-1.5750213E-4,2.584504E-2,-5.5571504E-2,1.1280483E-1,1.7569106E-2],"categories":[],"categories_nodes":[],"categories_segments":[],"categories_sizes":[],"default_left":[0,0,0,0,0,0,0,0,0,0,0,0,0],"id":35,"left_children":[1,3,5,7,9,-1,11,-1,-1,-1,-1,-1,-1],"loss_changes":[1.7102766E0,2.486683E0,4.1708155E0,2.783762E0,3.965188E0,0E0,8.848791E-1,0E0,0E0,0E0,0E0,0E0,0E0],"parents":[2147483647,0,0,1,1,2,2,3,3,4,4,6,6],"right_children":[2,4,6,8,10,-1,12,-1,-1,-1,-1,-1,-1],"split_conditions":[2.4219234E-2,1.1020787E-2,4.2396996E1,2.5501652E1,-3.1541311E-3,-6.0083814E-2,1.0579643E-2,5.5554003E-2,-1.5750213E-4,2.584504E-2,-5.5571504E-2,1.1280483E-1,1.7569106E-2],"split_indices":[6,6,1,1,5,0,3,0,0,0,0,0,0],"split_type":[0,0,0,0,0,0,0,0,0,0,0,0,0],"sum_hessian":[1.8150583E2,1.7439069E2,7.1151404E0,1.4876358E2,2.5627113E1,1.9283468E0,5.186794E0,8.581628E0,1.4018195E2,8.1237755E0,1.7503336E1,3.3858063E0,1.8009874E0],"tree_param":{"num_deleted":"0","num_feature":"7","num_nodes":"13","size_leaf_vector":"1"}},{"base_weights":[4.848762E-3,-9.623582E-3,6.1447436E-1,1.0459326E-2,-9.924882E-2,8.559503E-2,1.1518891E-2,5.927102E-3,-2.0308135E-2],"categories":[],"categories_nodes":[],"categories_segments":[],"categories_sizes":[],"default_left":[0,0,0,0,0,0,0,0,0],"id":36,"left_children":[1,3,5,7,-1,-1,-1,-1,-1],"loss_changes":[1.6133626E0,3.542716E0,4.1264546E-1,1.8502901E0,0E0,0E0,0E0,0E0,0E0],"parents":[2147483647,0,0,1,1,2,2,3,3],"right_children":[2,4,6,8,-1,-1,-1,-1,-1],"split_conditions":[8.784322E1,8.534146E1,4.296577E-3,1.1099432E-2,-9.924882E-2,8.559503E-2,1.1518891E-2,5.927102E-3,-2.0308135E-2],"split_indices":[1,1,6,5,0,0,0,0,0],"split_type":[0,0,0,0,0,0,0,0,0],"sum_hessian":[1.8119446E2,1.7795409E2,3.240367E0,1.753603E2,2.593785E0,1.7025772E0,1.5377897E0,1.4332185E2,3.2038456E1],"tree_param":{"num_deleted":"0","num_feature":"7","num_nodes":"9","size_leaf_vector":"1"}},{"base_weights":[4.3021496E-3,-1.5270572E-2,4.7046202E-1,-9.153854E-2,-1.3713058E-3,2.1553732E-1,7.68039E-2,9.5593E-2,-1.51912E-3,5.7576966E-2,-1.7098341E-2],"categories":[],"categories_nodes":[],"categories_segments":[],"categories_sizes":[],"default_left":[0,0,0,0,0,0,0,0,0,0,0],"id":37,"left_children":[1,3,5,-1,7,9,-1,-1,-1,-1,-1],"loss_changes":[1.6685599E0,2.1971598E0,3.934486E-1,0E0,2.3171527E0,8.4460604E-1,0E0,0E0,0E0,0E0,0E0],"parents":[2147483647,0,0,1,1,2,2,4,4,5,5],"right_children":[2,4,6,-1,8,10,-1,-1,-1,-1,-1],"split_conditions":[2.819188E-2,-4.6110943E-2,1.20157525E-2,-9.153854E-2,-3.5527915E-2,-1.7390804E-2,7.68039E-2,9.5593E-2,-1.51912E-3,5.7576966E-2,-1.7098341E-2],"split_indices":[0,3,3,0,3,3,0,0,0,0,0],"split_type":[0,0,0,0,0,0,0,0,0,0,0],"sum_hessian":[1.8108818E2,1.7471945E2,6.3687286E0,1.6706371E0,1.7304881E2,4.3589034E0,2.0098255E0,1.4925079E0,1.715563E2,2.0027473E0,2.356156E0],"tree_param":{"num_deleted":"0","num_feature":"7","num_nodes":"11","size_leaf_vector":"1"}},{"base_weights":[4.5657493E-3,-1.7433504E-2,3.9706147E-1,1.9462187E-2,-1.2001165E0,-5.4707295E-1,7.8051883E-1,8.104786E-3,-2.3645855E-2,-2.1166775E-2,-1.6518563E-1,4.200745E-2,-1.2553293E-1,1.24378026E-1,-6.654687E-3],"categories":[],"categories_nodes":[],"categories_segments":[],"categories_sizes":[],"default_left":[0,0,0,0,0,0,0,0,0,0,0,0,0,0,0],"id":38,"left_children":[1,3,5,7,9,11,13,-1,-1,-1,-1,-1,-1,-1,-1],"loss_changes":[1.5773342E0,7.5801816E0,3.936931E0,2.6815836E0,1.9968762E0,2.8482032E0,2.9500527E0,0E0,0E0,0E0,0E0,0E0,0E0,0E0,0E0],"parents":[2147483647,0,0,1,1,2,2,3,3,4,4,5,5,6,6],"right_children":[2,4,6,8,10,12,14,-1,-1,-1,-1,-1,-1,-1,-1],"split_conditions":[2.3048671E-2,2.0446526E-2,1.4285678E-2,1.1099432E-2,-1.4200608E-3,1.4126105E-3,3.5483886E-2,8.104786E-3,-2.3645855E-2,-2.1166775E-2,-1.6518563E-1,4.200745E-2,-1.2553293E-1,1.24378026E-1,-6.654687E-3],"split_indices":[3,3,0,5,4,6,3,0,0,0,0,0,0,0,0],"split_type":[0,0,0,0,0,0,0,0,0,0,0,0,0,0,0],"sum_hessian":[1.8087404E2,1.7217905E2,8.694994E0,1.6792393E2,4.255112E0,2.388192E0,6.3068023E0,1.3590305E2,3.2020885E1,1.7953283E0,2.459784E0,1.181586E0,1.2066059E0,3.774295E0,2.5325074E0],"tree_param":{"num_deleted":"0","num_feature":"7","num_nodes":"15","size_leaf_vector":"1"}},{"base_weights":[3.2824236E-3,-7.341373E-2,1.1478742E-1,1.7036723E-1,-3.128039E-1,-1.3168904E-1,6.219218E-1,4.6209197E-2,-2.216368E-2,-7.010358E-2,-1.1486274E-2,4.5320317E-2,-4.883489E-2,1.0825236E-1,-9.922221E-3],"categories":[],"categories_nodes":[],"categories_segments":[],"categories_sizes":[],"default_left":[0,0,0,0,0,0,0,0,0,0,0,0,0,0,0],"id":39,"left_children":[1,3,5,7,9,11,13,-1,-1,-1,-1,-1,-1,-1,-1],"loss_changes":[1.5625143E0,6.3721547E0,9.3873825E0,6.3112726E0,4.1447325E0,1.0844198E1,8.25299E0,0E0,0E0,0E0,0E0,0E0,0E0,0E0,0E0],"parents":[2147483647,0,0,1,1,2,2,3,3,4,4,5,5,6,6],"right_children":[2,4,6,8,10,12,14,-1,-1,-1,-1,-1,-1,-1,-1],"split_conditions":[5.9625717E1,1.3858391E-2,1.4318017E-2,4.872128E1,1.5907057E-2,6.833226E1,1.779223E-2,4.6209197E-2,-2.216368E-2,-7.010358E-2,-1.1486274E-2,4.5320317E-2,-4.883489E-2,1.0825236E-1,-9.922221E-3],"split_indices":[1,0,0,1,0,1,0,0,0,0,0,0,0,0,0],"split_type":[0,0,0,0,0,0,0,0,0,0,0,0,0,0,0],"sum_hessian":[1.8072198E2,1.0727615E2,7.344582E1,5.32935E1,5.3982655E1,4.992278E1,2.3523046E1,3.0452396E1,2.2841103E1,1.73708E1,3.6611855E1,1.880821E1,3.111457E1,1.4048811E1,9.474236E0],"tree_param":{"num_deleted":"0","num_feature":"7","num_nodes":"15","size_leaf_vector":"1"}},{"base_weights":[3.4119023E-3,-1.5545849E-2,4.6000427E-1,-2.531387E-1,3.3206575E-2,1.3259998E-1,6.434188E-1,-9.30761E-2,-1.2866953E-2,2.324917E-2,-8.125799E-3,5.157718E-2,-3.948553E-2,7.88535E-2,8.272191E-3],"categories":[],"categories_nodes":[],"categories_segments":[],"categories_sizes":[],"default_left":[0,0,0,0,0,0,0,0,0,0,0,0,0,0,0],"id":40,"left_children":[1,3,5,7,9,11,13,-1,-1,-1,-1,-1,-1,-1,-1],"loss_changes":[1.5766581E0,2.0361638E0,3.507123E-1,2.4038873E0,3.3524723E0,9.8514366E-1,2.9231834E-1,0E0,0E0,0E0,0E0,0E0,0E0,0E0,0E0],"parents":[2147483647,0,0,1,1,2,2,3,3,4,4,5,5,6,6],"right_children":[2,4,6,8,10,12,14,-1,-1,-1,-1,-1,-1,-1,-1],"split_conditions":[2.819188E-2,-9.353066E-3,4.9452095E1,-1.3285322E-2,-2.196826E-4,4.688587E1,2.6427032E-2,-9.30761E-2,-1.2866953E-2,2.324917E-2,-8.125799E-3,5.157718E-2,-3.948553E-2,7.88535E-2,8.272191E-3],"split_indices":[0,2,1,4,2,1,2,0,0,0,0,0,0,0,0],"split_type":[0,0,0,0,0,0,0,0,0,0,0,0,0,0,0],"sum_hessian":[1.8032086E2,1.7405984E2,6.261026E0,2.8921213E1,1.4513863E2,2.8667257E0,3.3943E0,3.4827795E0,2.5438435E1,5.25744E1,9.2564224E1,1.6733009E0,1.1934248E0,2.3736246E0,1.0206755E0],"tree_param":{"num_deleted":"0","num_feature":"7","num_nodes":"15","size_leaf_vector":"1"}},{"base_weights":[3.18164E-3,7.7069655E-2,-7.725219E-3,-1.6373427E-1,5.53792E-2,5.054585E-2,-3.5447564E-2,-2.1391107E-2,1.7157312E-2],"categories":[],"categories_nodes":[],"categories_segments":[],"categories_sizes":[],"default_left":[0,0,0,0,0,0,0,0,0],"id":41,"left_children":[1,-1,3,5,7,-1,-1,-1,-1],"loss_changes":[1.5219291E0,0E0,1.7766855E0,6.8117642E0,4.060117E0,0E0,0E0,0E0,0E0],"parents":[2147483647,0,0,2,2,3,3,4,4],"right_children":[2,-1,4,6,8,-1,-1,-1,-1],"split_conditions":[1.6674929E1,7.7069655E-2,4.348878E1,1.0735453E-2,1.0128736E-2,5.054585E-2,-3.5447564E-2,-2.1391107E-2,1.7157312E-2],"split_indices":[1,0,1,0,0,0,0,0,0],"split_type":[0,0,0,0,0,0,0,0,0],"sum_hessian":[1.8009465E2,1.5473324E0,1.7854732E2,5.0962154E1,1.2758516E2,1.09379015E1,4.002425E1,3.8203648E1,8.938151E1],"tree_param":{"num_deleted":"0","num_feature":"7","num_nodes":"9","size_leaf_vector":"1"}},{"base_weights":[3.421623E-3,3.7758982E-1,-1.8957797E-2,6.004616E-2,1.00683175E-1,-9.330098E-1,3.6245892E-3,9.308627E-2,-4.701933E-2,-1.3012196E-1,-7.303291E-4,-2.0176727E-2,6.3310503E-3],"categories":[],"categories_nodes":[],"categories_segments":[],"categories_sizes":[],"default_left":[0,0,0,0,0,0,0,0,0,0,0,0,0],"id":42,"left_children":[1,3,5,7,-1,9,11,-1,-1,-1,-1,-1,-1],"loss_changes":[1.5207497E0,1.9873935E0,3.543544E0,4.073864E0,0E0,1.4012697E0,2.0768008E0,0E0,0E0,0E0,0E0,0E0,0E0],"parents":[2147483647,0,0,1,1,2,2,3,3,5,5,6,6],"right_children":[2,4,6,8,-1,10,12,-1,-1,-1,-1,-1,-1],"split_conditions":[2.5501652E1,1.6742587E-2,2.7539652E1,1.3507729E-2,1.00683175E-1,-3.5082966E-3,-6.2280027E-3,9.308627E-2,-4.701933E-2,-1.3012196E-1,-7.303291E-4,-2.0176727E-2,6.3310503E-3],"split_indices":[1,0,1,0,0,2,3,0,0,0,0,0,0],"split_type":[0,0,0,0,0,0,0,0,0,0,0,0,0],"sum_hessian":[1.797561E2,9.248895E0,1.7050722E2,6.874926E0,2.373969E0,3.138933E0,1.6736829E2,2.3159199E0,4.559006E0,1.9554722E0,1.1834607E0,3.7149277E1,1.3021901E2],"tree_param":{"num_deleted":"0","num_feature":"7","num_nodes":"13","size_leaf_vector":"1"}},{"base_weights":[3.1613728E-3,3.1555972E-1,-2.3799164E-2,1.1221003E-1,5.332364E-3,-7.861216E-1,-5.2832467E-3,-3.6477614E-2,6.2069356E-2,-1.06024705E-1,-2.7399385E-2,-2.7899463E-3,4.322874E-2],"categories":[],"categories_nodes":[],"categories_segments":[],"categories_sizes":[],"default_left":[0,0,0,0,0,0,0,0,0,0,0,0,0],"id":43,"left_children":[1,3,5,-1,7,9,11,-1,-1,-1,-1,-1,-1],"loss_changes":[1.5279728E0,3.6000733E0,2.3546693E0,0E0,2.8258002E0,2.6486683E-1,1.6365943E0,0E0,0E0,0E0,0E0,0E0,0E0],"parents":[2147483647,0,0,1,1,2,2,4,4,5,5,6,6],"right_children":[2,4,6,-1,8,10,12,-1,-1,-1,-1,-1,-1],"split_conditions":[-1.5659906E-2,1.3858391E-2,-1.342706E-2,1.1221003E-1,1.9428534E-2,-9.858011E-4,2.0818293E-2,-3.6477614E-2,6.2069356E-2,-1.06024705E-1,-2.7399385E-2,-2.7899463E-3,4.322874E-2],"split_indices":[5,0,5,0,0,4,6,0,0,0,0,0,0],"split_type":[0,0,0,0,0,0,0,0,0,0,0,0,0],"sum_hessian":[1.7952548E2,1.3412068E1,1.6611342E2,2.9987588E0,1.0413309E1,2.9559724E0,1.6315744E2,6.7567086E0,3.6566007E0,1.228251E0,1.7277216E0,1.5602917E2,7.128263E0],"tree_param":{"num_deleted":"0","num_feature":"7","num_nodes":"13","size_leaf_vector":"1"}},{"base_weights":[3.1584038E-3,-1.05954595E-2,5.949641E-1,7.829469E-3,-9.233277E-2,8.303653E-2,1.0386101E-2,5.310768E-3,-2.1026054E-2],"categories":[],"categories_nodes":[],"categories_segments":[],"categories_sizes":[],"default_left":[0,0,0,0,0,0,0,0,0],"id":44,"left_children":[1,3,5,7,-1,-1,-1,-1,-1],"loss_changes":[1.4742106E0,2.9876695E0,3.8930595E-1,1.7364024E0,0E0,0E0,0E0,0E0,0E0],"parents":[2147483647,0,0,1,1,2,2,3,3],"right_children":[2,4,6,8,-1,-1,-1,-1,-1],"split_conditions":[8.784322E1,8.534146E1,4.296577E-3,1.1241987E-2,-9.233277E-2,8.303653E-2,1.0386101E-2,5.310768E-3,-2.1026054E-2],"split_indices":[1,1,6,3,0,0,0,0,0],"split_type":[0,0,0,0,0,0,0,0,0],"sum_hessian":[1.7934106E2,1.7622754E2,3.113521E0,1.7371231E2,2.5152326E0,1.6377021E0,1.4758189E0,1.4447417E2,2.923815E1],"tree_param":{"num_deleted":"0","num_feature":"7","num_nodes":"9","size_leaf_vector":"1"}},{"base_weights":[2.7845264E-3,2.7674836E-1,-2.5445152E-2,1.03998266E-1,-5.0151728E-2,-3.2022762E-1,3.3847027E-2,-1.1886054E-1,2.287895E-2,5.8699973E-2,-4.753746E-2,4.6024498E-2,-3.2724866E-3],"categories":[],"categories_nodes":[],"categories_segments":[],"categories_sizes":[],"default_left":[0,0,0,0,0,0,0,0,0,0,0,0,0],"id":45,"left_children":[1,3,5,-1,7,9,11,-1,-1,-1,-1,-1,-1],"loss_changes":[1.4010491E0,4.274232E0,2.8829427E0,0E0,4.3372416E0,4.16564E0,3.9241505E0,0E0,0E0,0E0,0E0,0E0,0E0],"parents":[2147483647,0,0,1,1,2,2,4,4,5,5,6,6],"right_children":[2,4,6,-1,8,10,12,-1,-1,-1,-1,-1,-1],"split_conditions":[7.92324E-3,5.1597637E1,9.840682E-3,1.03998266E-1,5.9102436E1,-8.416135E-3,1.1034753E-2,-1.1886054E-1,2.287895E-2,5.8699973E-2,-4.753746E-2,4.6024498E-2,-3.2724866E-3],"split_indices":[0,1,0,0,1,4,0,0,0,0,0,0,0],"split_type":[0,0,0,0,0,0,0,0,0,0,0,0,0],"sum_hessian":[1.7924611E2,1.5922054E1,1.6332405E2,4.120445E0,1.1801609E1,2.661276E1,1.367113E2,1.6807534E0,1.0120856E1,3.479976E0,2.3132786E1,1.7663263E1,1.19048035E2],"tree_param":{"num_deleted":"0","num_feature":"7","num_nodes":"13","size_leaf_vector":"1"}},{"base_weights":[2.959463E-3,-1.0295705E-2,5.8578247E-1,1.4606708E-2,-4.3223965E-1,8.591222E-2,2.7993536E-3,-6.91452E-2,2.9667164E-3,-9.785393E-2,1.3712645E-2],"categories":[],"categories_nodes":[],"categories_segments":[],"categories_sizes":[],"default_left":[0,0,0,0,0,0,0,0,0,0,0],"id":46,"left_children":[1,3,5,7,9,-1,-1,-1,-1,-1,-1],"loss_changes":[1.3948412E0,1.8635703E0,5.8808625E-1,1.8056067E0,3.2082996E0,0E0,0E0,0E0,0E0,0E0,0E0],"parents":[2147483647,0,0,1,1,2,2,3,3,4,4],"right_children":[2,4,6,8,10,-1,-1,-1,-1,-1,-1],"split_conditions":[3.1095346E-2,2.0178841E-2,3.8776517E-2,-4.0613055E-2,1.6022269E-2,8.591222E-2,2.7993536E-3,-6.91452E-2,2.9667164E-3,-9.785393E-2,1.3712645E-2],"split_indices":[2,2,2,4,0,0,0,0,0,0,0],"split_type":[0,0,0,0,0,0,0,0,0,0,0],"sum_hessian":[1.7877155E2,1.7575664E2,3.0149062E0,1.6687344E2,8.8832035E0,1.6608114E0,1.3540946E0,2.5471494E0,1.643263E2,4.16668E0,4.716524E0],"tree_param":{"num_deleted":"0","num_feature":"7","num_nodes":"11","size_leaf_vector":"1"}},{"base_weights":[2.3323358E-3,2.9878828E-1,-2.3063846E-2,-4.1621593E-1,6.130061E-1,-7.338404E-1,-5.750856E-3,-7.661988E-2,4.3221887E-2,-8.720351E-3,8.902107E-2,-1.0129E-1,-2.3660913E-2,-2.7276971E-3,4.298479E-2],"categories":[],"categories_nodes":[],"categories_segments":[],"categories_sizes":[],"default_left":[0,0,0,0,0,0,0,0,0,0,0,0,0,0,0],"id":47,"left_children":[1,3,5,7,9,11,13,-1,-1,-1,-1,-1,-1,-1,-1],"loss_changes":[1.3588431E0,3.4545908E0,2.0425653E0,1.799011E0,2.0763993E0,3.0803728E-1,1.5437125E0,0E0,0E0,0E0,0E0,0E0,0E0,0E0,0E0],"parents":[2147483647,0,0,1,1,2,2,3,3,4,4,5,5,6,6],"right_children":[2,4,6,8,10,12,14,-1,-1,-1,-1,-1,-1,-1,-1],"split_conditions":[-1.5659906E-2,-6.114908E-3,-1.342706E-2,2.3976695E-2,-3.4641683E-2,1.8637545E-3,2.3745392E-2,-7.661988E-2,4.3221887E-2,-8.720351E-3,8.902107E-2,-1.0129E-1,-2.3660913E-2,-2.7276971E-3,4.298479E-2],"split_indices":[5,4,5,0,5,2,4,0,0,0,0,0,0,0,0],"split_type":[0,0,0,0,0,0,0,0,0,0,0,0,0,0,0],"sum_hessian":[1.7856953E2,1.3240839E1,1.653287E2,3.9432793E0,9.29756E0,2.947174E0,1.6238153E2,2.8603146E0,1.0829648E0,2.831274E0,6.466286E0,1.2234567E0,1.7237172E0,1.5562817E2,6.7533445E0],"tree_param":{"num_deleted":"0","num_feature":"7","num_nodes":"15","size_leaf_vector":"1"}},{"base_weights":[1.9500125E-3,7.413987E-2,-8.19339E-3,-1.5020096E-1,4.9138263E-2,4.3902237E-2,-3.1300467E-2,1.2910516E-3,8.0497354E-2],"categories":[],"categories_nodes":[],"categories_segments":[],"categories_sizes":[],"default_left":[0,0,0,0,0,0,0,0,0],"id":48,"left_children":[1,-1,3,5,7,-1,-1,-1,-1],"loss_changes":[1.3510363E0,0E0,1.4555815E0,5.068658E0,3.480085E0,0E0,0E0,0E0,0E0],"parents":[2147483647,0,0,2,2,3,3,4,4],"right_children":[2,-1,4,6,8,-1,-1,-1,-1],"split_conditions":[1.6674929E1,7.413987E-2,4.348878E1,1.0735453E-2,2.4219234E-2,4.3902237E-2,-3.1300467E-2,1.2910516E-3,8.0497354E-2],"split_indices":[1,0,1,0,6,0,0,0,0],"split_type":[0,0,0,0,0,0,0,0,0],"sum_hessian":[1.7831567E2,1.4374117E0,1.7687827E2,5.04058E1,1.2647246E2,1.0544876E1,3.9860924E1,1.2165836E2,4.8140945E0],"tree_param":{"num_deleted":"0","num_feature":"7","num_nodes":"9","size_leaf_vector":"1"}},{"base_weights":[2.7768915E-3,3.627282E-1,-1.8469863E-2,5.8474228E-2,9.74E-2,-8.693796E-1,2.5987723E-3,8.736613E-2,-4.016916E-2,-1.2187546E-1,-2.8074623E-4,-1.8234424E-2,5.6612673E-3],"categories":[],"categories_nodes":[],"categories_segments":[],"categories_sizes":[],"default_left":[0,0,0,0,0,0,0,0,0,0,0,0,0],"id":49,"left_children":[1,3,5,7,-1,9,11,-1,-1,-1,-1,-1,-1],"loss_changes":[1.3756447E0,1.8075626E0,3.0494578E0,3.260932E0,0E0,1.2408726E0,1.6772048E0,0E0,0E0,0E0,0E0,0E0,0E0],"parents":[2147483647,0,0,1,1,2,2,3,3,5,5,6,6],"right_children":[2,4,6,8,-1,10,12,-1,-1,-1,-1,-1,-1],"split_conditions":[2.5501652E1,1.6742587E-2,2.7539652E1,1.3507729E-2,9.74E-2,-3.5082966E-3,-6.2280027E-3,8.736613E-2,-4.016916E-2,-1.2187546E-1,-2.8074623E-4,-1.8234424E-2,5.6612673E-3],"split_indices":[1,0,1,0,0,2,3,0,0,0,0,0,0],"split_type":[0,0,0,0,0,0,0,0,0,0,0,0,0],"sum_hessian":[1.7799863E2,9.025259E0,1.6897336E2,6.757464E0,2.2677956E0,3.1098561E0,1.6586351E2,2.1139708E0,4.643493E0,1.9266727E0,1.1831834E0,3.6954796E1,1.289087E2],"tree_param":{"num_deleted":"0","num_feature":"7","num_nodes":"13","size_leaf_vector":"1"}},{"base_weights":[2.61125E-3,1.3571222E-1,-5.164152E-2,2.306904E-1,-6.955785E-1,-8.9389384E-1,-1.2002598E-2,1.1445242E-2,9.0429574E-2,-1.0009388E-1,1.0061477E-2,-2.9674971E-2,-1.4624806E-1,-1.899748E-2,1.1432671E-2],"categories":[],"categories_nodes":[],"categories_segments":[],"categories_sizes":[],"default_left":[0,0,0,0,0,0,0,0,0,0,0,0,0,0,0],"id":50,"left_children":[1,3,5,7,9,11,13,-1,-1,-1,-1,-1,-1,-1,-1],"loss_changes":[1.2977759E0,4.2690063E0,4.253083E0,3.6119244E0,1.4585268E0,1.5104103E0,2.786824E0,0E0,0E0,0E0,0E0,0E0,0E0,0E0,0E0],"parents":[2147483647,0,0,1,1,2,2,3,3,4,4,5,5,6,6],"right_children":[2,4,6,8,10,12,14,-1,-1,-1,-1,-1,-1,-1,-1],"split_conditions":[-3.80494E-3,1.8993055E-2,-3.2791412E-3,-5.252613E-3,2.0738184E-2,5.901662E1,-9.0359675E-4,1.1445242E-2,9.0429574E-2,-1.0009388E-1,1.0061477E-2,-2.9674971E-2,-1.4624806E-1,-1.899748E-2,1.1432671E-2],"split_indices":[5,3,5,5,0,1,3,0,0,0,0,0,0,0,0],"split_type":[0,0,0,0,0,0,0,0,0,0,0,0,0,0,0],"sum_hessian":[1.7774953E2,5.103685E1,1.2671268E2,4.645202E1,4.5848327E0,4.7267723E0,1.2198591E2,4.0613605E1,5.838413E0,3.128007E0,1.4568257E0,3.0478015E0,1.6789705E0,5.043271E1,7.155319E1],"tree_param":{"num_deleted":"0","num_feature":"7","num_nodes":"15","size_leaf_vector":"1"}},{"base_weights":[1.4492484E-3,-1.55011965E-2,4.2947853E-1,1.7233387E-2,-3.4951612E-1,1.941387E-1,7.147454E-2,3.752936E-2,-8.82183E-4,-5.219783E-3,-7.800617E-2,5.338272E-2,-1.6303837E-2],"categories":[],"categories_nodes":[],"categories_segments":[],"categories_sizes":[],"default_left":[0,0,0,0,0,0,0,0,0,0,0,0,0],"id":51,"left_children":[1,3,5,7,9,11,-1,-1,-1,-1,-1,-1,-1],"loss_changes":[1.3023621E0,1.8948432E0,3.202871E-1,1.4799951E0,1.9390644E0,7.0819426E-1,0E0,0E0,0E0,0E0,0E0,0E0,0E0],"parents":[2147483647,0,0,1,1,2,2,3,3,4,4,5,5],"right_children":[2,4,6,8,10,12,-1,-1,-1,-1,-1,-1,-1],"split_conditions":[2.819188E-2,2.0315476E-2,1.20157525E-2,-1.70967E-2,4.968512E-3,-1.7390804E-2,7.147454E-2,3.752936E-2,-8.82183E-4,-5.219783E-3,-7.800617E-2,5.338272E-2,-1.6303837E-2],"split_indices":[0,0,3,3,3,3,0,0,0,0,0,0,0],"split_type":[0,0,0,0,0,0,0,0,0,0,0,0,0],"sum_hessian":[1.7758763E2,1.7174992E2,5.8377066E0,1.5728397E2,1.4465951E1,4.1196356E0,1.7180713E0,9.759643E0,1.4752432E2,9.220122E0,5.245828E0,1.8580186E0,2.2616167E0],"tree_param":{"num_deleted":"0","num_feature":"7","num_nodes":"13","size_leaf_vector":"1"}},{"base_weights":[1.6887297E-3,-1.07997265E-2,5.538728E-1,6.819598E-3,-8.893337E-2,8.100505E-3,8.142686E-2,4.8064087E-3,-2.0013528E-2],"categories":[],"categories_nodes":[],"categories_segments":[],"categories_sizes":[],"default_left":[0,0,0,0,0,0,0,0,0],"id":52,"left_children":[1,3,5,7,-1,-1,-1,-1,-1],"loss_changes":[1.2366595E0,2.7226346E0,4.2239642E-1,1.4866472E0,0E0,0E0,0E0,0E0,0E0],"parents":[2147483647,0,0,1,1,2,2,3,3],"right_children":[2,4,6,8,-1,-1,-1,-1,-1],"split_conditions":[8.784322E1,8.534146E1,1.3945716E-2,1.1505618E-2,-8.893337E-2,8.100505E-3,8.142686E-2,4.8064087E-3,-2.0013528E-2],"split_indices":[1,1,5,2,0,0,0,0,0],"split_type":[0,0,0,0,0,0,0,0,0],"sum_hessian":[1.7746445E2,1.7449835E2,2.966095E0,1.7204025E2,2.4580934E0,1.5189073E0,1.4471877E0,1.4409167E2,2.7948587E1],"tree_param":{"num_deleted":"0","num_feature":"7","num_nodes":"9","size_leaf_vector":"1"}},{"base_weights":[1.4537845E-3,-1.0942312E-2,5.5833566E-1,1.9374214E-2,-2.9806408E-1,8.192355E-2,3.1145925E-3,5.1070224E-3,-4.283866E-2,2.6626108E-2,-6.818231E-2],"categories":[],"categories_nodes":[],"categories_segments":[],"categories_sizes":[],"default_left":[0,0,0,0,0,0,0,0,0,0,0],"id":53,"left_children":[1,3,5,7,9,-1,-1,-1,-1,-1,-1],"loss_changes":[1.2373673E0,1.5330585E0,5.1132596E-1,2.2875319E0,3.8237207E0,0E0,0E0,0E0,0E0,0E0,0E0],"parents":[2147483647,0,0,1,1,2,2,3,3,4,4],"right_children":[2,4,6,8,10,-1,-1,-1,-1,-1,-1],"split_conditions":[3.1095346E-2,1.5974116E-2,3.8776517E-2,8.023549E1,-4.8492788E-4,8.192355E-2,3.1145925E-3,5.1070224E-3,-4.283866E-2,2.6626108E-2,-6.818231E-2],"split_indices":[2,2,2,1,3,0,0,0,0,0,0],"split_type":[0,0,0,0,0,0,0,0,0,0,0],"sum_hessian":[1.7736143E2,1.7445837E2,2.9030633E0,1.5864043E2,1.5817954E1,1.5714197E0,1.3316437E0,1.4898038E2,9.660051E0,6.5266147E0,9.291339E0],"tree_param":{"num_deleted":"0","num_feature":"7","num_nodes":"11","size_leaf_vector":"1"}},{"base_weights":[1.3830011E-3,-1.871682E-2,3.684503E-1,1.4248868E-2,-1.0551803E0,-4.706086E-1,7.239489E-1,6.912409E-3,-2.1176724E-2,-1.3647489E-2,-1.4818539E-1,4.042546E-2,-1.1192886E-1,1.1552799E-1,-5.2156206E-3],"categories":[],"categories_nodes":[],"categories_segments":[],"categories_sizes":[],"default_left":[0,0,0,0,0,0,0,0,0,0,0,0,0,0,0],"id":54,"left_children":[1,3,5,7,9,11,13,-1,-1,-1,-1,-1,-1,-1,-1],"loss_changes":[1.3223001E0,5.8229847E0,3.115982E0,2.0701392E0,1.8569317E0,2.36778E0,2.3798678E0,0E0,0E0,0E0,0E0,0E0,0E0,0E0,0E0],"parents":[2147483647,0,0,1,1,2,2,3,3,4,4,5,5,6,6],"right_children":[2,4,6,8,10,12,14,-1,-1,-1,-1,-1,-1,-1,-1],"split_conditions":[2.3048671E-2,2.0446526E-2,1.4285678E-2,1.1099432E-2,-1.4200608E-3,1.4126105E-3,3.5483886E-2,6.912409E-3,-2.1176724E-2,-1.3647489E-2,-1.4818539E-1,4.042546E-2,-1.1192886E-1,1.1552799E-1,-5.2156206E-3],"split_indices":[3,3,0,5,4,6,3,0,0,0,0,0,0,0,0],"split_type":[0,0,0,0,0,0,0,0,0,0,0,0,0,0,0],"sum_hessian":[1.7728763E2,1.6898347E2,8.304163E0,1.6473032E2,4.2531495E0,2.374945E0,5.9292183E0,1.33107E2,3.1623333E1,1.7674239E0,2.4857254E0,1.1716142E0,1.2033309E0,3.4970975E0,2.4321208E0],"tree_param":{"num_deleted":"0","num_feature":"7","num_nodes":"15","size_leaf_vector":"1"}},{"base_weights":[5.379616E-4,-6.896978E-2,1.0195191E-1,8.063121E-3,-5.368253E-1,1.0148966E0,-1.783966E-2,-7.975092E-3,8.830167E-2,1.2798838E-2,-1.0096011E-1,-1.1605924E-2,1.19967796E-1,-2.3517957E-2,4.946962E-2],"categories":[],"categories_nodes":[],"categories_segments":[],"categories_sizes":[],"default_left":[0,0,0,0,0,0,0,0,0,0,0,0,0,0,0],"id":55,"left_children":[1,3,5,7,9,11,13,-1,-1,-1,-1,-1,-1,-1,-1],"loss_changes":[1.2622515E0,3.8336549E0,7.981697E0,7.155626E0,4.855132E0,1.9079828E0,7.396438E0,0E0,0E0,0E0,0E0,0E0,0E0,0E0,0E0],"parents":[2147483647,0,0,1,1,2,2,3,3,4,4,5,5,6,6],"right_children":[2,4,6,8,10,12,14,-1,-1,-1,-1,-1,-1,-1,-1],"split_conditions":[5.9625717E1,1.1020787E-2,6.1873646E1,7.2484026E-3,-3.3933632E-3,-4.4362843E-3,1.4318017E-2,-7.975092E-3,8.830167E-2,1.2798838E-2,-1.0096011E-1,-1.1605924E-2,1.19967796E-1,-2.3517957E-2,4.946962E-2],"split_indices":[1,4,1,4,6,5,0,0,0,0,0,0,0,0,0],"split_type":[0,0,0,0,0,0,0,0,0,0,0,0,0,0,0],"sum_hessian":[1.7706924E2,1.05251335E2,7.181792E1,9.121539E1,1.4035944E1,7.463741E0,6.435417E1,8.372159E1,7.493801E0,6.136346E0,7.899598E0,1.1004341E0,6.363307E0,4.5571014E1,1.8783161E1],"tree_param":{"num_deleted":"0","num_feature":"7","num_nodes":"15","size_leaf_vector":"1"}},{"base_weights":[1.3442787E-3,-1.1004655E-2,5.524946E-1,4.6192403E-3,-8.0651216E-2,7.874869E-2,7.2208676E-3,-3.5613194E-2,2.650773E-3],"categories":[],"categories_nodes":[],"categories_segments":[],"categories_sizes":[],"default_left":[0,0,0,0,0,0,0,0,0],"id":56,"left_children":[1,3,5,7,-1,-1,-1,-1,-1],"loss_changes":[1.2154888E0,2.1760619E0,3.8484514E-1,1.3708285E0,0E0,0E0,0E0,0E0,0E0],"parents":[2147483647,0,0,1,1,2,2,3,3],"right_children":[2,4,6,8,-1,-1,-1,-1,-1],"split_conditions":[8.784322E1,8.534146E1,4.296577E-3,-2.6060592E-2,-8.0651216E-2,7.874869E-2,7.2208676E-3,-3.5613194E-2,2.650773E-3],"split_indices":[1,1,6,6,0,0,0,0,0],"split_type":[0,0,0,0,0,0,0,0,0],"sum_hessian":[1.7669437E2,1.7378072E2,2.9136531E0,1.7140842E2,2.3722956E0,1.5269382E0,1.386715E0,8.931714E0,1.624767E2],"tree_param":{"num_deleted":"0","num_feature":"7","num_nodes":"9","size_leaf_vector":"1"}},{"base_weights":[1.0702293E-3,2.6756057E-1,-2.3704195E-2,9.0266064E-2,3.9889712E-2,-3.054931E-1,3.0596206E-2,-1.0005174E-1,2.7426023E-2,7.532925E-2,-4.272946E-2,-1.3615245E-2,1.5986454E-2],"categories":[],"categories_nodes":[],"categories_segments":[],"categories_sizes":[],"default_left":[0,0,0,0,0,0,0,0,0,0,0,0,0],"id":57,"left_children":[1,3,5,-1,7,9,11,-1,-1,-1,-1,-1,-1],"loss_changes":[1.1788313E0,2.1599433E0,2.5096493E0,0E0,3.2555168E0,3.7382846E0,2.9945345E0,0E0,0E0,0E0,0E0,0E0,0E0],"parents":[2147483647,0,0,1,1,2,2,4,4,5,5,6,6],"right_children":[2,4,6,-1,8,10,12,-1,-1,-1,-1,-1,-1],"split_conditions":[7.8118723E-3,5.1597637E1,9.700533E-3,9.0266064E-2,5.9102436E1,3.404141E1,4.9561073E1,-1.0005174E-1,2.7426023E-2,7.532925E-2,-4.272946E-2,-1.3615245E-2,1.5986454E-2],"split_indices":[0,1,0,0,1,1,1,0,0,0,0,0,0],"split_type":[0,0,0,0,0,0,0,0,0,0,0,0,0],"sum_hessian":[1.7659213E2,1.4187032E1,1.624051E2,2.96137E0,1.1225662E1,2.5491648E1,1.3691347E2,1.4628568E0,9.762805E0,2.0950844E0,2.3396563E1,5.9765793E1,7.714767E1],"tree_param":{"num_deleted":"0","num_feature":"7","num_nodes":"13","size_leaf_vector":"1"}},{"base_weights":[1.3388154E-3,3.4291866E-1,-1.8624814E-2,6.25415E-1,-2.1702166E-1,-8.1038046E-1,1.0707072E-3,7.970792E-2,-1.3214856E-2,-6.438631E-2,3.8500518E-2,-1.1546918E-1,1.4439109E-3,-1.6983649E-2,5.1226653E-3],"categories":[],"categories_nodes":[],"categories_segments":[],"categories_sizes":[],"default_left":[0,0,0,0,0,0,0,0,0,0,0,0,0,0,0],"id":58,"left_children":[1,3,5,7,9,11,13,-1,-1,-1,-1,-1,-1,-1,-1],"loss_changes":[1.2137343E0,1.6903211E0,2.6241586E0,9.88338E-1,1.2855383E0,1.1766343E0,1.424278E0,0E0,0E0,0E0,0E0,0E0,0E0,0E0,0E0],"parents":[2147483647,0,0,1,1,2,2,3,3,4,4,5,5,6,6],"right_children":[2,4,6,8,10,12,14,-1,-1,-1,-1,-1,-1,-1,-1],"split_conditions":[2.5501652E1,-1.0658304E-3,2.7539652E1,6.7788325E-3,1.5907057E-2,-3.5082966E-3,-6.2280027E-3,7.970792E-2,-1.3214856E-2,-6.438631E-2,3.8500518E-2,-1.1546918E-1,1.4439109E-3,-1.6983649E-2,5.1226653E-3],"split_indices":[1,4,1,5,0,2,3,0,0,0,0,0,0,0,0],"split_type":[0,0,0,0,0,0,0,0,0,0,0,0,0,0,0],"sum_hessian":[1.7605188E2,8.827928E0,1.6722395E2,5.789916E0,3.0380116E0,3.0844467E0,1.6413951E2,4.67777E0,1.1121458E0,1.7369844E0,1.301027E0,1.8939193E0,1.1905274E0,3.6699432E1,1.2744007E2],"tree_param":{"num_deleted":"0","num_feature":"7","num_nodes":"15","size_leaf_vector":"1"}},{"base_weights":[7.612305E-4,-1.5280836E-2,4.1351834E-1,-8.401431E-2,-2.8929433E-3,1.8763243E-1,6.930203E-2,9.1640554E-2,-1.5842015E-3,5.1113594E-2,-1.4754205E-2],"categories":[],"categories_nodes":[],"categories_segments":[],"categories_sizes":[],"default_left":[0,0,0,0,0,0,0,0,0,0,0],"id":59,"left_children":[1,3,5,-1,7,9,-1,-1,-1,-1,-1],"loss_changes":[1.1768997E0,1.7462889E0,2.8978443E-1,0E0,2.0335336E0,6.228466E-1,0E0,0E0,0E0,0E0,0E0],"parents":[2147483647,0,0,1,1,2,2,4,4,5,5],"right_children":[2,4,6,-1,8,10,-1,-1,-1,-1,-1],"split_conditions":[2.819188E-2,-4.6110943E-2,1.20157525E-2,-8.401431E-2,-3.5527915E-2,-1.7390804E-2,6.930203E-2,9.1640554E-2,-1.5842015E-3,5.1113594E-2,-1.4754205E-2],"split_indices":[0,3,3,0,3,3,0,0,0,0,0],"split_type":[0,0,0,0,0,0,0,0,0,0,0],"sum_hessian":[1.7578543E2,1.7013597E2,5.6494637E0,1.5286603E0,1.6860732E2,4.048713E0,1.6007504E0,1.3728667E0,1.6723444E2,1.7930825E0,2.255631E0],"tree_param":{"num_deleted":"0","num_feature":"7","num_nodes":"11","size_leaf_vector":"1"}},{"base_weights":[1.3389065E-3,2.785246E-1,-2.1953057E-2,1.0289391E-1,4.478325E-4,-6.6699266E-1,-6.1356975E-3,-3.2603707E-2,5.6645658E-2,-9.405363E-2,-2.009443E-2,-7.430376E-2,4.2860676E-4],"categories":[],"categories_nodes":[],"categories_segments":[],"categories_sizes":[],"default_left":[0,0,0,0,0,0,0,0,0,0,0,0,0],"id":60,"left_children":[1,3,5,-1,7,9,11,-1,-1,-1,-1,-1,-1],"loss_changes":[1.146325E0,2.8715067E0,1.6675795E0,0E0,2.225228E0,3.097576E-1,1.2391117E0,0E0,0E0,0E0,0E0,0E0,0E0],"parents":[2147483647,0,0,1,1,2,2,4,4,5,5,6,6],"right_children":[2,4,6,-1,8,10,12,-1,-1,-1,-1,-1,-1],"split_conditions":[-1.5659906E-2,1.3858391E-2,-1.342706E-2,1.0289391E-1,1.9428534E-2,-9.858011E-4,-4.6110943E-2,-3.2603707E-2,5.6645658E-2,-9.405363E-2,-2.009443E-2,-7.430376E-2,4.2860676E-4],"split_indices":[5,0,5,0,0,4,3,0,0,0,0,0,0],"split_type":[0,0,0,0,0,0,0,0,0,0,0,0,0],"sum_hessian":[1.7560709E2,1.2763016E1,1.6284407E2,2.720719E0,1.0042296E1,2.912261E0,1.5993181E2,6.6375813E0,3.404715E0,1.1935856E0,1.7186753E0,1.2500019E0,1.5868181E2],"tree_param":{"num_deleted":"0","num_feature":"7","num_nodes":"13","size_leaf_vector":"1"}},{"base_weights":[8.940224E-4,6.8851285E-2,-7.974752E-3,-1.8533728E-1,2.9241456E-2,-4.496857E-2,1.2584264E-2,6.851776E-2,-2.9241977E-5],"categories":[],"categories_nodes":[],"categories_segments":[],"categories_sizes":[],"default_left":[0,0,0,0,0,0,0,0,0],"id":61,"left_children":[1,-1,3,5,7,-1,-1,-1,-1],"loss_changes":[1.0810007E0,0E0,1.1612394E0,2.5660152E0,2.8207736E0,0E0,0E0,0E0,0E0],"parents":[2147483647,0,0,2,2,3,3,4,4],"right_children":[2,-1,4,6,8,-1,-1,-1,-1],"split_conditions":[1.6674929E1,6.8851285E-2,-9.353066E-3,1.5907057E-2,-8.040904E-3,-4.496857E-2,1.2584264E-2,6.851776E-2,-2.9241977E-5],"split_indices":[1,0,2,0,2,0,0,0,0],"split_type":[0,0,0,0,0,0,0,0,0],"sum_hessian":[1.753612E2,1.2571583E0,1.7410405E2,2.9506054E1,1.4459799E2,1.5712841E1,1.3793213E1,5.273601E0,1.3932439E2],"tree_param":{"num_deleted":"0","num_feature":"7","num_nodes":"9","size_leaf_vector":"1"}},{"base_weights":[1.4357824E-3,-9.9596875E-3,5.2107984E-1,5.037543E-3,-7.803824E-2,7.572258E-2,5.4444997E-3,4.671161E-3,-1.9532675E-2],"categories":[],"categories_nodes":[],"categories_segments":[],"categories_sizes":[],"default_left":[0,0,0,0,0,0,0,0,0],"id":62,"left_children":[1,3,5,7,-1,-1,-1,-1,-1],"loss_changes":[1.0492004E0,2.0086298E0,3.7773752E-1,1.4385129E0,0E0,0E0,0E0,0E0,0E0],"parents":[2147483647,0,0,1,1,2,2,3,3],"right_children":[2,4,6,8,-1,-1,-1,-1,-1],"split_conditions":[8.784322E1,8.534146E1,4.296577E-3,1.1241987E-2,-7.803824E-2,7.572258E-2,5.4444997E-3,4.671161E-3,-1.9532675E-2],"split_indices":[1,1,6,3,0,0,0,0,0],"split_type":[0,0,0,0,0,0,0,0,0],"sum_hessian":[1.7530585E2,1.7250378E2,2.8020663E0,1.7018439E2,2.3193884E0,1.4470385E0,1.3550279E0,1.4151694E2,2.8667454E1],"tree_param":{"num_deleted":"0","num_feature":"7","num_nodes":"9","size_leaf_vector":"1"}},{"base_weights":[1.2400901E-3,-1.3713641E-2,3.9368176E-1,1.790242E-2,-3.37782E-1,1.707192E-1,6.768515E-2,6.675893E-2,5.027098E-4,-4.6486794E-3,-7.533317E-2,5.313877E-2,-1.3079827E-2],"categories":[],"categories_nodes":[],"categories_segments":[],"categories_sizes":[],"default_left":[0,0,0,0,0,0,0,0,0,0,0,0,0],"id":63,"left_children":[1,3,5,7,9,11,-1,-1,-1,-1,-1,-1,-1],"loss_changes":[1.0394373E0,1.7550113E0,2.949159E-1,1.3055679E0,1.8077626E0,6.104851E-1,0E0,0E0,0E0,0E0,0E0,0E0,0E0],"parents":[2147483647,0,0,1,1,2,2,3,3,4,4,5,5],"right_children":[2,4,6,8,10,12,-1,-1,-1,-1,-1,-1,-1],"split_conditions":[2.819188E-2,2.0315476E-2,1.20157525E-2,-3.5527915E-2,4.968512E-3,4.7273674E1,6.768515E-2,6.675893E-2,5.027098E-4,-4.6486794E-3,-7.533317E-2,5.313877E-2,-1.3079827E-2],"split_indices":[0,0,3,2,3,1,0,0,0,0,0,0,0],"split_type":[0,0,0,0,0,0,0,0,0,0,0,0,0],"sum_hessian":[1.7520248E2,1.6970119E2,5.501296E0,1.5547757E2,1.4223613E1,3.974632E0,1.5266643E0,2.0331826E0,1.5344438E2,9.015634E0,5.207979E0,1.4626567E0,2.511975E0],"tree_param":{"num_deleted":"0","num_feature":"7","num_nodes":"13","size_leaf_vector":"1"}},{"base_weights":[1.6816685E-3,-1.6022893E-2,3.3456114E-1,1.4275061E-2,-9.616887E-1,-4.2337722E-1,6.6940564E-1,6.5490208E-3,-1.9571317E-2,-1.0470491E-2,-1.3638793E-1,4.0013015E-2,-1.0477491E-1,1.09233E-1,-7.823261E-3],"categories":[],"categories_nodes":[],"categories_segments":[],"categories_sizes":[],"default_left":[0,0,0,0,0,0,0,0,0,0,0,0,0,0,0],"id":64,"left_children":[1,3,5,7,9,11,13,-1,-1,-1,-1,-1,-1,-1,-1],"loss_changes":[1.0432065E0,4.8318534E0,2.5520058E0,1.7757792E0,1.6615677E0,2.1425192E0,2.1683118E0,0E0,0E0,0E0,0E0,0E0,0E0,0E0,0E0],"parents":[2147483647,0,0,1,1,2,2,3,3,4,4,5,5,6,6],"right_children":[2,4,6,8,10,12,14,-1,-1,-1,-1,-1,-1,-1,-1],"split_conditions":[2.3048671E-2,2.0446526E-2,1.4285678E-2,1.1099432E-2,-1.4200608E-3,1.4126105E-3,3.5483886E-2,6.5490208E-3,-1.9571317E-2,-1.0470491E-2,-1.3638793E-1,4.0013015E-2,-1.0477491E-1,1.09233E-1,-7.823261E-3],"split_indices":[3,3,0,5,4,6,3,0,0,0,0,0,0,0,0],"split_type":[0,0,0,0,0,0,0,0,0,0,0,0,0,0,0],"sum_hessian":[1.7510052E2,1.6716171E2,7.938814E0,1.6292665E2,4.235062E0,2.351552E0,5.5872626E0,1.3153421E2,3.1392452E1,1.7552751E0,2.4797869E0,1.1689403E0,1.1826116E0,3.2741175E0,2.3131452E0],"tree_param":{"num_deleted":"0","num_feature":"7","num_nodes":"15","size_leaf_vector":"1"}},{"base_weights":[8.6126773E-4,-1.4725807E-2,3.655112E-1,5.952113E-2,-1.4015321E-1,-4.7721695E-2,7.348247E-1,-2.224526E-3,6.171562E-2,-3.2780317E-3,-7.3484436E-2,1.0018003E-1,1.7777866E-3],"categories":[],"categories_nodes":[],"categories_segments":[],"categories_sizes":[],"default_left":[0,0,0,0,0,0,0,0,0,0,0,0,0],"id":65,"left_children":[1,3,5,7,9,-1,11,-1,-1,-1,-1,-1,-1],"loss_changes":[1.004858E0,1.5877442E0,2.6062155E0,4.9032774E0,4.021784E0,0E0,1.0221863E0,0E0,0E0,0E0,0E0,0E0,0E0],"parents":[2147483647,0,0,1,1,2,2,3,3,4,4,6,6],"right_children":[2,4,6,8,10,-1,12,-1,-1,-1,-1,-1,-1],"split_conditions":[2.4219234E-2,3.366553E-3,4.2396996E1,1.4950809E-3,1.1531659E-2,-4.7721695E-2,1.0579643E-2,-2.224526E-3,6.171562E-2,-3.2780317E-3,-7.3484436E-2,1.0018003E-1,1.7777866E-3],"split_indices":[6,6,1,6,4,0,3,0,0,0,0,0,0],"split_type":[0,0,0,0,0,0,0,0,0,0,0,0,0],"sum_hessian":[1.7484557E2,1.685984E2,6.2471743E0,1.0623682E2,6.2361584E1,1.8145106E0,4.4326634E0,9.3488625E1,1.274819E1,5.3717823E1,8.64376E0,2.9406588E0,1.4920046E0],"tree_param":{"num_deleted":"0","num_feature":"7","num_nodes":"13","size_leaf_vector":"1"}},{"base_weights":[1.0647413E-3,-1.0121284E-2,5.18255E-1,3.8869355E-3,-7.40834E-2,6.2860274E-3,7.657177E-2,4.1723163E-3,-1.8536275E-2],"categories":[],"categories_nodes":[],"categories_segments":[],"categories_sizes":[],"default_left":[0,0,0,0,0,0,0,0,0],"id":66,"left_children":[1,3,5,7,-1,-1,-1,-1,-1],"loss_changes":[1.0214103E0,1.7727654E0,3.7307775E-1,1.2296765E0,0E0,0E0,0E0,0E0,0E0],"parents":[2147483647,0,0,1,1,2,2,3,3],"right_children":[2,4,6,8,-1,-1,-1,-1,-1],"split_conditions":[8.784322E1,8.534146E1,1.3945716E-2,1.1505618E-2,-7.40834E-2,6.2860274E-3,7.657177E-2,4.1723163E-3,-1.8536275E-2],"split_indices":[1,1,5,2,0,0,0,0,0],"split_type":[0,0,0,0,0,0,0,0,0],"sum_hessian":[1.7464589E2,1.7190822E2,2.7376785E0,1.6965059E2,2.2576272E0,1.4054005E0,1.332278E0,1.4203368E2,2.761691E1],"tree_param":{"num_deleted":"0","num_feature":"7","num_nodes":"9","size_leaf_vector":"1"}},{"base_weights":[9.371489E-4,1.2149153E-1,-4.7100764E-2,-3.1446107E-2,5.25006E-1,-3.2371768E-1,4.9223095E-2,1.2058365E-2,-8.2476534E-2,8.0254465E-2,-7.206136E-3,4.2349704E-2,-4.4144463E-2,-1.8647935E-2,2.2157729E-2],"categories":[],"categories_nodes":[],"categories_segments":[],"categories_sizes":[],"default_left":[0,0,0,0,0,0,0,0,0,0,0,0,0,0,0],"id":67,"left_children":[1,3,5,7,9,11,13,-1,-1,-1,-1,-1,-1,-1,-1],"loss_changes":[1.022309E0,3.12047E0,3.3796659E0,4.6122117E0,2.3579383E0,3.0668554E0,3.8805206E0,0E0,0E0,0E0,0E0,0E0,0E0,0E0,0E0],"parents":[2147483647,0,0,1,1,2,2,3,3,4,4,5,5,6,6],"right_children":[2,4,6,8,10,12,14,-1,-1,-1,-1,-1,-1,-1,-1],"split_conditions":[-3.9724237E-3,-6.838998E-3,5.734359E-5,-8.296541E-3,4.296577E-3,-9.097133E-3,-9.0359675E-4,1.2058365E-2,-8.2476534E-2,8.0254465E-2,-7.206136E-3,4.2349704E-2,-4.4144463E-2,-1.8647935E-2,2.2157729E-2],"split_indices":[5,5,5,5,2,6,3,0,0,0,0,0,0,0,0],"split_type":[0,0,0,0,0,0,0,0,0,0,0,0,0,0,0],"sum_hessian":[1.7454048E2,4.9297073E1,1.2524341E2,3.6416702E1,1.288037E1,3.1738375E1,9.350503E1,3.1271843E1,5.144859E0,8.558106E0,4.3222637E0,3.9663844E0,2.7771992E1,3.945986E1,5.4045166E1],"tree_param":{"num_deleted":"0","num_feature":"7","num_nodes":"15","size_leaf_vector":"1"}},{"base_weights":[9.4547815E-4,-6.153185E-2,9.2735626E-2,1.2017061E-1,-2.3782524E-1,9.454236E-1,-1.807942E-2,2.4842545E-2,-5.1560666E-2,-4.574264E-2,4.4870325E-3,2.4271192E-2,1.2808403E-1,-2.0783305E-2,4.3987777E-2],"categories":[],"categories_nodes":[],"categories_segments":[],"categories_sizes":[],"default_left":[0,0,0,0,0,0,0,0,0,0,0,0,0,0,0],"id":68,"left_children":[1,3,5,7,9,11,13,-1,-1,-1,-1,-1,-1,-1,-1],"loss_changes":[1.0115623E0,3.390832E0,6.7668176E0,4.396995E0,3.3486354E0,1.6299915E0,5.6701913E0,0E0,0E0,0E0,0E0,0E0,0E0,0E0,0E0],"parents":[2147483647,0,0,1,1,2,2,3,3,4,4,5,5,6,6],"right_children":[2,4,6,8,10,12,14,-1,-1,-1,-1,-1,-1,-1,-1],"split_conditions":[5.9625717E1,1.3858391E-2,6.1873646E1,5.6864307E1,1.7994555E-2,-3.464301E-3,1.4318017E-2,2.4842545E-2,-5.1560666E-2,-4.574264E-2,4.4870325E-3,2.4271192E-2,1.2808403E-1,-2.0783305E-2,4.3987777E-2],"split_indices":[1,0,1,1,0,4,0,0,0,0,0,0,0,0,0],"split_type":[0,0,0,0,0,0,0,0,0,0,0,0,0,0,0],"sum_hessian":[1.7439505E2,1.0396233E2,7.0432724E1,5.135254E1,5.2609795E1,7.234432E0,6.319829E1,4.3239185E1,8.113351E0,2.9261242E1,2.3348555E1,2.8943224E0,4.34011E0,4.5069862E1,1.8128431E1],"tree_param":{"num_deleted":"0","num_feature":"7","num_nodes":"15","size_leaf_vector":"1"}},{"base_weights":[1.6083414E-3,3.2637975E-1,-1.6987996E-2,4.838011E-2,9.0507604E-2,-7.848293E-1,2.0979575E-3,8.128425E-2,-3.4847815E-2,-1.1075667E-1,-7.80796E-5,-1.6437126E-2,4.9379203E-3],"categories":[],"categories_nodes":[],"categories_segments":[],"categories_sizes":[],"default_left":[0,0,0,0,0,0,0,0,0,0,0,0,0],"id":69,"left_children":[1,3,5,7,-1,9,11,-1,-1,-1,-1,-1,-1],"loss_changes":[1.0620959E0,1.4883937E0,2.4404495E0,2.555554E0,0E0,1.0211325E0,1.2940261E0,0E0,0E0,0E0,0E0,0E0,0E0],"parents":[2147483647,0,0,1,1,2,2,3,3,5,5,6,6],"right_children":[2,4,6,8,-1,10,12,-1,-1,-1,-1,-1,-1],"split_conditions":[2.5501652E1,1.6742587E-2,2.7539652E1,1.3507729E-2,9.0507604E-2,-3.5082966E-3,-6.7620818E-3,8.128425E-2,-3.4847815E-2,-1.1075667E-1,-7.80796E-5,-1.6437126E-2,4.9379203E-3],"split_indices":[1,0,1,0,0,2,4,0,0,0,0,0,0],"split_type":[0,0,0,0,0,0,0,0,0,0,0,0,0],"sum_hessian":[1.7393849E2,8.52391E0,1.6541458E2,6.4898543E0,2.034056E0,3.0388472E0,1.6237573E2,1.8595793E0,4.630275E0,1.860419E0,1.1784282E0,3.5369453E1,1.2700628E2],"tree_param":{"num_deleted":"0","num_feature":"7","num_nodes":"13","size_leaf_vector":"1"}},{"base_weights":[1.5726406E-3,2.5985613E-1,-2.0605825E-2,6.794044E-1,-2.6758695E-1,-4.8755732E-1,2.1070668E-2,6.584549E-3,9.461229E-2,2.5452156E-2,-6.414956E-2,-8.660267E-2,2.7411291E-2,-4.2182792E-2,4.76565E-3],"categories":[],"categories_nodes":[],"categories_segments":[],"categories_sizes":[],"default_left":[0,0,0,0,0,0,0,0,0,0,0,0,0,0,0],"id":70,"left_children":[1,3,5,7,9,11,13,-1,-1,-1,-1,-1,-1,-1,-1],"loss_changes":[1.0061634E0,3.255358E0,3.1594884E0,1.2499118E0,1.5046177E0,4.0716605E0,1.7806945E0,0E0,0E0,0E0,0E0,0E0,0E0,0E0,0E0],"parents":[2147483647,0,0,1,1,2,2,3,3,4,4,5,5,6,6],"right_children":[2,4,6,8,10,12,14,-1,-1,-1,-1,-1,-1,-1,-1],"split_conditions":[-1.70967E-2,2.5646864E-3,-1.0725666E-2,-3.186464E-2,-6.189516E-3,4.9452095E1,-2.6060592E-2,6.584549E-3,9.461229E-2,2.5452156E-2,-6.414956E-2,-8.660267E-2,2.7411291E-2,-4.2182792E-2,4.76565E-3],"split_indices":[3,6,3,3,4,1,6,0,0,0,0,0,0,0,0],"split_type":[0,0,0,0,0,0,0,0,0,0,0,0,0,0,0],"sum_hessian":[1.737121E2,1.2889414E1,1.608227E2,7.018513E0,5.8709006E0,1.23010235E1,1.4852167E2,2.50436E0,4.514153E0,2.5831733E0,3.287727E0,8.126168E0,4.174855E0,7.5685797E0,1.409531E2],"tree_param":{"num_deleted":"0","num_feature":"7","num_nodes":"15","size_leaf_vector":"1"}},{"base_weights":[1.2724565E-3,2.6612258E-1,-2.0677602E-2,-3.8393027E-1,5.6131715E-1,-6.1904454E-1,-5.946806E-3,2.2262465E-3,-8.002903E-2,4.0768101E-4,8.782263E-2,-8.97756E-2,-1.6641712E-2,6.9059143E-3,-9.714976E-3],"categories":[],"categories_nodes":[],"categories_segments":[],"categories_sizes":[],"default_left":[0,0,0,0,0,0,0,0,0,0,0,0,0,0,0],"id":71,"left_children":[1,3,5,7,9,11,13,-1,-1,-1,-1,-1,-1,-1,-1],"loss_changes":[1.0201184E0,2.7925208E0,1.4251251E0,8.2753646E-1,1.699095E0,3.4070265E-1,1.0958524E0,0E0,0E0,0E0,0E0,0E0,0E0,0E0,0E0],"parents":[2147483647,0,0,1,1,2,2,3,3,4,4,5,5,6,6],"right_children":[2,4,6,8,10,12,14,-1,-1,-1,-1,-1,-1,-1,-1],"split_conditions":[-1.5659906E-2,-6.114908E-3,-1.342706E-2,-1.0453786E-2,-2.8815556E-2,1.8637545E-3,1.5378913E-3,2.2262465E-3,-8.002903E-2,4.0768101E-4,8.782263E-2,-8.97756E-2,-1.6641712E-2,6.9059143E-3,-9.714976E-3],"split_indices":[5,4,5,4,5,2,4,0,0,0,0,0,0,0,0],"split_type":[0,0,0,0,0,0,0,0,0,0,0,0,0,0,0],"sum_hessian":[1.7352823E2,1.2429498E1,1.6109874E2,3.787775E0,8.641723E0,2.885019E0,1.5821371E2,2.3964124E0,1.3913625E0,3.500119E0,5.1416044E0,1.1768966E0,1.7081225E0,8.694903E1,7.126469E1],"tree_param":{"num_deleted":"0","num_feature":"7","num_nodes":"15","size_leaf_vector":"1"}},{"base_weights":[6.2493276E-4,-1.0812097E-2,5.058483E-1,3.1086722E-2,-1.9747473E-1,7.645214E-2,-1.0022256E-2,-3.295155E-3,6.427265E-2,-5.154961E-2,1.5855767E-2],"categories":[],"categories_nodes":[],"categories_segments":[],"categories_sizes":[],"default_left":[0,0,0,0,0,0,0,0,0,0,0],"id":72,"left_children":[1,3,5,7,9,-1,-1,-1,-1,-1,-1],"loss_changes":[1.0127008E0,1.3469186E0,6.848474E-1,5.538901E0,3.6554384E0,0E0,0E0,0E0,0E0,0E0,0E0],"parents":[2147483647,0,0,1,1,2,2,3,3,4,4],"right_children":[2,4,6,8,10,-1,-1,-1,-1,-1,-1],"split_conditions":[3.4218945E-2,1.1099432E-2,7.933065E-3,7.678287E-3,5.9625717E1,7.645214E-2,-1.0022256E-2,-3.295155E-3,6.427265E-2,-5.154961E-2,1.5855767E-2],"split_indices":[5,5,4,5,1,0,0,0,0,0,0],"split_type":[0,0,0,0,0,0,0,0,0,0,0],"sum_hessian":[1.7331415E2,1.7043452E2,2.8796244E0,1.3987193E2,3.0562588E1,1.8350006E0,1.0446237E0,1.2747185E2,1.2400091E1,1.5906459E1,1.4656129E1],"tree_param":{"num_deleted":"0","num_feature":"7","num_nodes":"11","size_leaf_vector":"1"}},{"base_weights":[1.1361226E-3,3.1320822E-1,-1.6429864E-2,4.4497877E-2,8.794702E-2,-7.385002E-1,1.3491136E-3,6.621287E-2,-3.9772265E-2,-1.0467724E-1,-1.8534325E-4,1.3788688E-2,-5.113095E-3],"categories":[],"categories_nodes":[],"categories_segments":[],"categories_sizes":[],"default_left":[0,0,0,0,0,0,0,0,0,0,0,0,0],"id":73,"left_children":[1,3,5,7,-1,9,11,-1,-1,-1,-1,-1,-1],"loss_changes":[9.599822E-1,1.3807863E0,2.130118E0,2.2795532E0,0E0,9.0352154E-1,1.1740414E0,0E0,0E0,0E0,0E0,0E0,0E0],"parents":[2147483647,0,0,1,1,2,2,3,3,5,5,6,6],"right_children":[2,4,6,8,-1,10,12,-1,-1,-1,-1,-1,-1],"split_conditions":[2.5501652E1,1.6742587E-2,2.7539652E1,1.4028879E-2,8.794702E-2,-3.5082966E-3,-3.9724237E-3,6.621287E-2,-3.9772265E-2,-1.0467724E-1,-1.8534325E-4,1.3788688E-2,-5.113095E-3],"split_indices":[1,0,1,0,0,2,5,0,0,0,0,0,0],"split_type":[0,0,0,0,0,0,0,0,0,0,0,0,0],"sum_hessian":[1.7318124E2,8.331735E0,1.6484952E2,6.3818936E0,1.9498415E0,2.9872768E0,1.6186224E2,2.4553406E0,3.9265528E0,1.8091758E0,1.178101E0,4.448857E1,1.17373665E2],"tree_param":{"num_deleted":"0","num_feature":"7","num_nodes":"13","size_leaf_vector":"1"}},{"base_weights":[1.1612076E-3,-4.9943236E-1,1.19726155E-2,1.0468395E-2,-7.8139134E-2,6.4579785E-1,-7.125074E-3,-9.641667E-3,9.946873E-2,-7.218207E-2,3.2953147E-4],"categories":[],"categories_nodes":[],"categories_segments":[],"categories_sizes":[],"default_left":[0,0,0,0,0,0,0,0,0,0,0],"id":74,"left_children":[1,3,5,-1,-1,7,9,-1,-1,-1,-1],"loss_changes":[9.475164E-1,7.122475E-1,2.0777194E0,0E0,0E0,1.3959386E0,1.2479317E0,0E0,0E0,0E0,0E0],"parents":[2147483647,0,0,1,1,2,2,5,5,6,6],"right_children":[2,4,6,-1,-1,8,10,-1,-1,-1,-1],"split_conditions":[-4.0613055E-2,4.4102952E-4,-2.8260421E-2,1.0468395E-2,-7.8139134E-2,-3.1239814E-3,-4.6110943E-2,-9.641667E-3,9.946873E-2,-7.218207E-2,3.2953147E-4],"split_indices":[4,5,4,0,0,5,3,0,0,0,0],"split_type":[0,0,0,0,0,0,0,0,0,0,0],"sum_hessian":[1.7296819E2,2.7012033E0,1.7026698E2,1.0596206E0,1.6415827E0,4.0203915E0,1.6624658E2,1.5169454E0,2.5034463E0,1.4079869E0,1.6483861E2],"tree_param":{"num_deleted":"0","num_feature":"7","num_nodes":"11","size_leaf_vector":"1"}},{"base_weights":[7.607867E-4,-9.992501E-3,4.975813E-1,-8.032955E-2,-1.3826128E-4,7.615673E-2,-2.3917294E-4,2.8790084E-3,-2.725387E-2],"categories":[],"categories_nodes":[],"categories_segments":[],"categories_sizes":[],"default_left":[0,0,0,0,0,0,0,0,0],"id":75,"left_children":[1,3,5,-1,7,-1,-1,-1,-1],"loss_changes":[9.337914E-1,1.3378626E0,4.905581E-1,0E0,1.3478845E0,0E0,0E0,0E0,0E0],"parents":[2147483647,0,0,1,1,2,2,4,4],"right_children":[2,4,6,-1,8,-1,-1,-1,-1],"split_conditions":[3.1095346E-2,-4.733509E-2,3.8776517E-2,-8.032955E-2,1.5974116E-2,7.615673E-2,-2.3917294E-4,2.8790084E-3,-2.725387E-2],"split_indices":[2,4,2,0,2,0,0,0,0],"split_type":[0,0,0,0,0,0,0,0,0],"sum_hessian":[1.7285631E2,1.7015337E2,2.7029479E0,1.0997732E0,1.6905359E2,1.4265254E0,1.2764224E0,1.5363246E2,1.5421129E1],"tree_param":{"num_deleted":"0","num_feature":"7","num_nodes":"9","size_leaf_vector":"1"}},{"base_weights":[5.304884E-4,-1.3533714E-2,3.7780777E-1,1.5499054E-2,-3.1317282E-1,1.585401E-1,6.5967724E-2,3.409483E-2,-7.684409E-4,1.8801248E-2,-5.17455E-2,-1.830216E-2,4.880639E-2],"categories":[],"categories_nodes":[],"categories_segments":[],"categories_sizes":[],"default_left":[0,0,0,0,0,0,0,0,0,0,0,0,0],"id":76,"left_children":[1,3,5,7,9,11,-1,-1,-1,-1,-1,-1,-1],"loss_changes":[9.2704177E-1,1.4704324E0,2.8347737E-1,1.1686391E0,1.6257366E0,6.349766E-1,0E0,0E0,0E0,0E0,0E0,0E0,0E0],"parents":[2147483647,0,0,1,1,2,2,3,3,4,4,5,5],"right_children":[2,4,6,8,10,12,-1,-1,-1,-1,-1,-1,-1],"split_conditions":[2.819188E-2,2.0315476E-2,1.5827373E-2,-1.70967E-2,-8.637797E-3,1.896135E-2,6.5967724E-2,3.409483E-2,-7.684409E-4,1.8801248E-2,-5.17455E-2,-1.830216E-2,4.880639E-2],"split_indices":[0,0,6,3,5,5,0,0,0,0,0,0,0],"split_type":[0,0,0,0,0,0,0,0,0,0,0,0,0],"sum_hessian":[1.7274869E2,1.6746985E2,5.278839E0,1.5354114E2,1.3928704E1,3.8479548E0,1.4308846E0,9.298757E0,1.4424239E2,4.056396E0,9.872308E0,2.1077716E0,1.7401831E0],"tree_param":{"num_deleted":"0","num_feature":"7","num_nodes":"13","size_leaf_vector":"1"}},{"base_weights":[1.0568242E-3,6.4622976E-2,-6.8192915E-3,-1.2867239E-1,4.193907E-2,3.7701245E-2,-2.6550645E-2,-1.8123038E-2,1.3947618E-2],"categories":[],"categories_nodes":[],"categories_segments":[],"categories_sizes":[],"default_left":[0,0,0,0,0,0,0,0,0],"id":77,"left_children":[1,-1,3,5,7,-1,-1,-1,-1],"loss_changes":[8.864565E-1,0E0,1.0301505E0,3.5278516E0,2.7231271E0,0E0,0E0,0E0,0E0],"parents":[2147483647,0,0,2,2,3,3,4,4],"right_children":[2,-1,4,6,8,-1,-1,-1,-1],"split_conditions":[1.6674929E1,6.4622976E-2,4.348878E1,1.0735453E-2,1.0128736E-2,3.7701245E-2,-2.6550645E-2,-1.8123038E-2,1.3947618E-2],"split_indices":[1,0,1,0,0,0,0,0,0],"split_type":[0,0,0,0,0,0,0,0,0],"sum_hessian":[1.7258206E2,1.1039333E0,1.7147812E2,4.8537643E1,1.22940475E2,9.963013E0,3.857463E1,3.712916E1,8.581132E1],"tree_param":{"num_deleted":"0","num_feature":"7","num_nodes":"9","size_leaf_vector":"1"}},{"base_weights":[1.4025178E-3,2.4436344E-1,-2.1097368E-2,8.5790426E-2,3.82133E-2,-2.837435E-1,2.9930124E-2,-9.125753E-2,2.5730396E-2,2.569942E-2,-4.9930844E-2,3.6379464E-2,-2.8721958E-3],"categories":[],"categories_nodes":[],"categories_segments":[],"categories_sizes":[],"default_left":[0,0,0,0,0,0,0,0,0,0,0,0,0],"id":78,"left_children":[1,3,5,-1,7,9,11,-1,-1,-1,-1,-1,-1],"loss_changes":[9.522654E-1,1.8346055E0,2.1460054E0,0E0,2.7548475E0,3.1637394E0,2.6432137E0,0E0,0E0,0E0,0E0,0E0,0E0],"parents":[2147483647,0,0,1,1,2,2,4,4,5,5,6,6],"right_children":[2,4,6,-1,8,10,12,-1,-1,-1,-1,-1,-1],"split_conditions":[7.8118723E-3,5.1597637E1,9.700533E-3,8.5790426E-2,5.9102436E1,-2.3995084E-3,1.1034753E-2,-9.125753E-2,2.5730396E-2,2.569942E-2,-4.9930844E-2,3.6379464E-2,-2.8721958E-3],"split_indices":[0,1,0,0,1,6,0,0,0,0,0,0,0],"split_type":[0,0,0,0,0,0,0,0,0,0,0,0,0],"sum_hessian":[1.7225415E2,1.3764123E1,1.5849004E2,2.6665194E0,1.1097604E1,2.5040783E1,1.3344925E2,1.4855351E0,9.612069E0,7.0824633E0,1.7958319E1,1.9163353E1,1.142859E2],"tree_param":{"num_deleted":"0","num_feature":"7","num_nodes":"13","size_leaf_vector":"1"}},{"base_weights":[1.490298E-3,-1.2935591E-2,3.5011384E-1,2.404992E-2,-2.1902472E-1,-4.0285867E-2,6.821131E-1,-1.7524007E-4,5.9371512E-2,2.637426E-2,-4.454283E-2,9.599841E-2,-3.0615157E-3],"categories":[],"categories_nodes":[],"categories_segments":[],"categories_sizes":[],"default_left":[0,0,0,0,0,0,0,0,0,0,0,0,0],"id":79,"left_children":[1,3,5,7,9,-1,11,-1,-1,-1,-1,-1,-1],"loss_changes":[8.7400067E-1,1.2780359E0,2.0010145E0,2.0952103E0,2.9052916E0,0E0,1.0520163E0,0E0,0E0,0E0,0E0,0E0,0E0],"parents":[2147483647,0,0,1,1,2,2,3,3,4,4,6,6],"right_children":[2,4,6,8,10,-1,12,-1,-1,-1,-1,-1,-1],"split_conditions":[2.4219234E-2,1.1020787E-2,4.2396996E1,2.3745392E-2,-3.1541311E-3,-4.0285867E-2,1.0579643E-2,-1.7524007E-4,5.9371512E-2,2.637426E-2,-4.454283E-2,9.599841E-2,-3.0615157E-3],"split_indices":[6,6,1,2,5,0,3,0,0,0,0,0,0],"split_type":[0,0,0,0,0,0,0,0,0,0,0,0,0],"sum_hessian":[1.7188455E2,1.659793E2,5.905255E0,1.4147328E2,2.450601E1,1.7416868E0,4.163568E0,1.362968E2,5.1764803E0,7.770918E0,1.6735092E1,2.746052E0,1.4175161E0],"tree_param":{"num_deleted":"0","num_feature":"7","num_nodes":"13","size_leaf_vector":"1"}},{"base_weights":[1.9460778E-3,2.073041E-1,-2.3382286E-2,4.2480294E-2,1.0572932E-1,-6.647114E-1,5.874461E-3,3.2693457E-2,-5.6579616E-2,-5.713253E-3,-9.019929E-2,5.7168286E-3,-2.0110404E-2],"categories":[],"categories_nodes":[],"categories_segments":[],"categories_sizes":[],"default_left":[0,0,0,0,0,0,0,0,0,0,0,0,0],"id":80,"left_children":[1,3,5,7,-1,9,11,-1,-1,-1,-1,-1,-1],"loss_changes":[9.027453E-1,2.6246667E0,2.9041667E0,3.1267831E0,0E0,9.2195845E-1,1.591469E0,0E0,0E0,0E0,0E0,0E0,0E0],"parents":[2147483647,0,0,1,1,2,2,3,3,5,5,6,6],"right_children":[2,4,6,8,-1,10,12,-1,-1,-1,-1,-1,-1],"split_conditions":[8.186567E-3,9.115241E-3,8.598943E-3,2.0057315E-3,1.0572932E-1,-1.6995191E-3,1.1241987E-2,3.2693457E-2,-5.6579616E-2,-5.713253E-3,-9.019929E-2,5.7168286E-3,-2.0110404E-2],"split_indices":[0,4,0,4,0,6,3,0,0,0,0,0,0],"split_type":[0,0,0,0,0,0,0,0,0,0,0,0,0],"sum_hessian":[1.7162682E2,1.8055035E1,1.535718E2,1.6002016E1,2.0530188E0,5.7525163E0,1.4781927E2,1.1218379E1,4.7836366E0,1.9640872E0,3.7884288E0,1.1904187E2,2.87774E1],"tree_param":{"num_deleted":"0","num_feature":"7","num_nodes":"13","size_leaf_vector":"1"}},{"base_weights":[1.6290853E-3,-1.4748546E-2,3.1295538E-1,1.3006396E-2,-8.768808E-1,-3.9553759E-1,6.311711E-1,5.674983E-3,-1.6487919E-2,-8.262346E-3,-1.2523292E-1,3.7477642E-2,-9.82944E-2,1.0507341E-1,-8.9848805E-3],"categories":[],"categories_nodes":[],"categories_segments":[],"categories_sizes":[],"default_left":[0,0,0,0,0,0,0,0,0,0,0,0,0,0,0],"id":81,"left_children":[1,3,5,7,9,11,13,-1,-1,-1,-1,-1,-1,-1,-1],"loss_changes":[8.8402325E-1,3.9550295E0,2.2031436E0,1.25946E0,1.4337308E0,1.861717E0,2.0197358E0,0E0,0E0,0E0,0E0,0E0,0E0,0E0,0E0],"parents":[2147483647,0,0,1,1,2,2,3,3,4,4,5,5,6,6],"right_children":[2,4,6,8,10,12,14,-1,-1,-1,-1,-1,-1,-1,-1],"split_conditions":[2.3048671E-2,2.0446526E-2,1.4285678E-2,1.1099432E-2,-1.4200608E-3,1.4126105E-3,3.5483886E-2,5.674983E-3,-1.6487919E-2,-8.262346E-3,-1.2523292E-1,3.7477642E-2,-9.82944E-2,1.0507341E-1,-8.9848805E-3],"split_indices":[3,3,0,5,4,6,3,0,0,0,0,0,0,0,0],"split_type":[0,0,0,0,0,0,0,0,0,0,0,0,0,0,0],"sum_hessian":[1.7147388E2,1.6380916E2,7.664718E0,1.5965425E2,4.1548944E0,2.3002746E0,5.3644433E0,1.286895E2,3.0964762E1,1.725237E0,2.4296575E0,1.1518027E0,1.148472E0,3.1020598E0,2.2623837E0],"tree_param":{"num_deleted":"0","num_feature":"7","num_nodes":"15","size_leaf_vector":"1"}},{"base_weights":[8.683675E-4,-1.0019362E-2,4.8321286E-1,-1.7522347E-1,2.4263103E-2,7.468999E-2,-8.954271E-3,2.289552E-2,-3.348622E-2,6.1161518E-2,-1.575331E-4],"categories":[],"categories_nodes":[],"categories_segments":[],"categories_sizes":[],"default_left":[0,0,0,0,0,0,0,0,0,0,0],"id":82,"left_children":[1,3,5,7,9,-1,-1,-1,-1,-1,-1],"loss_changes":[9.091407E-1,9.635099E-1,6.44013E-1,1.9625907E0,2.1429946E0,0E0,0E0,0E0,0E0,0E0,0E0],"parents":[2147483647,0,0,1,1,2,2,3,3,4,4],"right_children":[2,4,6,8,10,-1,-1,-1,-1,-1,-1],"split_conditions":[3.4218945E-2,-9.353066E-3,2.6247646E-3,-3.9724237E-3,-8.040904E-3,7.468999E-2,-8.954271E-3,2.289552E-2,-3.348622E-2,6.1161518E-2,-1.575331E-4],"split_indices":[5,2,2,5,2,0,0,0,0,0,0],"split_type":[0,0,0,0,0,0,0,0,0,0,0],"sum_hessian":[1.711938E2,1.6837244E2,2.8213623E0,2.8228872E1,1.4014357E2,1.7237364E0,1.0976259E0,7.8697553E0,2.0359118E1,4.950033E0,1.3519354E2],"tree_param":{"num_deleted":"0","num_feature":"7","num_nodes":"11","size_leaf_vector":"1"}},{"base_weights":[1.481398E-3,3.0379218E-1,-1.5325473E-2,3.866846E-2,8.662421E-2,-7.1128076E-1,1.6971186E-3,7.5653896E-2,-3.0777473E-2,-1.0088887E-1,-7.227957E-4,-1.5108597E-2,4.634652E-3],"categories":[],"categories_nodes":[],"categories_segments":[],"categories_sizes":[],"default_left":[0,0,0,0,0,0,0,0,0,0,0,0,0],"id":83,"left_children":[1,3,5,7,-1,9,11,-1,-1,-1,-1,-1,-1],"loss_changes":[8.7925655E-1,1.3255441E0,1.9443609E0,2.0336425E0,0E0,8.1374633E-1,1.1059932E0,0E0,0E0,0E0,0E0,0E0,0E0],"parents":[2147483647,0,0,1,1,2,2,3,3,5,5,6,6],"right_children":[2,4,6,8,-1,10,12,-1,-1,-1,-1,-1,-1],"split_conditions":[2.5501652E1,1.6742587E-2,2.7539652E1,1.3507729E-2,8.662421E-2,-3.5082966E-3,-6.2280027E-3,7.5653896E-2,-3.0777473E-2,-1.0088887E-1,-7.227957E-4,-1.5108597E-2,4.634652E-3],"split_indices":[1,0,1,0,0,2,3,0,0,0,0,0,0],"split_type":[0,0,0,0,0,0,0,0,0,0,0,0,0],"sum_hessian":[1.7113507E2,8.113809E0,1.6302126E2,6.2408094E0,1.8729992E0,2.9184442E0,1.6010281E2,1.6461221E0,4.5946875E0,1.7470015E0,1.1714427E0,3.5668186E1,1.2443463E2],"tree_param":{"num_deleted":"0","num_feature":"7","num_nodes":"13","size_leaf_vector":"1"}},{"base_weights":[1.4776235E-3,2.4226074E-1,-1.879453E-2,6.1954457E-1,-2.2787675E-1,-4.444501E-1,1.9253727E-2,1.391163E-2,9.620197E-2,1.6283002E-2,-7.110603E-2,-7.92223E-2,2.5436634E-2,-3.8585212E-2,4.3791505E-3],"categories":[],"categories_nodes":[],"categories_segments":[],"categories_sizes":[],"default_left":[0,0,0,0,0,0,0,0,0,0,0,0,0,0,0],"id":84,"left_children":[1,3,5,7,9,11,13,-1,-1,-1,-1,-1,-1,-1,-1],"loss_changes":[8.4357387E-1,2.521544E0,2.5912228E0,1.1354039E0,1.3817301E0,3.391611E0,1.4815364E0,0E0,0E0,0E0,0E0,0E0,0E0,0E0,0E0],"parents":[2147483647,0,0,1,1,2,2,3,3,4,4,5,5,6,6],"right_children":[2,4,6,8,10,12,14,-1,-1,-1,-1,-1,-1,-1,-1],"split_conditions":[-1.70967E-2,2.5646864E-3,-1.0725666E-2,-2.8204676E-2,4.4458285E-3,4.9452095E1,-2.6060592E-2,1.391163E-2,9.620197E-2,1.6283002E-2,-7.110603E-2,-7.92223E-2,2.5436634E-2,-3.8585212E-2,4.3791505E-3],"split_indices":[3,6,3,3,4,1,6,0,0,0,0,0,0,0,0],"split_type":[0,0,0,0,0,0,0,0,0,0,0,0,0,0,0],"sum_hessian":[1.7088847E2,1.2419931E1,1.5846854E2,6.714096E0,5.705835E0,1.2126382E1,1.4634216E2,3.3795002E0,3.334596E0,3.5214021E0,2.184433E0,8.007639E0,4.118744E0,7.51692E0,1.3882524E2],"tree_param":{"num_deleted":"0","num_feature":"7","num_nodes":"15","size_leaf_vector":"1"}},{"base_weights":[1.1783727E-3,-9.427203E-3,4.7214502E-1,2.5069635E-2,-1.6208114E-1,7.2709486E-2,-7.817864E-3,-3.4420416E-3,5.9853505E-2,1.1729924E-2,-5.418851E-2],"categories":[],"categories_nodes":[],"categories_segments":[],"categories_sizes":[],"default_left":[0,0,0,0,0,0,0,0,0,0,0],"id":85,"left_children":[1,3,5,7,9,-1,-1,-1,-1,-1,-1],"loss_changes":[8.6203367E-1,8.934611E-1,5.901044E-1,4.749919E0,3.3811054E0,0E0,0E0,0E0,0E0,0E0,0E0],"parents":[2147483647,0,0,1,1,2,2,3,3,4,4],"right_children":[2,4,6,8,10,-1,-1,-1,-1,-1,-1],"split_conditions":[3.4218945E-2,1.1099432E-2,2.6247646E-3,7.678287E-3,2.8634416E-3,7.2709486E-2,-7.817864E-3,-3.4420416E-3,5.9853505E-2,1.1729924E-2,-5.418851E-2],"split_indices":[5,5,2,5,3,0,0,0,0,0,0],"split_type":[0,0,0,0,0,0,0,0,0,0,0],"sum_hessian":[1.7069261E2,1.6789188E2,2.8007302E0,1.3762668E2,3.0265196E1,1.6945014E0,1.106229E0,1.2554309E2,1.2083589E1,1.7836203E1,1.2428992E1],"tree_param":{"num_deleted":"0","num_feature":"7","num_nodes":"11","size_leaf_vector":"1"}},{"base_weights":[1.5694832E-3,-8.6004175E-3,4.8150614E-1,4.9894587E-3,-7.236678E-2,3.6573603E-3,7.268642E-2,4.235569E-3,-1.8191874E-2],"categories":[],"categories_nodes":[],"categories_segments":[],"categories_sizes":[],"default_left":[0,0,0,0,0,0,0,0,0],"id":86,"left_children":[1,3,5,7,-1,-1,-1,-1,-1],"loss_changes":[8.4182143E-1,1.646336E0,3.6410654E-1,1.1732422E0,0E0,0E0,0E0,0E0,0E0],"parents":[2147483647,0,0,1,1,2,2,3,3],"right_children":[2,4,6,8,-1,-1,-1,-1,-1],"split_conditions":[8.784322E1,8.534146E1,1.3945716E-2,1.1505618E-2,-7.236678E-2,3.6573603E-3,7.268642E-2,4.235569E-3,-1.8191874E-2],"split_indices":[1,1,5,2,0,0,0,0,0],"split_type":[0,0,0,0,0,0,0,0,0],"sum_hessian":[1.7062386E2,1.6804504E2,2.5788093E0,1.658854E2,2.1596344E0,1.3250407E0,1.2537687E0,1.3889186E2,2.6993538E1],"tree_param":{"num_deleted":"0","num_feature":"7","num_nodes":"9","size_leaf_vector":"1"}},{"base_weights":[1.3633478E-3,-1.4288029E-2,3.0274245E-1,1.1738564E-2,-8.2449806E-1,-3.7944725E-1,6.0843074E-1,1.4667732E-2,-4.109024E-3,-7.806331E-3,-1.1830286E-1,3.5228446E-2,-9.384123E-2,1.0165963E-1,-6.973456E-3],"categories":[],"categories_nodes":[],"categories_segments":[],"categories_sizes":[],"default_left":[0,0,0,0,0,0,0,0,0,0,0,0,0,0,0],"id":87,"left_children":[1,3,5,7,9,11,13,-1,-1,-1,-1,-1,-1,-1,-1],"loss_changes":[8.133676E-1,3.4680257E0,2.0060635E0,1.1457939E0,1.2774341E0,1.6598911E0,1.8043947E0,0E0,0E0,0E0,0E0,0E0,0E0,0E0,0E0],"parents":[2147483647,0,0,1,1,2,2,3,3,4,4,5,5,6,6],"right_children":[2,4,6,8,10,12,14,-1,-1,-1,-1,-1,-1,-1,-1],"split_conditions":[2.3048671E-2,2.0446526E-2,1.4285678E-2,-3.9724237E-3,-1.4200608E-3,1.4126105E-3,3.5483886E-2,1.4667732E-2,-4.109024E-3,-7.806331E-3,-1.1830286E-1,3.5228446E-2,-9.384123E-2,1.0165963E-1,-6.973456E-3],"split_indices":[3,3,0,5,4,6,3,0,0,0,0,0,0,0,0],"split_type":[0,0,0,0,0,0,0,0,0,0,0,0,0,0,0],"sum_hessian":[1.7051631E2,1.6300371E2,7.5126023E0,1.5888531E2,4.1184034E0,2.2500305E0,5.262572E0,4.4202908E1,1.14682396E2,1.7314271E0,2.3869762E0,1.134557E0,1.1154735E0,2.9737375E0,2.2888346E0],"tree_param":{"num_deleted":"0","num_feature":"7","num_nodes":"15","size_leaf_vector":"1"}},{"base_weights":[7.9336704E-4,-1.2901622E-2,3.3786935E-1,-3.4322392E-3,-6.673168E-2,-3.7726805E-2,6.554886E-1,3.005111E-2,-2.7983452E-3,9.238546E-2,-1.3271348E-3],"categories":[],"categories_nodes":[],"categories_segments":[],"categories_sizes":[],"default_left":[0,0,0,0,0,0,0,0,0,0,0],"id":88,"left_children":[1,3,5,7,-1,-1,9,-1,-1,-1,-1],"loss_changes":[7.948274E-1,1.0233825E0,1.7742003E0,1.2333858E0,0E0,0E0,9.132428E-1,0E0,0E0,0E0,0E0],"parents":[2147483647,0,0,1,1,2,2,3,3,6,6],"right_children":[2,4,6,8,-1,-1,10,-1,-1,-1,-1],"split_conditions":[2.4219234E-2,2.2096368E-2,4.2396996E1,-1.70967E-2,-6.673168E-2,-3.7726805E-2,1.0579643E-2,3.005111E-2,-2.7983452E-3,9.238546E-2,-1.3271348E-3],"split_indices":[6,6,1,3,0,0,3,0,0,0,0],"split_type":[0,0,0,0,0,0,0,0,0,0,0],"sum_hessian":[1.7023598E2,1.6451372E2,5.722268E0,1.6315807E2,1.3556514E0,1.7020986E0,4.0201693E0,1.1354125E1,1.5180394E2,2.5966985E0,1.423471E0],"tree_param":{"num_deleted":"0","num_feature":"7","num_nodes":"11","size_leaf_vector":"1"}},{"base_weights":[8.344772E-4,-8.995464E-3,4.707016E-1,3.6139754E-3,-6.820837E-2,5.0919685E-3,7.007453E-2,3.796141E-3,-1.6775044E-2],"categories":[],"categories_nodes":[],"categories_segments":[],"categories_sizes":[],"default_left":[0,0,0,0,0,0,0,0,0],"id":89,"left_children":[1,3,5,7,-1,-1,-1,-1,-1],"loss_changes":[7.944294E-1,1.4330701E0,3.0468178E-1,9.861047E-1,0E0,0E0,0E0,0E0,0E0],"parents":[2147483647,0,0,1,1,2,2,3,3],"right_children":[2,4,6,8,-1,-1,-1,-1,-1],"split_conditions":[8.784322E1,8.534146E1,1.3945716E-2,1.1505618E-2,-6.820837E-2,5.0919685E-3,7.007453E-2,3.796141E-3,-1.6775044E-2],"split_indices":[1,1,5,2,0,0,0,0,0],"split_type":[0,0,0,0,0,0,0,0,0],"sum_hessian":[1.7008362E2,1.6755902E2,2.5245938E0,1.6545409E2,2.1049383E0,1.3260945E0,1.1984994E0,1.3847693E2,2.6977156E1],"tree_param":{"num_deleted":"0","num_feature":"7","num_nodes":"9","size_leaf_vector":"1"}},{"base_weights":[7.2319654E-4,-9.122026E-3,4.6331078E-1,-7.507801E-2,-3.6600708E-5,7.280352E-2,-2.31054E-3,4.193299E-2,-1.6009848E-3],"categories":[],"categories_nodes":[],"categories_segments":[],"categories_sizes":[],"default_left":[0,0,0,0,0,0,0,0,0],"id":90,"left_children":[1,3,5,-1,7,-1,-1,-1,-1],"loss_changes":[7.8291065E-1,1.1346735E0,4.781143E-1,0E0,1.1277877E0,0E0,0E0,0E0,0E0],"parents":[2147483647,0,0,1,1,2,2,4,4],"right_children":[2,4,6,-1,8,-1,-1,-1,-1],"split_conditions":[3.1095346E-2,-4.733509E-2,3.8776517E-2,-7.507801E-2,-2.8260421E-2,7.280352E-2,-2.31054E-3,4.193299E-2,-1.6009848E-3],"split_indices":[2,4,2,0,4,0,0,0,0],"split_type":[0,0,0,0,0,0,0,0,0],"sum_hessian":[1.6997865E2,1.6739626E2,2.5824037E0,1.0378665E0,1.6635838E2,1.3506178E0,1.2317858E0,5.177398E0,1.6118098E2],"tree_param":{"num_deleted":"0","num_feature":"7","num_nodes":"9","size_leaf_vector":"1"}},{"base_weights":[8.7091356E-4,2.822742E-1,-1.4497064E-2,5.242141E-1,-2.3199901E-1,-6.7928815E-1,1.618682E-3,8.024741E-2,-2.3534198E-3,-6.3769355E-2,3.2449346E-2,